<?xml version="1.0" encoding="UTF-8" standalone="yes"?>
<PMML xmlns="http://www.dmg.org/PMML-4_4" xmlns:data="http://jpmml.org/jpmml-model/InlineTable" version="4.4">
	<Header>
		<Application name="JPMML-SkLearn" version="1.6.8"/>
		<Timestamp>2021-07-02T05:04:59Z</Timestamp>
	</Header>
	<MiningBuildTask>
		<Extension>PMMLPipeline(steps=[('mapper', FeatureUnion(transformer_list=[('mapper_numerical',
                                DataFrameMapper(features=[(['duration.in.month',
                                                            'credit.amount',
                                                            'installment.rate.in.percentage.of.disposable.income',
                                                            'present.residence.since',
                                                            'age.in.years',
                                                            'number.of.existing.credits.at.this.bank',
                                                            'number.of.people.being.liable.to.provide.maintenance.for'],
                                                           [ContinuousDomain(with_data=False),
                                                            Sim...
                                                            LabelBinarizer()]),
                                                          ('housing',
                                                           [CategoricalDomain(),
                                                            CategoricalImputer(),
                                                            LabelBinarizer()]),
                                                          ('foreign.worker',
                                                           [CategoricalDomain(),
                                                            CategoricalImputer(),
                                                            LabelBinarizer()]),
                                                          ('credit.history',
                                                           [CategoricalDomain(),
                                                            CategoricalImputer(),
                                                            LabelBinarizer()]),
                                                          ('status.of.existing.checking.account',
                                                           [CategoricalDomain(),
                                                            CategoricalImputer(),
                                                            LabelBinarizer()])]))])),
       ('classifier', LGBMClassifier())])</Extension>
	</MiningBuildTask>
	<DataDictionary>
		<DataField name="flag" optype="categorical" dataType="integer">
			<Value value="0"/>
			<Value value="1"/>
		</DataField>
		<DataField name="duration.in.month" optype="continuous" dataType="double"/>
		<DataField name="credit.amount" optype="continuous" dataType="double"/>
		<DataField name="installment.rate.in.percentage.of.disposable.income" optype="continuous" dataType="double"/>
		<DataField name="present.residence.since" optype="continuous" dataType="double"/>
		<DataField name="age.in.years" optype="continuous" dataType="double"/>
		<DataField name="number.of.existing.credits.at.this.bank" optype="continuous" dataType="double"/>
		<DataField name="number.of.people.being.liable.to.provide.maintenance.for" optype="continuous" dataType="double"/>
		<DataField name="other.debtors.or.guarantors" optype="categorical" dataType="string">
			<Value value="co-applicant"/>
			<Value value="guarantor"/>
			<Value value="none"/>
		</DataField>
		<DataField name="present.employment.since" optype="categorical" dataType="string">
			<Value value="... &lt; 1 year"/>
			<Value value="... &gt;= 7 years"/>
			<Value value="1 &lt;= ... &lt; 4 years"/>
			<Value value="4 &lt;= ... &lt; 7 years"/>
			<Value value="unemployed"/>
		</DataField>
		<DataField name="personal.status.and.sex" optype="categorical" dataType="string">
			<Value value="female : divorced/separated/married"/>
			<Value value="male : divorced/separated"/>
			<Value value="male : married/widowed"/>
			<Value value="male : single"/>
		</DataField>
		<DataField name="telephone" optype="categorical" dataType="string">
			<Value value="none"/>
			<Value value="yes, registered under the customers name"/>
		</DataField>
		<DataField name="savings.account.and.bonds" optype="categorical" dataType="string">
			<Value value="... &lt; 100 DM"/>
			<Value value="... &gt;= 1000 DM"/>
			<Value value="100 &lt;= ... &lt; 500 DM"/>
			<Value value="500 &lt;= ... &lt; 1000 DM"/>
			<Value value="unknown/ no savings account"/>
		</DataField>
		<DataField name="property" optype="categorical" dataType="string">
			<Value value="building society savings agreement/ life insurance"/>
			<Value value="car or other, not in attribute Savings account/bonds"/>
			<Value value="real estate"/>
			<Value value="unknown / no property"/>
		</DataField>
		<DataField name="job" optype="categorical" dataType="string">
			<Value value="management/ self-employed/ highly qualified employee/ officer"/>
			<Value value="skilled employee / official"/>
			<Value value="unemployed/ unskilled - non-resident"/>
			<Value value="unskilled - resident"/>
		</DataField>
		<DataField name="purpose" optype="categorical" dataType="string">
			<Value value="business"/>
			<Value value="car (new)"/>
			<Value value="car (used)"/>
			<Value value="domestic appliances"/>
			<Value value="education"/>
			<Value value="furniture/equipment"/>
			<Value value="others"/>
			<Value value="radio/television"/>
			<Value value="repairs"/>
			<Value value="retraining"/>
		</DataField>
		<DataField name="other.installment.plans" optype="categorical" dataType="string">
			<Value value="bank"/>
			<Value value="none"/>
			<Value value="stores"/>
		</DataField>
		<DataField name="housing" optype="categorical" dataType="string">
			<Value value="for free"/>
			<Value value="own"/>
			<Value value="rent"/>
		</DataField>
		<DataField name="foreign.worker" optype="categorical" dataType="string">
			<Value value="no"/>
			<Value value="yes"/>
		</DataField>
		<DataField name="credit.history" optype="categorical" dataType="string">
			<Value value="all credits at this bank paid back duly"/>
			<Value value="critical account/ other credits existing (not at this bank)"/>
			<Value value="delay in paying off in the past"/>
			<Value value="existing credits paid back duly till now"/>
			<Value value="no credits taken/ all credits paid back duly"/>
		</DataField>
		<DataField name="status.of.existing.checking.account" optype="categorical" dataType="string">
			<Value value="... &lt; 0 DM"/>
			<Value value="... &gt;= 200 DM / salary assignments for at least 1 year"/>
			<Value value="0 &lt;= ... &lt; 200 DM"/>
			<Value value="no checking account"/>
		</DataField>
	</DataDictionary>
	<TransformationDictionary/>
	<MiningModel functionName="classification" algorithmName="LightGBM">
		<MiningSchema>
			<MiningField name="flag" usageType="target"/>
			<MiningField name="duration.in.month" missingValueReplacement="-999" missingValueTreatment="asValue"/>
			<MiningField name="credit.amount" missingValueReplacement="-999" missingValueTreatment="asValue"/>
			<MiningField name="installment.rate.in.percentage.of.disposable.income" missingValueReplacement="-999" missingValueTreatment="asValue"/>
			<MiningField name="present.residence.since" missingValueReplacement="-999" missingValueTreatment="asValue"/>
			<MiningField name="age.in.years" missingValueReplacement="-999" missingValueTreatment="asValue"/>
			<MiningField name="number.of.existing.credits.at.this.bank" missingValueReplacement="-999" missingValueTreatment="asValue"/>
			<MiningField name="number.of.people.being.liable.to.provide.maintenance.for" missingValueReplacement="-999" missingValueTreatment="asValue"/>
			<MiningField name="other.debtors.or.guarantors" importance="4.0" missingValueReplacement="none" missingValueTreatment="asMode"/>
			<MiningField name="present.employment.since" importance="17.0" missingValueReplacement="1 &lt;= ... &lt; 4 years" missingValueTreatment="asMode"/>
			<MiningField name="personal.status.and.sex" importance="68.0" missingValueReplacement="male : single" missingValueTreatment="asMode"/>
			<MiningField name="telephone" importance="59.0" missingValueReplacement="none" missingValueTreatment="asMode"/>
			<MiningField name="savings.account.and.bonds" importance="16.0" missingValueReplacement="... &lt; 100 DM" missingValueTreatment="asMode"/>
			<MiningField name="property" importance="21.0" missingValueReplacement="car or other, not in attribute Savings account/bonds" missingValueTreatment="asMode"/>
			<MiningField name="job" importance="16.0" missingValueReplacement="skilled employee / official" missingValueTreatment="asMode"/>
			<MiningField name="purpose" importance="38.0" missingValueReplacement="radio/television" missingValueTreatment="asMode"/>
			<MiningField name="other.installment.plans" importance="41.0" missingValueReplacement="none" missingValueTreatment="asMode"/>
			<MiningField name="housing" importance="10.0" missingValueReplacement="own" missingValueTreatment="asMode"/>
			<MiningField name="foreign.worker" importance="12.0" missingValueReplacement="yes" missingValueTreatment="asMode"/>
			<MiningField name="credit.history" importance="34.0" missingValueReplacement="existing credits paid back duly till now" missingValueTreatment="asMode"/>
			<MiningField name="status.of.existing.checking.account" importance="56.0" missingValueReplacement="no checking account" missingValueTreatment="asMode"/>
		</MiningSchema>
		<ModelStats>
			<UnivariateStats field="duration.in.month">
				<Counts totalFreq="800" missingFreq="0" invalidFreq="0"/>
				<NumericInfo minimum="4" maximum="72" mean="21.08" standardDeviation="12.103040940193518" median="18.0" interQuartileRange="12.0"/>
			</UnivariateStats>
			<UnivariateStats field="credit.amount">
				<Counts totalFreq="800" missingFreq="0" invalidFreq="0"/>
				<NumericInfo minimum="250" maximum="18424" mean="3301.85125" standardDeviation="2770.814873213915" median="2384.0" interQuartileRange="2659.75"/>
			</UnivariateStats>
			<UnivariateStats field="installment.rate.in.percentage.of.disposable.income">
				<Counts totalFreq="800" missingFreq="0" invalidFreq="0"/>
				<NumericInfo minimum="1" maximum="4" mean="2.995" standardDeviation="1.130254396142746" median="3.0" interQuartileRange="2.0"/>
			</UnivariateStats>
			<UnivariateStats field="present.residence.since">
				<Counts totalFreq="800" missingFreq="0" invalidFreq="0"/>
				<NumericInfo minimum="1" maximum="4" mean="2.86" standardDeviation="1.1024518130059064" median="3.0" interQuartileRange="2.0"/>
			</UnivariateStats>
			<UnivariateStats field="age.in.years">
				<Counts totalFreq="800" missingFreq="0" invalidFreq="0"/>
				<NumericInfo minimum="19" maximum="75" mean="35.65125" standardDeviation="11.421782848465474" median="33.0" interQuartileRange="15.0"/>
			</UnivariateStats>
			<UnivariateStats field="number.of.existing.credits.at.this.bank">
				<Counts totalFreq="800" missingFreq="0" invalidFreq="0"/>
				<NumericInfo minimum="1" maximum="4" mean="1.40125" standardDeviation="0.5636917930039418" median="1.0" interQuartileRange="1.0"/>
			</UnivariateStats>
			<UnivariateStats field="number.of.people.being.liable.to.provide.maintenance.for">
				<Counts totalFreq="800" missingFreq="0" invalidFreq="0"/>
				<NumericInfo minimum="1" maximum="2" mean="1.15375" standardDeviation="0.36070893737194715" median="1.0" interQuartileRange="0.0"/>
			</UnivariateStats>
			<UnivariateStats field="other.debtors.or.guarantors">
				<Counts totalFreq="800" missingFreq="0" invalidFreq="0"/>
				<DiscrStats>
					<Array type="string">co-applicant guarantor none</Array>
					<Array type="int">35 38 727</Array>
				</DiscrStats>
			</UnivariateStats>
			<UnivariateStats field="present.employment.since">
				<Counts totalFreq="800" missingFreq="0" invalidFreq="0"/>
				<DiscrStats>
					<Array type="string">"... &lt; 1 year" "... &gt;= 7 years" "1 &lt;= ... &lt; 4 years" "4 &lt;= ... &lt; 7 years" unemployed</Array>
					<Array type="int">131 214 275 131 49</Array>
				</DiscrStats>
			</UnivariateStats>
			<UnivariateStats field="personal.status.and.sex">
				<Counts totalFreq="800" missingFreq="0" invalidFreq="0"/>
				<DiscrStats>
					<Array type="string">"female : divorced/separated/married" "male : divorced/separated" "male : married/widowed" "male : single"</Array>
					<Array type="int">251 39 76 434</Array>
				</DiscrStats>
			</UnivariateStats>
			<UnivariateStats field="telephone">
				<Counts totalFreq="800" missingFreq="0" invalidFreq="0"/>
				<DiscrStats>
					<Array type="string">none "yes, registered under the customers name"</Array>
					<Array type="int">478 322</Array>
				</DiscrStats>
			</UnivariateStats>
			<UnivariateStats field="savings.account.and.bonds">
				<Counts totalFreq="800" missingFreq="0" invalidFreq="0"/>
				<DiscrStats>
					<Array type="string">"... &lt; 100 DM" "... &gt;= 1000 DM" "100 &lt;= ... &lt; 500 DM" "500 &lt;= ... &lt; 1000 DM" "unknown/ no savings account"</Array>
					<Array type="int">479 35 84 53 149</Array>
				</DiscrStats>
			</UnivariateStats>
			<UnivariateStats field="property">
				<Counts totalFreq="800" missingFreq="0" invalidFreq="0"/>
				<DiscrStats>
					<Array type="string">"building society savings agreement/ life insurance" "car or other, not in attribute Savings account/bonds" "real estate" "unknown / no property"</Array>
					<Array type="int">192 266 216 126</Array>
				</DiscrStats>
			</UnivariateStats>
			<UnivariateStats field="job">
				<Counts totalFreq="800" missingFreq="0" invalidFreq="0"/>
				<DiscrStats>
					<Array type="string">"management/ self-employed/ highly qualified employee/ officer" "skilled employee / official" "unemployed/ unskilled - non-resident" "unskilled - resident"</Array>
					<Array type="int">117 509 16 158</Array>
				</DiscrStats>
			</UnivariateStats>
			<UnivariateStats field="purpose">
				<Counts totalFreq="800" missingFreq="0" invalidFreq="0"/>
				<DiscrStats>
					<Array type="string">business "car (new)" "car (used)" "domestic appliances" education furniture/equipment others radio/television repairs retraining</Array>
					<Array type="int">69 185 84 8 36 154 10 227 20 7</Array>
				</DiscrStats>
			</UnivariateStats>
			<UnivariateStats field="other.installment.plans">
				<Counts totalFreq="800" missingFreq="0" invalidFreq="0"/>
				<DiscrStats>
					<Array type="string">bank none stores</Array>
					<Array type="int">105 655 40</Array>
				</DiscrStats>
			</UnivariateStats>
			<UnivariateStats field="housing">
				<Counts totalFreq="800" missingFreq="0" invalidFreq="0"/>
				<DiscrStats>
					<Array type="string">"for free" own rent</Array>
					<Array type="int">86 575 139</Array>
				</DiscrStats>
			</UnivariateStats>
			<UnivariateStats field="foreign.worker">
				<Counts totalFreq="800" missingFreq="0" invalidFreq="0"/>
				<DiscrStats>
					<Array type="string">no yes</Array>
					<Array type="int">29 771</Array>
				</DiscrStats>
			</UnivariateStats>
			<UnivariateStats field="credit.history">
				<Counts totalFreq="800" missingFreq="0" invalidFreq="0"/>
				<DiscrStats>
					<Array type="string">"all credits at this bank paid back duly" "critical account/ other credits existing (not at this bank)" "delay in paying off in the past" "existing credits paid back duly till now" "no credits taken/ all credits paid back duly"</Array>
					<Array type="int">39 236 74 422 29</Array>
				</DiscrStats>
			</UnivariateStats>
			<UnivariateStats field="status.of.existing.checking.account">
				<Counts totalFreq="800" missingFreq="0" invalidFreq="0"/>
				<DiscrStats>
					<Array type="string">"... &lt; 0 DM" "... &gt;= 200 DM / salary assignments for at least 1 year" "0 &lt;= ... &lt; 200 DM" "no checking account"</Array>
					<Array type="int">215 49 219 317</Array>
				</DiscrStats>
			</UnivariateStats>
		</ModelStats>
		<Segmentation multipleModelMethod="modelChain" missingPredictionTreatment="returnMissing">
			<Segment id="1">
				<True/>
				<MiningModel functionName="regression">
					<MiningSchema>
						<MiningField name="duration.in.month"/>
						<MiningField name="credit.amount"/>
						<MiningField name="installment.rate.in.percentage.of.disposable.income"/>
						<MiningField name="present.residence.since"/>
						<MiningField name="age.in.years"/>
						<MiningField name="number.of.existing.credits.at.this.bank"/>
						<MiningField name="number.of.people.being.liable.to.provide.maintenance.for"/>
						<MiningField name="other.debtors.or.guarantors"/>
						<MiningField name="present.employment.since"/>
						<MiningField name="personal.status.and.sex"/>
						<MiningField name="telephone"/>
						<MiningField name="savings.account.and.bonds"/>
						<MiningField name="property"/>
						<MiningField name="job"/>
						<MiningField name="purpose"/>
						<MiningField name="other.installment.plans"/>
						<MiningField name="housing"/>
						<MiningField name="foreign.worker"/>
						<MiningField name="credit.history"/>
						<MiningField name="status.of.existing.checking.account"/>
					</MiningSchema>
					<Output>
						<OutputField name="lgbmValue" optype="continuous" dataType="double" isFinalResult="false"/>
					</Output>
					<LocalTransformations>
						<DerivedField name="standardScaler(duration.in.month)" optype="continuous" dataType="double">
							<Apply function="/">
								<Apply function="-">
									<FieldRef field="duration.in.month"/>
									<Constant dataType="double">21.08</Constant>
								</Apply>
								<Constant dataType="double">12.103040940193502</Constant>
							</Apply>
						</DerivedField>
						<DerivedField name="standardScaler(credit.amount)" optype="continuous" dataType="double">
							<Apply function="/">
								<Apply function="-">
									<FieldRef field="credit.amount"/>
									<Constant dataType="double">3301.85125</Constant>
								</Apply>
								<Constant dataType="double">2770.814873213914</Constant>
							</Apply>
						</DerivedField>
						<DerivedField name="standardScaler(installment.rate.in.percentage.of.disposable.income)" optype="continuous" dataType="double">
							<Apply function="/">
								<Apply function="-">
									<FieldRef field="installment.rate.in.percentage.of.disposable.income"/>
									<Constant dataType="double">2.995</Constant>
								</Apply>
								<Constant dataType="double">1.1302543961427445</Constant>
							</Apply>
						</DerivedField>
						<DerivedField name="standardScaler(present.residence.since)" optype="continuous" dataType="double">
							<Apply function="/">
								<Apply function="-">
									<FieldRef field="present.residence.since"/>
									<Constant dataType="double">2.86</Constant>
								</Apply>
								<Constant dataType="double">1.1024518130059018</Constant>
							</Apply>
						</DerivedField>
						<DerivedField name="standardScaler(age.in.years)" optype="continuous" dataType="double">
							<Apply function="/">
								<Apply function="-">
									<FieldRef field="age.in.years"/>
									<Constant dataType="double">35.65125</Constant>
								</Apply>
								<Constant dataType="double">11.42178284846547</Constant>
							</Apply>
						</DerivedField>
						<DerivedField name="standardScaler(number.of.existing.credits.at.this.bank)" optype="continuous" dataType="double">
							<Apply function="/">
								<Apply function="-">
									<FieldRef field="number.of.existing.credits.at.this.bank"/>
									<Constant dataType="double">1.40125</Constant>
								</Apply>
								<Constant dataType="double">0.5636917930039428</Constant>
							</Apply>
						</DerivedField>
						<DerivedField name="standardScaler(number.of.people.being.liable.to.provide.maintenance.for)" optype="continuous" dataType="double">
							<Apply function="/">
								<Apply function="-">
									<FieldRef field="number.of.people.being.liable.to.provide.maintenance.for"/>
									<Constant dataType="double">1.15375</Constant>
								</Apply>
								<Constant dataType="double">0.36070893737194815</Constant>
							</Apply>
						</DerivedField>
						<DerivedField name="other.debtors.or.guarantors=co-applicant" optype="continuous" dataType="double">
							<NormDiscrete field="other.debtors.or.guarantors" value="co-applicant"/>
						</DerivedField>
						<DerivedField name="other.debtors.or.guarantors=guarantor" optype="continuous" dataType="double">
							<NormDiscrete field="other.debtors.or.guarantors" value="guarantor"/>
						</DerivedField>
						<DerivedField name="other.debtors.or.guarantors=none" optype="continuous" dataType="double">
							<NormDiscrete field="other.debtors.or.guarantors" value="none"/>
						</DerivedField>
						<DerivedField name="present.employment.since=... &lt; 1 year" optype="continuous" dataType="double">
							<NormDiscrete field="present.employment.since" value="... &lt; 1 year"/>
						</DerivedField>
						<DerivedField name="present.employment.since=... &gt;= 7 years" optype="continuous" dataType="double">
							<NormDiscrete field="present.employment.since" value="... &gt;= 7 years"/>
						</DerivedField>
						<DerivedField name="present.employment.since=1 &lt;= ... &lt; 4 years" optype="continuous" dataType="double">
							<NormDiscrete field="present.employment.since" value="1 &lt;= ... &lt; 4 years"/>
						</DerivedField>
						<DerivedField name="present.employment.since=4 &lt;= ... &lt; 7 years" optype="continuous" dataType="double">
							<NormDiscrete field="present.employment.since" value="4 &lt;= ... &lt; 7 years"/>
						</DerivedField>
						<DerivedField name="present.employment.since=unemployed" optype="continuous" dataType="double">
							<NormDiscrete field="present.employment.since" value="unemployed"/>
						</DerivedField>
						<DerivedField name="personal.status.and.sex=female : divorced/separated/married" optype="continuous" dataType="double">
							<NormDiscrete field="personal.status.and.sex" value="female : divorced/separated/married"/>
						</DerivedField>
						<DerivedField name="personal.status.and.sex=male : divorced/separated" optype="continuous" dataType="double">
							<NormDiscrete field="personal.status.and.sex" value="male : divorced/separated"/>
						</DerivedField>
						<DerivedField name="personal.status.and.sex=male : married/widowed" optype="continuous" dataType="double">
							<NormDiscrete field="personal.status.and.sex" value="male : married/widowed"/>
						</DerivedField>
						<DerivedField name="personal.status.and.sex=male : single" optype="continuous" dataType="double">
							<NormDiscrete field="personal.status.and.sex" value="male : single"/>
						</DerivedField>
						<DerivedField name="telephone=yes, registered under the customers name" optype="continuous" dataType="double">
							<NormDiscrete field="telephone" value="yes, registered under the customers name"/>
						</DerivedField>
						<DerivedField name="savings.account.and.bonds=... &lt; 100 DM" optype="continuous" dataType="double">
							<NormDiscrete field="savings.account.and.bonds" value="... &lt; 100 DM"/>
						</DerivedField>
						<DerivedField name="savings.account.and.bonds=... &gt;= 1000 DM" optype="continuous" dataType="double">
							<NormDiscrete field="savings.account.and.bonds" value="... &gt;= 1000 DM"/>
						</DerivedField>
						<DerivedField name="savings.account.and.bonds=100 &lt;= ... &lt; 500 DM" optype="continuous" dataType="double">
							<NormDiscrete field="savings.account.and.bonds" value="100 &lt;= ... &lt; 500 DM"/>
						</DerivedField>
						<DerivedField name="savings.account.and.bonds=500 &lt;= ... &lt; 1000 DM" optype="continuous" dataType="double">
							<NormDiscrete field="savings.account.and.bonds" value="500 &lt;= ... &lt; 1000 DM"/>
						</DerivedField>
						<DerivedField name="savings.account.and.bonds=unknown/ no savings account" optype="continuous" dataType="double">
							<NormDiscrete field="savings.account.and.bonds" value="unknown/ no savings account"/>
						</DerivedField>
						<DerivedField name="property=building society savings agreement/ life insurance" optype="continuous" dataType="double">
							<NormDiscrete field="property" value="building society savings agreement/ life insurance"/>
						</DerivedField>
						<DerivedField name="property=car or other, not in attribute Savings account/bonds" optype="continuous" dataType="double">
							<NormDiscrete field="property" value="car or other, not in attribute Savings account/bonds"/>
						</DerivedField>
						<DerivedField name="property=real estate" optype="continuous" dataType="double">
							<NormDiscrete field="property" value="real estate"/>
						</DerivedField>
						<DerivedField name="property=unknown / no property" optype="continuous" dataType="double">
							<NormDiscrete field="property" value="unknown / no property"/>
						</DerivedField>
						<DerivedField name="job=management/ self-employed/ highly qualified employee/ officer" optype="continuous" dataType="double">
							<NormDiscrete field="job" value="management/ self-employed/ highly qualified employee/ officer"/>
						</DerivedField>
						<DerivedField name="job=skilled employee / official" optype="continuous" dataType="double">
							<NormDiscrete field="job" value="skilled employee / official"/>
						</DerivedField>
						<DerivedField name="job=unskilled - resident" optype="continuous" dataType="double">
							<NormDiscrete field="job" value="unskilled - resident"/>
						</DerivedField>
						<DerivedField name="purpose=business" optype="continuous" dataType="double">
							<NormDiscrete field="purpose" value="business"/>
						</DerivedField>
						<DerivedField name="purpose=car (new)" optype="continuous" dataType="double">
							<NormDiscrete field="purpose" value="car (new)"/>
						</DerivedField>
						<DerivedField name="purpose=car (used)" optype="continuous" dataType="double">
							<NormDiscrete field="purpose" value="car (used)"/>
						</DerivedField>
						<DerivedField name="purpose=education" optype="continuous" dataType="double">
							<NormDiscrete field="purpose" value="education"/>
						</DerivedField>
						<DerivedField name="purpose=furniture/equipment" optype="continuous" dataType="double">
							<NormDiscrete field="purpose" value="furniture/equipment"/>
						</DerivedField>
						<DerivedField name="purpose=radio/television" optype="continuous" dataType="double">
							<NormDiscrete field="purpose" value="radio/television"/>
						</DerivedField>
						<DerivedField name="other.installment.plans=bank" optype="continuous" dataType="double">
							<NormDiscrete field="other.installment.plans" value="bank"/>
						</DerivedField>
						<DerivedField name="other.installment.plans=none" optype="continuous" dataType="double">
							<NormDiscrete field="other.installment.plans" value="none"/>
						</DerivedField>
						<DerivedField name="housing=for free" optype="continuous" dataType="double">
							<NormDiscrete field="housing" value="for free"/>
						</DerivedField>
						<DerivedField name="housing=own" optype="continuous" dataType="double">
							<NormDiscrete field="housing" value="own"/>
						</DerivedField>
						<DerivedField name="housing=rent" optype="continuous" dataType="double">
							<NormDiscrete field="housing" value="rent"/>
						</DerivedField>
						<DerivedField name="foreign.worker=yes" optype="continuous" dataType="double">
							<NormDiscrete field="foreign.worker" value="yes"/>
						</DerivedField>
						<DerivedField name="credit.history=all credits at this bank paid back duly" optype="continuous" dataType="double">
							<NormDiscrete field="credit.history" value="all credits at this bank paid back duly"/>
						</DerivedField>
						<DerivedField name="credit.history=critical account/ other credits existing (not at this bank)" optype="continuous" dataType="double">
							<NormDiscrete field="credit.history" value="critical account/ other credits existing (not at this bank)"/>
						</DerivedField>
						<DerivedField name="credit.history=delay in paying off in the past" optype="continuous" dataType="double">
							<NormDiscrete field="credit.history" value="delay in paying off in the past"/>
						</DerivedField>
						<DerivedField name="credit.history=existing credits paid back duly till now" optype="continuous" dataType="double">
							<NormDiscrete field="credit.history" value="existing credits paid back duly till now"/>
						</DerivedField>
						<DerivedField name="credit.history=no credits taken/ all credits paid back duly" optype="continuous" dataType="double">
							<NormDiscrete field="credit.history" value="no credits taken/ all credits paid back duly"/>
						</DerivedField>
						<DerivedField name="status.of.existing.checking.account=... &lt; 0 DM" optype="continuous" dataType="double">
							<NormDiscrete field="status.of.existing.checking.account" value="... &lt; 0 DM"/>
						</DerivedField>
						<DerivedField name="status.of.existing.checking.account=... &gt;= 200 DM / salary assignments for at least 1 year" optype="continuous" dataType="double">
							<NormDiscrete field="status.of.existing.checking.account" value="... &gt;= 200 DM / salary assignments for at least 1 year"/>
						</DerivedField>
						<DerivedField name="status.of.existing.checking.account=0 &lt;= ... &lt; 200 DM" optype="continuous" dataType="double">
							<NormDiscrete field="status.of.existing.checking.account" value="0 &lt;= ... &lt; 200 DM"/>
						</DerivedField>
						<DerivedField name="status.of.existing.checking.account=no checking account" optype="continuous" dataType="double">
							<NormDiscrete field="status.of.existing.checking.account" value="no checking account"/>
						</DerivedField>
					</LocalTransformations>
					<Segmentation multipleModelMethod="sum">
						<Segment id="1">
							<True/>
							<TreeModel functionName="regression" noTrueChildStrategy="returnLastPrediction">
								<MiningSchema>
									<MiningField name="standardScaler(duration.in.month)"/>
									<MiningField name="standardScaler(credit.amount)"/>
									<MiningField name="standardScaler(present.residence.since)"/>
									<MiningField name="standardScaler(age.in.years)"/>
									<MiningField name="standardScaler(number.of.existing.credits.at.this.bank)"/>
									<MiningField name="other.debtors.or.guarantors=guarantor"/>
									<MiningField name="present.employment.since=... &gt;= 7 years"/>
									<MiningField name="savings.account.and.bonds=... &lt; 100 DM"/>
									<MiningField name="property=unknown / no property"/>
									<MiningField name="purpose=car (new)"/>
									<MiningField name="other.installment.plans=none"/>
									<MiningField name="credit.history=critical account/ other credits existing (not at this bank)"/>
									<MiningField name="credit.history=existing credits paid back duly till now"/>
									<MiningField name="status.of.existing.checking.account=... &lt; 0 DM"/>
									<MiningField name="status.of.existing.checking.account=no checking account"/>
								</MiningSchema>
								<Node score="-0.8906441006258276">
									<True/>
									<Node score="-0.8154559304284295">
										<SimplePredicate field="status.of.existing.checking.account=no checking account" operator="greaterThan" value="1.0000000180025095E-35"/>
										<Node score="-0.9593505320131052">
											<SimplePredicate field="other.installment.plans=none" operator="greaterThan" value="1.0000000180025095E-35"/>
											<Node score="-1.007315399207997">
												<SimplePredicate field="standardScaler(age.in.years)" operator="greaterThan" value="-0.5385542766492382"/>
												<Node score="-1.007315399207997">
													<SimplePredicate field="credit.history=critical account/ other credits existing (not at this bank)" operator="greaterThan" value="1.0000000180025095E-35"/>
													<Node score="-1.007315399207997">
														<SimplePredicate field="standardScaler(duration.in.month)" operator="greaterThan" value="-0.04792184070648325"/>
													</Node>
												</Node>
												<Node score="-0.9073885925519722">
													<SimplePredicate field="standardScaler(number.of.existing.credits.at.this.bank)" operator="greaterThan" value="-1.0000000180025095E-35"/>
												</Node>
												<Node score="-0.9833329656105511">
													<SimplePredicate field="standardScaler(credit.amount)" operator="greaterThan" value="-1.0000000180025095E-35"/>
												</Node>
												<Node score="-1.007315399207997">
													<SimplePredicate field="standardScaler(credit.amount)" operator="greaterThan" value="-0.5239798818879494"/>
												</Node>
											</Node>
											<Node score="-0.8931133344582545">
												<SimplePredicate field="savings.account.and.bonds=... &lt; 100 DM" operator="greaterThan" value="1.0000000180025095E-35"/>
												<Node score="-0.8874032312207673">
													<SimplePredicate field="standardScaler(credit.amount)" operator="greaterThan" value="-0.4187761734706186"/>
												</Node>
											</Node>
											<Node score="-0.9833329656105511">
												<SimplePredicate field="standardScaler(credit.amount)" operator="greaterThan" value="-0.3135724650532878"/>
											</Node>
										</Node>
										<Node score="-0.9593505320131052">
											<SimplePredicate field="credit.history=existing credits paid back duly till now" operator="greaterThan" value="1.0000000180025095E-35"/>
										</Node>
									</Node>
									<Node score="-0.7998997572841402">
										<SimplePredicate field="standardScaler(duration.in.month)" operator="greaterThan" value="0.5304452023027991"/>
										<Node score="-0.6418687920088209">
											<SimplePredicate field="savings.account.and.bonds=... &lt; 100 DM" operator="greaterThan" value="1.0000000180025095E-35"/>
											<Node score="-0.5809610241422913">
												<SimplePredicate field="standardScaler(duration.in.month)" operator="greaterThan" value="1.8524270148954447"/>
											</Node>
											<Node score="-0.7815983771143881">
												<SimplePredicate field="standardScaler(age.in.years)" operator="greaterThan" value="-0.5385542766492382"/>
											</Node>
										</Node>
									</Node>
									<Node score="-0.6103647741468228">
										<SimplePredicate field="purpose=car (new)" operator="greaterThan" value="1.0000000180025095E-35"/>
										<Node score="-0.9113856648182133">
											<SimplePredicate field="standardScaler(credit.amount)" operator="greaterThan" value="-0.657875510782734"/>
											<Node score="-0.8119029773028819">
												<SimplePredicate field="status.of.existing.checking.account=... &lt; 0 DM" operator="greaterThan" value="1.0000000180025095E-35"/>
											</Node>
										</Node>
										<Node score="-0.7560708567585633">
											<SimplePredicate field="standardScaler(age.in.years)" operator="greaterThan" value="-1.0000000180025095E-35"/>
										</Node>
									</Node>
									<Node score="-0.9873300378767921">
										<SimplePredicate field="other.debtors.or.guarantors=guarantor" operator="greaterThan" value="1.0000000180025095E-35"/>
									</Node>
									<Node score="-0.7442822565263318">
										<SimplePredicate field="property=unknown / no property" operator="greaterThan" value="1.0000000180025095E-35"/>
									</Node>
									<Node score="-0.8088400866774099">
										<SimplePredicate field="savings.account.and.bonds=... &lt; 100 DM" operator="greaterThan" value="1.0000000180025095E-35"/>
										<Node score="-0.9362563366970461">
											<SimplePredicate field="present.employment.since=... &gt;= 7 years" operator="greaterThan" value="1.0000000180025095E-35"/>
										</Node>
										<Node score="-0.6527924677674918">
											<SimplePredicate field="standardScaler(duration.in.month)" operator="greaterThan" value="-0.46104115714168487"/>
											<Node score="-0.8341089343375541">
												<SimplePredicate field="standardScaler(credit.amount)" operator="greaterThan" value="-0.28307602127536513"/>
											</Node>
										</Node>
										<Node score="-0.9055717415218627">
											<SimplePredicate field="standardScaler(credit.amount)" operator="greaterThan" value="-0.7001013560137038"/>
										</Node>
									</Node>
									<Node score="-0.9717858679525215">
										<SimplePredicate field="standardScaler(present.residence.since)" operator="greaterThan" value="0.5805242392000802"/>
									</Node>
								</Node>
							</TreeModel>
						</Segment>
						<Segment id="2">
							<True/>
							<TreeModel functionName="regression" noTrueChildStrategy="returnLastPrediction">
								<MiningSchema>
									<MiningField name="standardScaler(duration.in.month)"/>
									<MiningField name="standardScaler(credit.amount)"/>
									<MiningField name="standardScaler(installment.rate.in.percentage.of.disposable.income)"/>
									<MiningField name="standardScaler(age.in.years)"/>
									<MiningField name="standardScaler(number.of.existing.credits.at.this.bank)"/>
									<MiningField name="personal.status.and.sex=male : single"/>
									<MiningField name="savings.account.and.bonds=... &lt; 100 DM"/>
									<MiningField name="property=real estate"/>
									<MiningField name="property=unknown / no property"/>
									<MiningField name="job=skilled employee / official"/>
									<MiningField name="purpose=car (new)"/>
									<MiningField name="purpose=car (used)"/>
									<MiningField name="other.installment.plans=none"/>
									<MiningField name="credit.history=critical account/ other credits existing (not at this bank)"/>
									<MiningField name="status.of.existing.checking.account=... &lt; 0 DM"/>
									<MiningField name="status.of.existing.checking.account=no checking account"/>
								</MiningSchema>
								<Node score="0.08853206661743347">
									<True/>
									<Node score="-0.0687146683364933">
										<SimplePredicate field="status.of.existing.checking.account=no checking account" operator="greaterThan" value="1.0000000180025095E-35"/>
										<Node score="-0.01577700780428699">
											<SimplePredicate field="other.installment.plans=none" operator="greaterThan" value="1.0000000180025095E-35"/>
											<Node score="-0.1389697514749709">
												<SimplePredicate field="credit.history=critical account/ other credits existing (not at this bank)" operator="greaterThan" value="1.0000000180025095E-35"/>
												<Node score="-0.13651980541662587">
													<SimplePredicate field="standardScaler(age.in.years)" operator="greaterThan" value="-0.4510022706912234"/>
												</Node>
											</Node>
											<Node score="-0.007903253814907104">
												<SimplePredicate field="standardScaler(number.of.existing.credits.at.this.bank)" operator="greaterThan" value="-1.0000000180025095E-35"/>
											</Node>
											<Node score="-0.11681660673969033">
												<SimplePredicate field="standardScaler(age.in.years)" operator="greaterThan" value="-0.976314306439312"/>
												<Node score="-0.13651980541662587">
													<SimplePredicate field="standardScaler(age.in.years)" operator="greaterThan" value="-0.2758982587751938"/>
													<Node score="-0.13714235021846938">
														<SimplePredicate field="standardScaler(credit.amount)" operator="greaterThan" value="-0.17047376732611227"/>
													</Node>
												</Node>
												<Node score="-0.06445281162589182">
													<SimplePredicate field="personal.status.and.sex=male : single" operator="greaterThan" value="1.0000000180025095E-35"/>
												</Node>
											</Node>
										</Node>
										<Node score="0.033494970452905545">
											<SimplePredicate field="standardScaler(credit.amount)" operator="greaterThan" value="-0.4036181777466807"/>
										</Node>
									</Node>
									<Node score="0.028566256814497887">
										<SimplePredicate field="standardScaler(duration.in.month)" operator="greaterThan" value="-0.7915366102898461"/>
										<Node score="0.23866544122603262">
											<SimplePredicate field="purpose=car (new)" operator="greaterThan" value="1.0000000180025095E-35"/>
											<Node score="-0.014361807873105282">
												<SimplePredicate field="standardScaler(credit.amount)" operator="greaterThan" value="-0.657875510782734"/>
												<Node score="0.1469902051409204">
													<SimplePredicate field="standardScaler(installment.rate.in.percentage.of.disposable.income)" operator="greaterThan" value="-1.0000000180025095E-35"/>
												</Node>
											</Node>
										</Node>
										<Node score="0.04400057725383478">
											<SimplePredicate field="standardScaler(duration.in.month)" operator="greaterThan" value="0.8609406554509605"/>
											<Node score="0.18370240683093275">
												<SimplePredicate field="standardScaler(duration.in.month)" operator="greaterThan" value="1.8524270148954447"/>
											</Node>
											<Node score="0.1547744569795162">
												<SimplePredicate field="status.of.existing.checking.account=... &lt; 0 DM" operator="greaterThan" value="1.0000000180025095E-35"/>
											</Node>
										</Node>
										<Node score="-0.07982855728188348">
											<SimplePredicate field="purpose=car (used)" operator="greaterThan" value="1.0000000180025095E-35"/>
										</Node>
										<Node score="0.15851957488502272">
											<SimplePredicate field="property=unknown / no property" operator="greaterThan" value="1.0000000180025095E-35"/>
										</Node>
										<Node score="-0.0517880230411831">
											<SimplePredicate field="savings.account.and.bonds=... &lt; 100 DM" operator="greaterThan" value="1.0000000180025095E-35"/>
											<Node score="0.12633398789459258">
												<SimplePredicate field="standardScaler(duration.in.month)" operator="greaterThan" value="-0.46104115714168487"/>
												<Node score="-0.024796893437760092">
													<SimplePredicate field="standardScaler(credit.amount)" operator="greaterThan" value="-0.28307602127536513"/>
													<Node score="0.07418801088733239">
														<SimplePredicate field="standardScaler(age.in.years)" operator="greaterThan" value="-0.4510022706912234"/>
													</Node>
												</Node>
											</Node>
											<Node score="0.01974256367725346">
												<SimplePredicate field="job=skilled employee / official" operator="greaterThan" value="1.0000000180025095E-35"/>
											</Node>
										</Node>
										<Node score="-0.08258333174349197">
											<SimplePredicate field="standardScaler(age.in.years)" operator="greaterThan" value="-0.7136582885652677"/>
										</Node>
									</Node>
									<Node score="-0.06923790934686953">
										<SimplePredicate field="property=real estate" operator="greaterThan" value="1.0000000180025095E-35"/>
										<Node score="-0.14249822285330319">
											<SimplePredicate field="personal.status.and.sex=male : single" operator="greaterThan" value="1.0000000180025095E-35"/>
										</Node>
									</Node>
									<Node score="-0.049784150329119425">
										<SimplePredicate field="standardScaler(age.in.years)" operator="greaterThan" value="1.0000000180025095E-35"/>
									</Node>
								</Node>
							</TreeModel>
						</Segment>
						<Segment id="3">
							<True/>
							<TreeModel functionName="regression" noTrueChildStrategy="returnLastPrediction">
								<MiningSchema>
									<MiningField name="standardScaler(duration.in.month)"/>
									<MiningField name="standardScaler(credit.amount)"/>
									<MiningField name="standardScaler(age.in.years)"/>
									<MiningField name="standardScaler(number.of.existing.credits.at.this.bank)"/>
									<MiningField name="other.debtors.or.guarantors=none"/>
									<MiningField name="present.employment.since=... &gt;= 7 years"/>
									<MiningField name="personal.status.and.sex=male : single"/>
									<MiningField name="telephone=yes, registered under the customers name"/>
									<MiningField name="savings.account.and.bonds=... &lt; 100 DM"/>
									<MiningField name="property=real estate"/>
									<MiningField name="property=unknown / no property"/>
									<MiningField name="job=skilled employee / official"/>
									<MiningField name="purpose=car (new)"/>
									<MiningField name="other.installment.plans=none"/>
									<MiningField name="credit.history=critical account/ other credits existing (not at this bank)"/>
									<MiningField name="status.of.existing.checking.account=no checking account"/>
								</MiningSchema>
								<Node score="0.04162506882589264">
									<True/>
									<Node score="-0.06379744821791608">
										<SimplePredicate field="status.of.existing.checking.account=no checking account" operator="greaterThan" value="1.0000000180025095E-35"/>
										<Node score="-0.014303487883455288">
											<SimplePredicate field="other.installment.plans=none" operator="greaterThan" value="1.0000000180025095E-35"/>
											<Node score="-0.1339176662237838">
												<SimplePredicate field="credit.history=critical account/ other credits existing (not at this bank)" operator="greaterThan" value="1.0000000180025095E-35"/>
												<Node score="-0.13185947749783564">
													<SimplePredicate field="standardScaler(age.in.years)" operator="greaterThan" value="-0.4510022706912234"/>
												</Node>
											</Node>
											<Node score="-0.00713840341386232">
												<SimplePredicate field="standardScaler(number.of.existing.credits.at.this.bank)" operator="greaterThan" value="-1.0000000180025095E-35"/>
											</Node>
											<Node score="-0.11135841198848691">
												<SimplePredicate field="standardScaler(age.in.years)" operator="greaterThan" value="-0.976314306439312"/>
												<Node score="-0.13185947749783555">
													<SimplePredicate field="standardScaler(age.in.years)" operator="greaterThan" value="-0.2758982587751938"/>
													<Node score="-0.13238262161130077">
														<SimplePredicate field="standardScaler(credit.amount)" operator="greaterThan" value="-0.17047376732611227"/>
													</Node>
												</Node>
												<Node score="-0.05982034821142729">
													<SimplePredicate field="personal.status.and.sex=male : single" operator="greaterThan" value="1.0000000180025095E-35"/>
												</Node>
											</Node>
										</Node>
										<Node score="0.0297234083430755">
											<SimplePredicate field="standardScaler(credit.amount)" operator="greaterThan" value="-0.4036181777466807"/>
										</Node>
									</Node>
									<Node score="0.06619986733948878">
										<SimplePredicate field="property=unknown / no property" operator="greaterThan" value="1.0000000180025095E-35"/>
										<Node score="0.04833390988057905">
											<SimplePredicate field="credit.history=critical account/ other credits existing (not at this bank)" operator="greaterThan" value="1.0000000180025095E-35"/>
										</Node>
										<Node score="0.20107001661192975">
											<SimplePredicate field="present.employment.since=... &gt;= 7 years" operator="greaterThan" value="1.0000000180025095E-35"/>
										</Node>
										<Node score="0.17812656239162739">
											<SimplePredicate field="job=skilled employee / official" operator="greaterThan" value="1.0000000180025095E-35"/>
										</Node>
									</Node>
									<Node score="0.06435783233765265">
										<SimplePredicate field="standardScaler(duration.in.month)" operator="greaterThan" value="-0.7915366102898461"/>
										<Node score="0.19153393330760776">
											<SimplePredicate field="purpose=car (new)" operator="greaterThan" value="1.0000000180025095E-35"/>
											<Node score="-0.009418781119414488">
												<SimplePredicate field="standardScaler(credit.amount)" operator="greaterThan" value="-0.48734805888843286"/>
												<Node score="0.11405711957348395">
													<SimplePredicate field="standardScaler(credit.amount)" operator="greaterThan" value="-1.0000000180025095E-35"/>
												</Node>
											</Node>
										</Node>
										<Node score="-0.09908288102173288">
											<SimplePredicate field="savings.account.and.bonds=... &lt; 100 DM" operator="greaterThan" value="1.0000000180025095E-35"/>
											<Node score="0.05332078202413683">
												<SimplePredicate field="standardScaler(credit.amount)" operator="greaterThan" value="0.22092733654556954"/>
												<Node score="0.16763231921646338">
													<SimplePredicate field="telephone=yes, registered under the customers name" operator="greaterThan" value="1.0000000180025095E-35"/>
												</Node>
											</Node>
											<Node score="-0.005087869944891081">
												<SimplePredicate field="other.debtors.or.guarantors=none" operator="greaterThan" value="1.0000000180025095E-35"/>
												<Node score="-0.028026008685533482">
													<SimplePredicate field="telephone=yes, registered under the customers name" operator="greaterThan" value="1.0000000180025095E-35"/>
												</Node>
												<Node score="0.17686973861039967">
													<SimplePredicate field="personal.status.and.sex=male : single" operator="greaterThan" value="1.0000000180025095E-35"/>
													<Node score="0.07313516697285868">
														<SimplePredicate field="standardScaler(credit.amount)" operator="greaterThan" value="-0.33288086436830394"/>
													</Node>
												</Node>
											</Node>
										</Node>
										<Node score="-0.015194721709378085">
											<SimplePredicate field="standardScaler(age.in.years)" operator="greaterThan" value="-0.8887623004812973"/>
											<Node score="-0.1217634502011703">
												<SimplePredicate field="job=skilled employee / official" operator="greaterThan" value="1.0000000180025095E-35"/>
											</Node>
										</Node>
									</Node>
									<Node score="-0.14159191812359262">
										<SimplePredicate field="standardScaler(number.of.existing.credits.at.this.bank)" operator="greaterThan" value="-1.0000000180025095E-35"/>
									</Node>
									<Node score="-0.08284798197134349">
										<SimplePredicate field="property=real estate" operator="greaterThan" value="1.0000000180025095E-35"/>
									</Node>
								</Node>
							</TreeModel>
						</Segment>
						<Segment id="4">
							<True/>
							<TreeModel functionName="regression" noTrueChildStrategy="returnLastPrediction">
								<MiningSchema>
									<MiningField name="standardScaler(duration.in.month)"/>
									<MiningField name="standardScaler(credit.amount)"/>
									<MiningField name="standardScaler(present.residence.since)"/>
									<MiningField name="standardScaler(age.in.years)"/>
									<MiningField name="standardScaler(number.of.existing.credits.at.this.bank)"/>
									<MiningField name="present.employment.since=1 &lt;= ... &lt; 4 years"/>
									<MiningField name="telephone=yes, registered under the customers name"/>
									<MiningField name="savings.account.and.bonds=... &lt; 100 DM"/>
									<MiningField name="property=building society savings agreement/ life insurance"/>
									<MiningField name="property=car or other, not in attribute Savings account/bonds"/>
									<MiningField name="other.installment.plans=none"/>
									<MiningField name="credit.history=all credits at this bank paid back duly"/>
									<MiningField name="credit.history=critical account/ other credits existing (not at this bank)"/>
									<MiningField name="status.of.existing.checking.account=no checking account"/>
								</MiningSchema>
								<Node score="-0.07464930067641028">
									<True/>
									<Node score="-0.05920620341700378">
										<SimplePredicate field="status.of.existing.checking.account=no checking account" operator="greaterThan" value="1.0000000180025095E-35"/>
										<Node score="-0.012959915733755826">
											<SimplePredicate field="other.installment.plans=none" operator="greaterThan" value="1.0000000180025095E-35"/>
											<Node score="-0.12966970681902198">
												<SimplePredicate field="credit.history=critical account/ other credits existing (not at this bank)" operator="greaterThan" value="1.0000000180025095E-35"/>
												<Node score="-0.12792369075224816">
													<SimplePredicate field="standardScaler(age.in.years)" operator="greaterThan" value="-0.4510022706912234"/>
													<Node score="-0.12792369075224821">
														<SimplePredicate field="standardScaler(duration.in.month)" operator="greaterThan" value="-0.5436650204287251"/>
													</Node>
												</Node>
											</Node>
											<Node score="-0.006445493477074848">
												<SimplePredicate field="standardScaler(number.of.existing.credits.at.this.bank)" operator="greaterThan" value="-1.0000000180025095E-35"/>
											</Node>
											<Node score="-0.05499458347902121">
												<SimplePredicate field="standardScaler(age.in.years)" operator="greaterThan" value="-0.976314306439312"/>
												<Node score="-0.1279236907522481">
													<SimplePredicate field="standardScaler(age.in.years)" operator="greaterThan" value="-0.2758982587751938"/>
													<Node score="-0.12836751743585764">
														<SimplePredicate field="standardScaler(credit.amount)" operator="greaterThan" value="-0.17047376732611227"/>
													</Node>
												</Node>
												<Node score="-0.10773740507856683">
													<SimplePredicate field="telephone=yes, registered under the customers name" operator="greaterThan" value="1.0000000180025095E-35"/>
												</Node>
											</Node>
										</Node>
										<Node score="0.026429526608534665">
											<SimplePredicate field="standardScaler(credit.amount)" operator="greaterThan" value="-0.4036181777466807"/>
										</Node>
									</Node>
									<Node score="0.040843148423633645">
										<SimplePredicate field="standardScaler(duration.in.month)" operator="greaterThan" value="0.5304452023027991"/>
										<Node score="0.11900359430513184">
											<SimplePredicate field="savings.account.and.bonds=... &lt; 100 DM" operator="greaterThan" value="1.0000000180025095E-35"/>
											<Node score="0.045391996394389136">
												<SimplePredicate field="property=building society savings agreement/ life insurance" operator="greaterThan" value="1.0000000180025095E-35"/>
											</Node>
											<Node score="0.1926899914086683">
												<SimplePredicate field="standardScaler(credit.amount)" operator="greaterThan" value="0.9591578187673541"/>
											</Node>
										</Node>
									</Node>
									<Node score="0.15818875335495933">
										<SimplePredicate field="credit.history=all credits at this bank paid back duly" operator="greaterThan" value="1.0000000180025095E-35"/>
									</Node>
									<Node score="-0.015023586784766724">
										<SimplePredicate field="standardScaler(credit.amount)" operator="greaterThan" value="-0.7269887531906888"/>
										<Node score="-0.009040397906903473">
											<SimplePredicate field="savings.account.and.bonds=... &lt; 100 DM" operator="greaterThan" value="1.0000000180025095E-35"/>
											<Node score="0.07942230595062544">
												<SimplePredicate field="standardScaler(credit.amount)" operator="greaterThan" value="0.26982991798827394"/>
											</Node>
											<Node score="0.06675754064167631">
												<SimplePredicate field="standardScaler(duration.in.month)" operator="greaterThan" value="-0.5436650204287251"/>
												<Node score="-0.03658623855888947">
													<SimplePredicate field="standardScaler(credit.amount)" operator="greaterThan" value="-0.28758732952653715"/>
												</Node>
											</Node>
											<Node score="-0.08825347728538002">
												<SimplePredicate field="present.employment.since=1 &lt;= ... &lt; 4 years" operator="greaterThan" value="1.0000000180025095E-35"/>
											</Node>
										</Node>
										<Node score="-0.054258221997770244">
											<SimplePredicate field="standardScaler(age.in.years)" operator="greaterThan" value="-0.6261062826072529"/>
											<Node score="-0.12093596573523183">
												<SimplePredicate field="standardScaler(present.residence.since)" operator="greaterThan" value="-1.0000000180025095E-35"/>
											</Node>
										</Node>
									</Node>
									<Node score="-0.013115116503233727">
										<SimplePredicate field="standardScaler(duration.in.month)" operator="greaterThan" value="-1.039408200150967"/>
										<Node score="0.20608194510417477">
											<SimplePredicate field="property=car or other, not in attribute Savings account/bonds" operator="greaterThan" value="1.0000000180025095E-35"/>
										</Node>
										<Node score="0.10272964850696611">
											<SimplePredicate field="standardScaler(age.in.years)" operator="greaterThan" value="-0.7136582885652677"/>
										</Node>
									</Node>
								</Node>
							</TreeModel>
						</Segment>
						<Segment id="5">
							<True/>
							<TreeModel functionName="regression" noTrueChildStrategy="returnLastPrediction">
								<MiningSchema>
									<MiningField name="standardScaler(duration.in.month)"/>
									<MiningField name="standardScaler(credit.amount)"/>
									<MiningField name="standardScaler(installment.rate.in.percentage.of.disposable.income)"/>
									<MiningField name="standardScaler(present.residence.since)"/>
									<MiningField name="standardScaler(age.in.years)"/>
									<MiningField name="standardScaler(number.of.existing.credits.at.this.bank)"/>
									<MiningField name="standardScaler(number.of.people.being.liable.to.provide.maintenance.for)"/>
									<MiningField name="present.employment.since=1 &lt;= ... &lt; 4 years"/>
									<MiningField name="savings.account.and.bonds=... &lt; 100 DM"/>
									<MiningField name="property=car or other, not in attribute Savings account/bonds"/>
									<MiningField name="purpose=car (used)"/>
									<MiningField name="other.installment.plans=none"/>
									<MiningField name="credit.history=all credits at this bank paid back duly"/>
									<MiningField name="credit.history=existing credits paid back duly till now"/>
									<MiningField name="credit.history=no credits taken/ all credits paid back duly"/>
									<MiningField name="status.of.existing.checking.account=no checking account"/>
								</MiningSchema>
								<Node score="-3.8489528338573856E-5">
									<True/>
									<Node score="0.03631369217257934">
										<SimplePredicate field="status.of.existing.checking.account=no checking account" operator="greaterThan" value="1.0000000180025095E-35"/>
										<Node score="-0.1055804324827052">
											<SimplePredicate field="other.installment.plans=none" operator="greaterThan" value="1.0000000180025095E-35"/>
											<Node score="-0.12492742917325089">
												<SimplePredicate field="standardScaler(age.in.years)" operator="greaterThan" value="-0.5385542766492382"/>
												<Node score="-0.12766237403019606">
													<SimplePredicate field="standardScaler(credit.amount)" operator="greaterThan" value="0.11283639084748864"/>
													<Node score="-0.01098542224161221">
														<SimplePredicate field="credit.history=existing credits paid back duly till now" operator="greaterThan" value="1.0000000180025095E-35"/>
													</Node>
												</Node>
												<Node score="-0.08325967070960412">
													<SimplePredicate field="standardScaler(number.of.people.being.liable.to.provide.maintenance.for)" operator="greaterThan" value="1.0000000180025095E-35"/>
												</Node>
												<Node score="-0.12618254574029586">
													<SimplePredicate field="standardScaler(number.of.existing.credits.at.this.bank)" operator="greaterThan" value="1.0000000180025095E-35"/>
													<Node score="-0.13066145019596634">
														<SimplePredicate field="standardScaler(credit.amount)" operator="greaterThan" value="-0.6216045924433112"/>
													</Node>
												</Node>
											</Node>
											<Node score="-0.009666450887411457">
												<SimplePredicate field="savings.account.and.bonds=... &lt; 100 DM" operator="greaterThan" value="1.0000000180025095E-35"/>
												<Node score="-1.7383666801958677E-4">
													<SimplePredicate field="standardScaler(credit.amount)" operator="greaterThan" value="-0.4187761734706186"/>
												</Node>
											</Node>
											<Node score="-0.0735279036871248">
												<SimplePredicate field="present.employment.since=1 &lt;= ... &lt; 4 years" operator="greaterThan" value="1.0000000180025095E-35"/>
											</Node>
										</Node>
										<Node score="-0.04517598356513904">
											<SimplePredicate field="standardScaler(present.residence.since)" operator="greaterThan" value="1.0000000180025095E-35"/>
										</Node>
									</Node>
									<Node score="0.1785573573683334">
										<SimplePredicate field="credit.history=no credits taken/ all credits paid back duly" operator="greaterThan" value="1.0000000180025095E-35"/>
									</Node>
									<Node score="0.14806055480278857">
										<SimplePredicate field="standardScaler(credit.amount)" operator="greaterThan" value="1.7037041325407796"/>
									</Node>
									<Node score="0.12891603249257697">
										<SimplePredicate field="standardScaler(duration.in.month)" operator="greaterThan" value="1.8524270148954447"/>
									</Node>
									<Node score="0.1272325820459785">
										<SimplePredicate field="credit.history=all credits at this bank paid back duly" operator="greaterThan" value="1.0000000180025095E-35"/>
									</Node>
									<Node score="-0.016403746797869607">
										<SimplePredicate field="standardScaler(duration.in.month)" operator="greaterThan" value="-0.7915366102898461"/>
										<Node score="-0.016512269357676">
											<SimplePredicate field="standardScaler(credit.amount)" operator="greaterThan" value="-0.6961314047526724"/>
											<Node score="-0.10542115726759103">
												<SimplePredicate field="purpose=car (used)" operator="greaterThan" value="1.0000000180025095E-35"/>
											</Node>
											<Node score="0.09652630777046127">
												<SimplePredicate field="standardScaler(duration.in.month)" operator="greaterThan" value="0.32388554408519826"/>
												<Node score="4.5807742687964956E-4">
													<SimplePredicate field="standardScaler(age.in.years)" operator="greaterThan" value="1.0000000180025095E-35"/>
												</Node>
											</Node>
											<Node score="-0.0785022059965728">
												<SimplePredicate field="savings.account.and.bonds=... &lt; 100 DM" operator="greaterThan" value="1.0000000180025095E-35"/>
												<Node score="0.0033429853638798283">
													<SimplePredicate field="standardScaler(credit.amount)" operator="greaterThan" value="-0.5126113850949959"/>
													<Node score="0.092073370545165">
														<SimplePredicate field="standardScaler(age.in.years)" operator="greaterThan" value="-0.4510022706912234"/>
													</Node>
													<Node score="-0.06022502108960584">
														<SimplePredicate field="standardScaler(credit.amount)" operator="greaterThan" value="-0.10208233423834494"/>
													</Node>
												</Node>
											</Node>
											<Node score="-0.1050792002828475">
												<SimplePredicate field="standardScaler(installment.rate.in.percentage.of.disposable.income)" operator="greaterThan" value="1.0000000180025095E-35"/>
											</Node>
										</Node>
										<Node score="0.19395907055990763">
											<SimplePredicate field="property=car or other, not in attribute Savings account/bonds" operator="greaterThan" value="1.0000000180025095E-35"/>
										</Node>
										<Node score="0.10592668846495715">
											<SimplePredicate field="standardScaler(age.in.years)" operator="greaterThan" value="-0.7136582885652677"/>
										</Node>
									</Node>
									<Node score="-0.06993488510294994">
										<SimplePredicate field="standardScaler(age.in.years)" operator="greaterThan" value="-0.2758982587751938"/>
										<Node score="-0.1364309302312666">
											<SimplePredicate field="standardScaler(number.of.existing.credits.at.this.bank)" operator="greaterThan" value="-1.0000000180025095E-35"/>
										</Node>
									</Node>
								</Node>
							</TreeModel>
						</Segment>
						<Segment id="6">
							<True/>
							<TreeModel functionName="regression" noTrueChildStrategy="returnLastPrediction">
								<MiningSchema>
									<MiningField name="standardScaler(duration.in.month)"/>
									<MiningField name="standardScaler(credit.amount)"/>
									<MiningField name="standardScaler(present.residence.since)"/>
									<MiningField name="standardScaler(age.in.years)"/>
									<MiningField name="standardScaler(number.of.existing.credits.at.this.bank)"/>
									<MiningField name="personal.status.and.sex=female : divorced/separated/married"/>
									<MiningField name="savings.account.and.bonds=... &lt; 100 DM"/>
									<MiningField name="property=car or other, not in attribute Savings account/bonds"/>
									<MiningField name="property=real estate"/>
									<MiningField name="property=unknown / no property"/>
									<MiningField name="job=skilled employee / official"/>
									<MiningField name="purpose=car (new)"/>
									<MiningField name="other.installment.plans=bank"/>
									<MiningField name="housing=for free"/>
									<MiningField name="credit.history=critical account/ other credits existing (not at this bank)"/>
									<MiningField name="status.of.existing.checking.account=... &lt; 0 DM"/>
									<MiningField name="status.of.existing.checking.account=no checking account"/>
								</MiningSchema>
								<Node score="0.03698180612322273">
									<True/>
									<Node score="-0.020663363029443174">
										<SimplePredicate field="status.of.existing.checking.account=no checking account" operator="greaterThan" value="1.0000000180025095E-35"/>
										<Node score="0.009293542659728406">
											<SimplePredicate field="other.installment.plans=bank" operator="greaterThan" value="1.0000000180025095E-35"/>
										</Node>
										<Node score="-0.07815821831109772">
											<SimplePredicate field="standardScaler(age.in.years)" operator="greaterThan" value="-0.5385542766492382"/>
											<Node score="-0.12449224377794943">
												<SimplePredicate field="property=car or other, not in attribute Savings account/bonds" operator="greaterThan" value="1.0000000180025095E-35"/>
												<Node score="-0.02879359844326998">
													<SimplePredicate field="standardScaler(number.of.existing.credits.at.this.bank)" operator="greaterThan" value="-1.0000000180025095E-35"/>
												</Node>
											</Node>
											<Node score="-0.12800286460960061">
												<SimplePredicate field="standardScaler(duration.in.month)" operator="greaterThan" value="-0.7089127470028058"/>
												<Node score="-0.12168997900328948">
													<SimplePredicate field="credit.history=critical account/ other credits existing (not at this bank)" operator="greaterThan" value="1.0000000180025095E-35"/>
												</Node>
											</Node>
											<Node score="-0.12300092416323778">
												<SimplePredicate field="property=real estate" operator="greaterThan" value="1.0000000180025095E-35"/>
											</Node>
										</Node>
										<Node score="0.039233786078502475">
											<SimplePredicate field="standardScaler(duration.in.month)" operator="greaterThan" value="0.32388554408519826"/>
										</Node>
										<Node score="-0.13001057943058303">
											<SimplePredicate field="standardScaler(credit.amount)" operator="greaterThan" value="-0.45017487889877567"/>
										</Node>
									</Node>
									<Node score="0.1391058413694325">
										<SimplePredicate field="property=unknown / no property" operator="greaterThan" value="1.0000000180025095E-35"/>
										<Node score="0.0161681957129655">
											<SimplePredicate field="housing=for free" operator="greaterThan" value="1.0000000180025095E-35"/>
											<Node score="0.10460364022320151">
												<SimplePredicate field="standardScaler(age.in.years)" operator="greaterThan" value="0.24941377697289488"/>
											</Node>
										</Node>
									</Node>
									<Node score="-0.03800355957985673">
										<SimplePredicate field="standardScaler(duration.in.month)" operator="greaterThan" value="-0.7915366102898461"/>
										<Node score="0.14660998448509321">
											<SimplePredicate field="purpose=car (new)" operator="greaterThan" value="1.0000000180025095E-35"/>
											<Node score="-0.010693516378799622">
												<SimplePredicate field="standardScaler(credit.amount)" operator="greaterThan" value="-0.48734805888843286"/>
												<Node score="0.08713520930889129">
													<SimplePredicate field="standardScaler(credit.amount)" operator="greaterThan" value="-1.0000000180025095E-35"/>
												</Node>
											</Node>
										</Node>
										<Node score="-0.03208097141530785">
											<SimplePredicate field="status.of.existing.checking.account=... &lt; 0 DM" operator="greaterThan" value="1.0000000180025095E-35"/>
											<Node score="0.027146345916334733">
												<SimplePredicate field="job=skilled employee / official" operator="greaterThan" value="1.0000000180025095E-35"/>
												<Node score="0.14311044275064347">
													<SimplePredicate field="standardScaler(duration.in.month)" operator="greaterThan" value="0.8609406554509605"/>
												</Node>
												<Node score="0.10484410929830396">
													<SimplePredicate field="personal.status.and.sex=female : divorced/separated/married" operator="greaterThan" value="1.0000000180025095E-35"/>
												</Node>
											</Node>
										</Node>
										<Node score="-0.14089046379068598">
											<SimplePredicate field="standardScaler(present.residence.since)" operator="greaterThan" value="0.5805242392000802"/>
											<Node score="0.02100350994019894">
												<SimplePredicate field="standardScaler(duration.in.month)" operator="greaterThan" value="-0.04792184070648325"/>
											</Node>
										</Node>
										<Node score="-0.018843394106704298">
											<SimplePredicate field="savings.account.and.bonds=... &lt; 100 DM" operator="greaterThan" value="1.0000000180025095E-35"/>
											<Node score="0.009398235067671233">
												<SimplePredicate field="standardScaler(present.residence.since)" operator="greaterThan" value="-1.2336140083001697"/>
												<Node score="0.12208195050639668">
													<SimplePredicate field="standardScaler(credit.amount)" operator="greaterThan" value="0.22092733654556954"/>
												</Node>
											</Node>
										</Node>
									</Node>
									<Node score="-0.1321281124527474">
										<SimplePredicate field="standardScaler(number.of.existing.credits.at.this.bank)" operator="greaterThan" value="-1.0000000180025095E-35"/>
									</Node>
									<Node score="-0.07359832039468286">
										<SimplePredicate field="property=real estate" operator="greaterThan" value="1.0000000180025095E-35"/>
									</Node>
								</Node>
							</TreeModel>
						</Segment>
						<Segment id="7">
							<True/>
							<TreeModel functionName="regression" noTrueChildStrategy="returnLastPrediction">
								<MiningSchema>
									<MiningField name="standardScaler(duration.in.month)"/>
									<MiningField name="standardScaler(credit.amount)"/>
									<MiningField name="standardScaler(installment.rate.in.percentage.of.disposable.income)"/>
									<MiningField name="standardScaler(age.in.years)"/>
									<MiningField name="standardScaler(number.of.existing.credits.at.this.bank)"/>
									<MiningField name="present.employment.since=1 &lt;= ... &lt; 4 years"/>
									<MiningField name="personal.status.and.sex=male : single"/>
									<MiningField name="telephone=yes, registered under the customers name"/>
									<MiningField name="property=car or other, not in attribute Savings account/bonds"/>
									<MiningField name="job=skilled employee / official"/>
									<MiningField name="purpose=car (new)"/>
									<MiningField name="purpose=car (used)"/>
									<MiningField name="other.installment.plans=none"/>
									<MiningField name="credit.history=all credits at this bank paid back duly"/>
									<MiningField name="credit.history=critical account/ other credits existing (not at this bank)"/>
									<MiningField name="credit.history=existing credits paid back duly till now"/>
									<MiningField name="credit.history=no credits taken/ all credits paid back duly"/>
									<MiningField name="status.of.existing.checking.account=... &lt; 0 DM"/>
									<MiningField name="status.of.existing.checking.account=no checking account"/>
								</MiningSchema>
								<Node score="0.00839860951912618">
									<True/>
									<Node score="-0.053298570735613386">
										<SimplePredicate field="status.of.existing.checking.account=no checking account" operator="greaterThan" value="1.0000000180025095E-35"/>
										<Node score="-0.012534581517238966">
											<SimplePredicate field="other.installment.plans=none" operator="greaterThan" value="1.0000000180025095E-35"/>
											<Node score="-0.12327273840860531">
												<SimplePredicate field="credit.history=critical account/ other credits existing (not at this bank)" operator="greaterThan" value="1.0000000180025095E-35"/>
												<Node score="-0.11983200406008493">
													<SimplePredicate field="standardScaler(age.in.years)" operator="greaterThan" value="-0.4510022706912234"/>
													<Node score="-0.12048652898196661">
														<SimplePredicate field="property=car or other, not in attribute Savings account/bonds" operator="greaterThan" value="1.0000000180025095E-35"/>
													</Node>
													<Node score="-0.11920996745819522">
														<SimplePredicate field="standardScaler(duration.in.month)" operator="greaterThan" value="-0.5436650204287251"/>
													</Node>
												</Node>
											</Node>
											<Node score="0.006081224569143277">
												<SimplePredicate field="standardScaler(number.of.existing.credits.at.this.bank)" operator="greaterThan" value="-1.0000000180025095E-35"/>
											</Node>
											<Node score="-0.11949751192101635">
												<SimplePredicate field="standardScaler(age.in.years)" operator="greaterThan" value="-0.2758982587751938"/>
												<Node score="-0.12081937086704925">
													<SimplePredicate field="standardScaler(credit.amount)" operator="greaterThan" value="-0.17047376732611227"/>
												</Node>
												<Node score="-0.11950625548188175">
													<SimplePredicate field="standardScaler(credit.amount)" operator="greaterThan" value="-0.6382062068076241"/>
												</Node>
											</Node>
											<Node score="-0.10143728234718917">
												<SimplePredicate field="telephone=yes, registered under the customers name" operator="greaterThan" value="1.0000000180025095E-35"/>
											</Node>
										</Node>
										<Node score="0.024852901761561394">
											<SimplePredicate field="standardScaler(credit.amount)" operator="greaterThan" value="-0.4036181777466807"/>
										</Node>
									</Node>
									<Node score="0.1492394504370881">
										<SimplePredicate field="credit.history=no credits taken/ all credits paid back duly" operator="greaterThan" value="1.0000000180025095E-35"/>
									</Node>
									<Node score="0.11932835302333902">
										<SimplePredicate field="standardScaler(credit.amount)" operator="greaterThan" value="1.7037041325407796"/>
									</Node>
									<Node score="0.10487118717142302">
										<SimplePredicate field="credit.history=all credits at this bank paid back duly" operator="greaterThan" value="1.0000000180025095E-35"/>
									</Node>
									<Node score="0.10880980825681737">
										<SimplePredicate field="standardScaler(duration.in.month)" operator="greaterThan" value="1.8524270148954447"/>
									</Node>
									<Node score="-0.1042940952423071">
										<SimplePredicate field="purpose=car (used)" operator="greaterThan" value="1.0000000180025095E-35"/>
									</Node>
									<Node score="0.04078437515391603">
										<SimplePredicate field="standardScaler(duration.in.month)" operator="greaterThan" value="-0.7915366102898461"/>
										<Node score="-0.07362445011001335">
											<SimplePredicate field="standardScaler(credit.amount)" operator="greaterThan" value="-0.7269887531906888"/>
											<Node score="0.05121163853288632">
												<SimplePredicate field="standardScaler(installment.rate.in.percentage.of.disposable.income)" operator="greaterThan" value="-1.3227110685010688"/>
												<Node score="-0.024784193379601995">
													<SimplePredicate field="status.of.existing.checking.account=... &lt; 0 DM" operator="greaterThan" value="1.0000000180025095E-35"/>
													<Node score="0.01631346611658546">
														<SimplePredicate field="job=skilled employee / official" operator="greaterThan" value="1.0000000180025095E-35"/>
														<Node score="0.1378486690749503">
															<SimplePredicate field="personal.status.and.sex=male : single" operator="greaterThan" value="1.0000000180025095E-35"/>
														</Node>
													</Node>
												</Node>
												<Node score="-0.05074185330927831">
													<SimplePredicate field="job=skilled employee / official" operator="greaterThan" value="1.0000000180025095E-35"/>
													<Node score="0.010132608699872698">
														<SimplePredicate field="present.employment.since=1 &lt;= ... &lt; 4 years" operator="greaterThan" value="1.0000000180025095E-35"/>
													</Node>
													<Node score="-0.11224079050704727">
														<SimplePredicate field="credit.history=existing credits paid back duly till now" operator="greaterThan" value="1.0000000180025095E-35"/>
													</Node>
												</Node>
											</Node>
										</Node>
										<Node score="0.13486722947231955">
											<SimplePredicate field="purpose=car (new)" operator="greaterThan" value="1.0000000180025095E-35"/>
										</Node>
									</Node>
									<Node score="-0.13196063182194978">
										<SimplePredicate field="standardScaler(age.in.years)" operator="greaterThan" value="-0.2758982587751938"/>
										<Node score="-0.06508295196345505">
											<SimplePredicate field="standardScaler(credit.amount)" operator="greaterThan" value="-0.756763387648424"/>
										</Node>
									</Node>
								</Node>
							</TreeModel>
						</Segment>
						<Segment id="8">
							<True/>
							<TreeModel functionName="regression" noTrueChildStrategy="returnLastPrediction">
								<MiningSchema>
									<MiningField name="standardScaler(duration.in.month)"/>
									<MiningField name="standardScaler(credit.amount)"/>
									<MiningField name="standardScaler(installment.rate.in.percentage.of.disposable.income)"/>
									<MiningField name="standardScaler(present.residence.since)"/>
									<MiningField name="standardScaler(age.in.years)"/>
									<MiningField name="standardScaler(number.of.existing.credits.at.this.bank)"/>
									<MiningField name="other.debtors.or.guarantors=guarantor"/>
									<MiningField name="present.employment.since=... &gt;= 7 years"/>
									<MiningField name="telephone=yes, registered under the customers name"/>
									<MiningField name="savings.account.and.bonds=... &lt; 100 DM"/>
									<MiningField name="property=car or other, not in attribute Savings account/bonds"/>
									<MiningField name="property=real estate"/>
									<MiningField name="property=unknown / no property"/>
									<MiningField name="job=skilled employee / official"/>
									<MiningField name="purpose=car (new)"/>
									<MiningField name="purpose=radio/television"/>
									<MiningField name="other.installment.plans=bank"/>
									<MiningField name="status.of.existing.checking.account=... &lt; 0 DM"/>
									<MiningField name="status.of.existing.checking.account=no checking account"/>
								</MiningSchema>
								<Node score="0.034640454946501684">
									<True/>
									<Node score="0.007570367080069068">
										<SimplePredicate field="status.of.existing.checking.account=no checking account" operator="greaterThan" value="1.0000000180025095E-35"/>
										<Node score="0.009078268138707378">
											<SimplePredicate field="other.installment.plans=bank" operator="greaterThan" value="1.0000000180025095E-35"/>
										</Node>
										<Node score="-0.12168519987380809">
											<SimplePredicate field="standardScaler(age.in.years)" operator="greaterThan" value="-1.0638663123973269"/>
											<Node score="-0.06252719533109367">
												<SimplePredicate field="property=car or other, not in attribute Savings account/bonds" operator="greaterThan" value="1.0000000180025095E-35"/>
												<Node score="0.006843822137166718">
													<SimplePredicate field="standardScaler(credit.amount)" operator="greaterThan" value="0.016294394272408055"/>
												</Node>
												<Node score="-0.12226449288870285">
													<SimplePredicate field="purpose=radio/television" operator="greaterThan" value="1.0000000180025095E-35"/>
												</Node>
											</Node>
											<Node score="-0.06501224462033264">
												<SimplePredicate field="standardScaler(credit.amount)" operator="greaterThan" value="0.4515454143454817"/>
											</Node>
											<Node score="-0.12178734366429043">
												<SimplePredicate field="standardScaler(credit.amount)" operator="greaterThan" value="-0.624852734384155"/>
												<Node score="-0.11917866157331757">
													<SimplePredicate field="telephone=yes, registered under the customers name" operator="greaterThan" value="1.0000000180025095E-35"/>
												</Node>
												<Node score="-0.1270454558645672">
													<SimplePredicate field="standardScaler(credit.amount)" operator="greaterThan" value="-0.2013311157641287"/>
												</Node>
											</Node>
											<Node score="-0.051921007683784694">
												<SimplePredicate field="standardScaler(credit.amount)" operator="greaterThan" value="-0.7031690456245007"/>
											</Node>
										</Node>
									</Node>
									<Node score="0.030365066563227173">
										<SimplePredicate field="property=unknown / no property" operator="greaterThan" value="1.0000000180025095E-35"/>
										<Node score="0.14744937158470933">
											<SimplePredicate field="standardScaler(installment.rate.in.percentage.of.disposable.income)" operator="greaterThan" value="1.0000000180025095E-35"/>
											<Node score="0.05961669294333671">
												<SimplePredicate field="telephone=yes, registered under the customers name" operator="greaterThan" value="1.0000000180025095E-35"/>
											</Node>
										</Node>
									</Node>
									<Node score="0.04785921493656477">
										<SimplePredicate field="standardScaler(duration.in.month)" operator="greaterThan" value="-0.7915366102898461"/>
										<Node score="9.624783792617849E-4">
											<SimplePredicate field="purpose=car (new)" operator="greaterThan" value="1.0000000180025095E-35"/>
											<Node score="0.07535302217834795">
												<SimplePredicate field="standardScaler(installment.rate.in.percentage.of.disposable.income)" operator="greaterThan" value="1.0000000180025095E-35"/>
												<Node score="0.1371774181298345">
													<SimplePredicate field="status.of.existing.checking.account=... &lt; 0 DM" operator="greaterThan" value="1.0000000180025095E-35"/>
												</Node>
											</Node>
										</Node>
										<Node score="-0.00285158772142667">
											<SimplePredicate field="savings.account.and.bonds=... &lt; 100 DM" operator="greaterThan" value="1.0000000180025095E-35"/>
											<Node score="-0.06676623810130253">
												<SimplePredicate field="other.debtors.or.guarantors=guarantor" operator="greaterThan" value="1.0000000180025095E-35"/>
											</Node>
											<Node score="-0.030207323789261366">
												<SimplePredicate field="present.employment.since=... &gt;= 7 years" operator="greaterThan" value="1.0000000180025095E-35"/>
											</Node>
											<Node score="0.021169630190141217">
												<SimplePredicate field="standardScaler(present.residence.since)" operator="greaterThan" value="-1.2336140083001697"/>
												<Node score="0.009174778352662475">
													<SimplePredicate field="job=skilled employee / official" operator="greaterThan" value="1.0000000180025095E-35"/>
													<Node score="0.1384400678190517">
														<SimplePredicate field="status.of.existing.checking.account=... &lt; 0 DM" operator="greaterThan" value="1.0000000180025095E-35"/>
														<Node score="0.1302612580600115">
															<SimplePredicate field="standardScaler(credit.amount)" operator="greaterThan" value="-0.06887910550971911"/>
														</Node>
													</Node>
												</Node>
											</Node>
										</Node>
										<Node score="-0.0199902748556371">
											<SimplePredicate field="standardScaler(age.in.years)" operator="greaterThan" value="-0.8887623004812973"/>
											<Node score="-0.11610307243542393">
												<SimplePredicate field="job=skilled employee / official" operator="greaterThan" value="1.0000000180025095E-35"/>
											</Node>
										</Node>
									</Node>
									<Node score="-0.12649447716809623">
										<SimplePredicate field="standardScaler(number.of.existing.credits.at.this.bank)" operator="greaterThan" value="-1.0000000180025095E-35"/>
									</Node>
									<Node score="-0.06678990068308034">
										<SimplePredicate field="property=real estate" operator="greaterThan" value="1.0000000180025095E-35"/>
									</Node>
								</Node>
							</TreeModel>
						</Segment>
						<Segment id="9">
							<True/>
							<TreeModel functionName="regression" noTrueChildStrategy="returnLastPrediction">
								<MiningSchema>
									<MiningField name="standardScaler(duration.in.month)"/>
									<MiningField name="standardScaler(credit.amount)"/>
									<MiningField name="standardScaler(present.residence.since)"/>
									<MiningField name="standardScaler(age.in.years)"/>
									<MiningField name="standardScaler(number.of.existing.credits.at.this.bank)"/>
									<MiningField name="personal.status.and.sex=male : single"/>
									<MiningField name="telephone=yes, registered under the customers name"/>
									<MiningField name="property=car or other, not in attribute Savings account/bonds"/>
									<MiningField name="property=real estate"/>
									<MiningField name="purpose=car (used)"/>
									<MiningField name="purpose=radio/television"/>
									<MiningField name="other.installment.plans=none"/>
									<MiningField name="credit.history=critical account/ other credits existing (not at this bank)"/>
									<MiningField name="credit.history=existing credits paid back duly till now"/>
									<MiningField name="credit.history=no credits taken/ all credits paid back duly"/>
									<MiningField name="status.of.existing.checking.account=... &lt; 0 DM"/>
									<MiningField name="status.of.existing.checking.account=no checking account"/>
								</MiningSchema>
								<Node score="0.062187488137879145">
									<True/>
									<Node score="0.034644224966149724">
										<SimplePredicate field="status.of.existing.checking.account=no checking account" operator="greaterThan" value="1.0000000180025095E-35"/>
										<Node score="-0.006676934122974818">
											<SimplePredicate field="other.installment.plans=none" operator="greaterThan" value="1.0000000180025095E-35"/>
											<Node score="-0.11937692113395991">
												<SimplePredicate field="credit.history=critical account/ other credits existing (not at this bank)" operator="greaterThan" value="1.0000000180025095E-35"/>
												<Node score="-0.11586351159283713">
													<SimplePredicate field="standardScaler(age.in.years)" operator="greaterThan" value="-0.4510022706912234"/>
													<Node score="-0.11720157304622598">
														<SimplePredicate field="property=car or other, not in attribute Savings account/bonds" operator="greaterThan" value="1.0000000180025095E-35"/>
													</Node>
													<Node score="-0.1153903992463613">
														<SimplePredicate field="property=real estate" operator="greaterThan" value="1.0000000180025095E-35"/>
													</Node>
												</Node>
											</Node>
											<Node score="0.011481248128524007">
												<SimplePredicate field="standardScaler(number.of.existing.credits.at.this.bank)" operator="greaterThan" value="-1.0000000180025095E-35"/>
											</Node>
											<Node score="-0.11568809985278061">
												<SimplePredicate field="standardScaler(age.in.years)" operator="greaterThan" value="-0.2758982587751938"/>
												<Node score="-0.11709136461084076">
													<SimplePredicate field="standardScaler(credit.amount)" operator="greaterThan" value="-0.17047376732611227"/>
												</Node>
												<Node score="-0.11558909127166142">
													<SimplePredicate field="standardScaler(credit.amount)" operator="greaterThan" value="-0.6382062068076241"/>
												</Node>
											</Node>
											<Node score="-0.09458670294990768">
												<SimplePredicate field="telephone=yes, registered under the customers name" operator="greaterThan" value="1.0000000180025095E-35"/>
											</Node>
										</Node>
										<Node score="-0.039563381044017604">
											<SimplePredicate field="standardScaler(present.residence.since)" operator="greaterThan" value="1.0000000180025095E-35"/>
										</Node>
									</Node>
									<Node score="0.12661339540518646">
										<SimplePredicate field="credit.history=no credits taken/ all credits paid back duly" operator="greaterThan" value="1.0000000180025095E-35"/>
									</Node>
									<Node score="0.09423543909542105">
										<SimplePredicate field="standardScaler(credit.amount)" operator="greaterThan" value="1.5080938067699619"/>
									</Node>
									<Node score="-0.08620020062368583">
										<SimplePredicate field="purpose=car (used)" operator="greaterThan" value="1.0000000180025095E-35"/>
									</Node>
									<Node score="-0.0464775035133678">
										<SimplePredicate field="standardScaler(duration.in.month)" operator="greaterThan" value="-0.04792184070648325"/>
										<Node score="0.14326701791922397">
											<SimplePredicate field="standardScaler(present.residence.since)" operator="greaterThan" value="-1.2336140083001697"/>
											<Node score="-0.06421378588593067">
												<SimplePredicate field="standardScaler(credit.amount)" operator="greaterThan" value="-0.614386499241436"/>
												<Node score="0.14412837925010583">
													<SimplePredicate field="standardScaler(duration.in.month)" operator="greaterThan" value="0.32388554408519826"/>
													<Node score="-0.007331512456005546">
														<SimplePredicate field="standardScaler(age.in.years)" operator="greaterThan" value="-0.5385542766492382"/>
														<Node score="0.09816741344074857">
															<SimplePredicate field="credit.history=existing credits paid back duly till now" operator="greaterThan" value="1.0000000180025095E-35"/>
														</Node>
													</Node>
												</Node>
												<Node score="0.02659441194293585">
													<SimplePredicate field="status.of.existing.checking.account=... &lt; 0 DM" operator="greaterThan" value="1.0000000180025095E-35"/>
												</Node>
											</Node>
										</Node>
									</Node>
									<Node score="-0.11868448266471723">
										<SimplePredicate field="standardScaler(credit.amount)" operator="greaterThan" value="-0.7269887531906888"/>
										<Node score="-0.008211185486806499">
											<SimplePredicate field="personal.status.and.sex=male : single" operator="greaterThan" value="1.0000000180025095E-35"/>
											<Node score="-0.06992381465227158">
												<SimplePredicate field="standardScaler(present.residence.since)" operator="greaterThan" value="0.5805242392000802"/>
											</Node>
											<Node score="0.06467071525806514">
												<SimplePredicate field="standardScaler(present.residence.since)" operator="greaterThan" value="-1.2336140083001697"/>
											</Node>
										</Node>
										<Node score="-0.03260986436788476">
											<SimplePredicate field="standardScaler(credit.amount)" operator="greaterThan" value="-0.4442199520072286"/>
										</Node>
									</Node>
									<Node score="-0.05260001408977866">
										<SimplePredicate field="purpose=radio/television" operator="greaterThan" value="1.0000000180025095E-35"/>
									</Node>
									<Node score="-0.010919290529182848">
										<SimplePredicate field="standardScaler(age.in.years)" operator="greaterThan" value="0.1618617710148801"/>
									</Node>
									<Node score="0.13911827563037">
										<SimplePredicate field="standardScaler(age.in.years)" operator="greaterThan" value="-0.8887623004812973"/>
									</Node>
								</Node>
							</TreeModel>
						</Segment>
						<Segment id="10">
							<True/>
							<TreeModel functionName="regression" noTrueChildStrategy="returnLastPrediction">
								<MiningSchema>
									<MiningField name="standardScaler(duration.in.month)"/>
									<MiningField name="standardScaler(credit.amount)"/>
									<MiningField name="standardScaler(installment.rate.in.percentage.of.disposable.income)"/>
									<MiningField name="standardScaler(present.residence.since)"/>
									<MiningField name="standardScaler(age.in.years)"/>
									<MiningField name="standardScaler(number.of.existing.credits.at.this.bank)"/>
									<MiningField name="personal.status.and.sex=female : divorced/separated/married"/>
									<MiningField name="savings.account.and.bonds=... &lt; 100 DM"/>
									<MiningField name="property=car or other, not in attribute Savings account/bonds"/>
									<MiningField name="property=real estate"/>
									<MiningField name="property=unknown / no property"/>
									<MiningField name="job=skilled employee / official"/>
									<MiningField name="purpose=car (new)"/>
									<MiningField name="purpose=car (used)"/>
									<MiningField name="purpose=furniture/equipment"/>
									<MiningField name="purpose=radio/television"/>
									<MiningField name="other.installment.plans=bank"/>
									<MiningField name="status.of.existing.checking.account=... &lt; 0 DM"/>
									<MiningField name="status.of.existing.checking.account=no checking account"/>
								</MiningSchema>
								<Node score="0.030076737363834007">
									<True/>
									<Node score="0.04428471647229116">
										<SimplePredicate field="status.of.existing.checking.account=no checking account" operator="greaterThan" value="1.0000000180025095E-35"/>
										<Node score="0.008899394801096151">
											<SimplePredicate field="other.installment.plans=bank" operator="greaterThan" value="1.0000000180025095E-35"/>
										</Node>
										<Node score="-0.08790107133014283">
											<SimplePredicate field="standardScaler(age.in.years)" operator="greaterThan" value="-1.1514183183553415"/>
											<Node score="-0.06457157415965598">
												<SimplePredicate field="standardScaler(credit.amount)" operator="greaterThan" value="0.11283639084748864"/>
												<Node score="-0.12281256494650004">
													<SimplePredicate field="purpose=car (used)" operator="greaterThan" value="1.0000000180025095E-35"/>
												</Node>
												<Node score="0.0662922819055796">
													<SimplePredicate field="property=car or other, not in attribute Savings account/bonds" operator="greaterThan" value="1.0000000180025095E-35"/>
												</Node>
											</Node>
											<Node score="-0.12400534772782817">
												<SimplePredicate field="purpose=radio/television" operator="greaterThan" value="1.0000000180025095E-35"/>
												<Node score="-0.11492714944705683">
													<SimplePredicate field="standardScaler(age.in.years)" operator="greaterThan" value="-0.3634502647332086"/>
												</Node>
											</Node>
											<Node score="0.02663141316025629">
												<SimplePredicate field="standardScaler(installment.rate.in.percentage.of.disposable.income)" operator="greaterThan" value="0.4468020666174179"/>
												<Node score="-0.12087468571274043">
													<SimplePredicate field="job=skilled employee / official" operator="greaterThan" value="1.0000000180025095E-35"/>
													<Node score="-0.04249419142431751">
														<SimplePredicate field="standardScaler(present.residence.since)" operator="greaterThan" value="0.5805242392000802"/>
													</Node>
												</Node>
											</Node>
											<Node score="-0.12136187148770575">
												<SimplePredicate field="standardScaler(credit.amount)" operator="greaterThan" value="-0.5398596869320748"/>
											</Node>
										</Node>
									</Node>
									<Node score="0.05640200723413052">
										<SimplePredicate field="property=unknown / no property" operator="greaterThan" value="1.0000000180025095E-35"/>
										<Node score="0.033454229916675404">
											<SimplePredicate field="personal.status.and.sex=female : divorced/separated/married" operator="greaterThan" value="1.0000000180025095E-35"/>
										</Node>
										<Node score="0.10886947944748802">
											<SimplePredicate field="savings.account.and.bonds=... &lt; 100 DM" operator="greaterThan" value="1.0000000180025095E-35"/>
										</Node>
									</Node>
									<Node score="0.03635849219950587">
										<SimplePredicate field="standardScaler(duration.in.month)" operator="greaterThan" value="-0.7915366102898461"/>
										<Node score="-0.0022340883483813554">
											<SimplePredicate field="purpose=car (new)" operator="greaterThan" value="1.0000000180025095E-35"/>
											<Node score="0.062040857395094164">
												<SimplePredicate field="standardScaler(installment.rate.in.percentage.of.disposable.income)" operator="greaterThan" value="1.0000000180025095E-35"/>
												<Node score="0.11836761253027722">
													<SimplePredicate field="status.of.existing.checking.account=... &lt; 0 DM" operator="greaterThan" value="1.0000000180025095E-35"/>
												</Node>
											</Node>
										</Node>
										<Node score="-0.05899111940258364">
											<SimplePredicate field="savings.account.and.bonds=... &lt; 100 DM" operator="greaterThan" value="1.0000000180025095E-35"/>
											<Node score="0.08560327764753774">
												<SimplePredicate field="standardScaler(duration.in.month)" operator="greaterThan" value="-0.46104115714168487"/>
												<Node score="-0.070646488428646">
													<SimplePredicate field="standardScaler(credit.amount)" operator="greaterThan" value="-0.35453514397392943"/>
													<Node score="0.08523417343960475">
														<SimplePredicate field="standardScaler(credit.amount)" operator="greaterThan" value="1.0869180684405448"/>
													</Node>
