<?xml version="1.0" encoding="UTF-8" standalone="yes"?>
<PMML xmlns="http://www.dmg.org/PMML-4_4" xmlns:data="http://jpmml.org/jpmml-model/InlineTable" version="4.4">
	<Header>
		<Application name="JPMML-SkLearn" version="1.6.32"/>
		<Timestamp>2022-04-26T04:45:14Z</Timestamp>
	</Header>
	<MiningBuildTask>
		<Extension name="repr">PMMLPipeline(steps=[('mapper', ColumnTransformer(transformers=[('num',
                                 Pipeline(steps=[('imputer',
                                                  SimpleImputer(strategy='median')),
                                                 ('scaler', StandardScaler())]),
                                 ['duration.in.month', 'credit.amount',
                                  'installment.rate.in.percentage.of.disposable.income',
                                  'present.residence.since', 'age.in.years',
                                  'number.of.existing.credits.at.this.bank',
                                  'number.of.people.being.liable.to.provide.main...
                                                  SimpleImputer(fill_value='missing',
                                                                strategy='constant')),
                                                 ('onehot',
                                                  OneHotEncoder(handle_unknown='ignore'))]),
                                 ['status.of.existing.checking.account',
                                  'present.employment.since',
                                  'savings.account.and.bonds', 'property',
                                  'job', 'personal.status.and.sex', 'purpose',
                                  'foreign.worker', 'housing', 'telephone',
                                  'other.installment.plans', 'credit.history',
                                  'other.debtors.or.guarantors'])])),
       ('classifier', LGBMClassifier())])</Extension>
	</MiningBuildTask>
	<DataDictionary>
		<DataField name="flag" optype="categorical" dataType="integer">
			<Value value="0"/>
			<Value value="1"/>
		</DataField>
		<DataField name="duration.in.month" optype="continuous" dataType="double"/>
		<DataField name="credit.amount" optype="continuous" dataType="double"/>
		<DataField name="installment.rate.in.percentage.of.disposable.income" optype="continuous" dataType="double"/>
		<DataField name="present.residence.since" optype="continuous" dataType="double"/>
		<DataField name="age.in.years" optype="continuous" dataType="double"/>
		<DataField name="number.of.existing.credits.at.this.bank" optype="continuous" dataType="double"/>
		<DataField name="number.of.people.being.liable.to.provide.maintenance.for" optype="continuous" dataType="double"/>
		<DataField name="status.of.existing.checking.account" optype="categorical" dataType="string">
			<Value value="... &lt; 0 DM"/>
			<Value value="... &gt;= 200 DM / salary assignments for at least 1 year"/>
			<Value value="0 &lt;= ... &lt; 200 DM"/>
			<Value value="no checking account"/>
		</DataField>
		<DataField name="present.employment.since" optype="categorical" dataType="string">
			<Value value="... &lt; 1 year"/>
			<Value value="... &gt;= 7 years"/>
			<Value value="1 &lt;= ... &lt; 4 years"/>
			<Value value="4 &lt;= ... &lt; 7 years"/>
			<Value value="unemployed"/>
		</DataField>
		<DataField name="savings.account.and.bonds" optype="categorical" dataType="string">
			<Value value="... &lt; 100 DM"/>
			<Value value="... &gt;= 1000 DM"/>
			<Value value="100 &lt;= ... &lt; 500 DM"/>
			<Value value="500 &lt;= ... &lt; 1000 DM"/>
			<Value value="unknown/ no savings account"/>
		</DataField>
		<DataField name="property" optype="categorical" dataType="string">
			<Value value="building society savings agreement/ life insurance"/>
			<Value value="car or other, not in attribute Savings account/bonds"/>
			<Value value="real estate"/>
			<Value value="unknown / no property"/>
		</DataField>
		<DataField name="job" optype="categorical" dataType="string">
			<Value value="management/ self-employed/ highly qualified employee/ officer"/>
			<Value value="skilled employee / official"/>
			<Value value="unemployed/ unskilled - non-resident"/>
			<Value value="unskilled - resident"/>
		</DataField>
		<DataField name="personal.status.and.sex" optype="categorical" dataType="string">
			<Value value="female : divorced/separated/married"/>
			<Value value="male : divorced/separated"/>
			<Value value="male : married/widowed"/>
			<Value value="male : single"/>
		</DataField>
		<DataField name="purpose" optype="categorical" dataType="string">
			<Value value="business"/>
			<Value value="car (new)"/>
			<Value value="car (used)"/>
			<Value value="domestic appliances"/>
			<Value value="education"/>
			<Value value="furniture/equipment"/>
			<Value value="others"/>
			<Value value="radio/television"/>
			<Value value="repairs"/>
			<Value value="retraining"/>
		</DataField>
		<DataField name="foreign.worker" optype="categorical" dataType="string">
			<Value value="no"/>
			<Value value="yes"/>
		</DataField>
		<DataField name="housing" optype="categorical" dataType="string">
			<Value value="for free"/>
			<Value value="own"/>
			<Value value="rent"/>
		</DataField>
		<DataField name="telephone" optype="categorical" dataType="string">
			<Value value="none"/>
			<Value value="yes, registered under the customers name"/>
		</DataField>
		<DataField name="other.installment.plans" optype="categorical" dataType="string">
			<Value value="bank"/>
			<Value value="none"/>
			<Value value="stores"/>
		</DataField>
		<DataField name="credit.history" optype="categorical" dataType="string">
			<Value value="all credits at this bank paid back duly"/>
			<Value value="critical account/ other credits existing (not at this bank)"/>
			<Value value="delay in paying off in the past"/>
			<Value value="existing credits paid back duly till now"/>
			<Value value="no credits taken/ all credits paid back duly"/>
		</DataField>
		<DataField name="other.debtors.or.guarantors" optype="categorical" dataType="string">
			<Value value="co-applicant"/>
			<Value value="guarantor"/>
			<Value value="none"/>
		</DataField>
	</DataDictionary>
	<MiningModel functionName="classification" algorithmName="LightGBM">
		<MiningSchema>
			<Extension name="X-FeatureImportances">
				<InlineTable>
					<Extension name="numberOfImportances" value="55"/>
					<Extension name="numberOfNonZeroImportances" value="55"/>
					<Extension name="sumOfImportances" value="2952.0"/>
					<Extension name="minImportance" value="4.0"/>
					<Extension name="maxImportance" value="631.0"/>
					<row>
						<data:name>present.employment.since=1 &lt;= ... &lt; 4 years</data:name>
						<data:importance>46.0</data:importance>
					</row>
					<row>
						<data:name>other.installment.plans=stores</data:name>
						<data:importance>10.0</data:importance>
					</row>
					<row>
						<data:name>personal.status.and.sex=female : divorced/separated/married</data:name>
						<data:importance>34.0</data:importance>
					</row>
					<row>
						<data:name>property=unknown / no property</data:name>
						<data:importance>12.0</data:importance>
					</row>
					<row>
						<data:name>savings.account.and.bonds=500 &lt;= ... &lt; 1000 DM</data:name>
						<data:importance>4.0</data:importance>
					</row>
					<row>
						<data:name>telephone=yes, registered under the customers name</data:name>
						<data:importance>17.0</data:importance>
					</row>
					<row>
						<data:name>status.of.existing.checking.account=0 &lt;= ... &lt; 200 DM</data:name>
						<data:importance>33.0</data:importance>
					</row>
					<row>
						<data:name>status.of.existing.checking.account=... &lt; 0 DM</data:name>
						<data:importance>58.0</data:importance>
					</row>
					<row>
						<data:name>savings.account.and.bonds=100 &lt;= ... &lt; 500 DM</data:name>
						<data:importance>8.0</data:importance>
					</row>
					<row>
						<data:name>credit.history=existing credits paid back duly till now</data:name>
						<data:importance>74.0</data:importance>
					</row>
					<row>
						<data:name>housing=own</data:name>
						<data:importance>26.0</data:importance>
					</row>
					<row>
						<data:name>standardScaler(present.residence.since)</data:name>
						<data:importance>116.0</data:importance>
					</row>
					<row>
						<data:name>credit.history=all credits at this bank paid back duly</data:name>
						<data:importance>7.0</data:importance>
					</row>
					<row>
						<data:name>purpose=education</data:name>
						<data:importance>15.0</data:importance>
					</row>
					<row>
						<data:name>telephone=none</data:name>
						<data:importance>38.0</data:importance>
					</row>
					<row>
						<data:name>status.of.existing.checking.account=... &gt;= 200 DM / salary assignments for at least 1 year</data:name>
						<data:importance>16.0</data:importance>
					</row>
					<row>
						<data:name>other.installment.plans=none</data:name>
						<data:importance>43.0</data:importance>
					</row>
					<row>
						<data:name>credit.history=no credits taken/ all credits paid back duly</data:name>
						<data:importance>5.0</data:importance>
					</row>
					<row>
						<data:name>standardScaler(age.in.years)</data:name>
						<data:importance>387.0</data:importance>
					</row>
					<row>
						<data:name>present.employment.since=unemployed</data:name>
						<data:importance>15.0</data:importance>
					</row>
					<row>
						<data:name>credit.history=critical account/ other credits existing (not at this bank)</data:name>
						<data:importance>59.0</data:importance>
					</row>
					<row>
						<data:name>property=building society savings agreement/ life insurance</data:name>
						<data:importance>35.0</data:importance>
					</row>
					<row>
						<data:name>purpose=car (new)</data:name>
						<data:importance>38.0</data:importance>
					</row>
					<row>
						<data:name>other.installment.plans=bank</data:name>
						<data:importance>11.0</data:importance>
					</row>
					<row>
						<data:name>savings.account.and.bonds=... &lt; 100 DM</data:name>
						<data:importance>68.0</data:importance>
					</row>
					<row>
						<data:name>present.employment.since=... &gt;= 7 years</data:name>
						<data:importance>37.0</data:importance>
					</row>
					<row>
						<data:name>standardScaler(duration.in.month)</data:name>
						<data:importance>272.0</data:importance>
					</row>
					<row>
						<data:name>savings.account.and.bonds=unknown/ no savings account</data:name>
						<data:importance>14.0</data:importance>
					</row>
					<row>
						<data:name>present.employment.since=4 &lt;= ... &lt; 7 years</data:name>
						<data:importance>41.0</data:importance>
					</row>
					<row>
						<data:name>standardScaler(number.of.people.being.liable.to.provide.maintenance.for)</data:name>
						<data:importance>18.0</data:importance>
					</row>
					<row>
						<data:name>property=car or other, not in attribute Savings account/bonds</data:name>
						<data:importance>47.0</data:importance>
					</row>
					<row>
						<data:name>job=unskilled - resident</data:name>
						<data:importance>29.0</data:importance>
					</row>
					<row>
						<data:name>personal.status.and.sex=male : married/widowed</data:name>
						<data:importance>7.0</data:importance>
					</row>
					<row>
						<data:name>personal.status.and.sex=male : single</data:name>
						<data:importance>68.0</data:importance>
					</row>
					<row>
						<data:name>purpose=radio/television</data:name>
						<data:importance>31.0</data:importance>
					</row>
					<row>
						<data:name>credit.history=delay in paying off in the past</data:name>
						<data:importance>28.0</data:importance>
					</row>
					<row>
						<data:name>job=management/ self-employed/ highly qualified employee/ officer</data:name>
						<data:importance>28.0</data:importance>
					</row>
					<row>
						<data:name>standardScaler(installment.rate.in.percentage.of.disposable.income)</data:name>
						<data:importance>135.0</data:importance>
					</row>
					<row>
						<data:name>other.debtors.or.guarantors=none</data:name>
						<data:importance>6.0</data:importance>
					</row>
					<row>
						<data:name>standardScaler(number.of.existing.credits.at.this.bank)</data:name>
						<data:importance>58.0</data:importance>
					</row>
					<row>
						<data:name>foreign.worker=yes</data:name>
						<data:importance>6.0</data:importance>
					</row>
					<row>
						<data:name>property=real estate</data:name>
						<data:importance>43.0</data:importance>
					</row>
					<row>
						<data:name>purpose=car (used)</data:name>
						<data:importance>39.0</data:importance>
					</row>
					<row>
						<data:name>purpose=business</data:name>
						<data:importance>8.0</data:importance>
					</row>
					<row>
						<data:name>personal.status.and.sex=male : divorced/separated</data:name>
						<data:importance>7.0</data:importance>
					</row>
					<row>
						<data:name>standardScaler(credit.amount)</data:name>
						<data:importance>631.0</data:importance>
					</row>
					<row>
						<data:name>housing=rent</data:name>
						<data:importance>13.0</data:importance>
					</row>
					<row>
						<data:name>other.debtors.or.guarantors=co-applicant</data:name>
						<data:importance>11.0</data:importance>
					</row>
					<row>
						<data:name>purpose=furniture/equipment</data:name>
						<data:importance>20.0</data:importance>
					</row>
					<row>
						<data:name>status.of.existing.checking.account=no checking account</data:name>
						<data:importance>53.0</data:importance>
					</row>
					<row>
						<data:name>job=skilled employee / official</data:name>
						<data:importance>53.0</data:importance>
					</row>
					<row>
						<data:name>present.employment.since=... &lt; 1 year</data:name>
						<data:importance>29.0</data:importance>
					</row>
					<row>
						<data:name>savings.account.and.bonds=... &gt;= 1000 DM</data:name>
						<data:importance>14.0</data:importance>
					</row>
					<row>
						<data:name>housing=for free</data:name>
						<data:importance>10.0</data:importance>
					</row>
					<row>
						<data:name>other.debtors.or.guarantors=guarantor</data:name>
						<data:importance>21.0</data:importance>
					</row>
				</InlineTable>
			</Extension>
			<MiningField name="flag" usageType="target"/>
			<MiningField name="duration.in.month" importance="272.0" missingValueReplacement="18.0" missingValueTreatment="asMedian"/>
			<MiningField name="credit.amount" importance="631.0" missingValueReplacement="2326.5" missingValueTreatment="asMedian"/>
			<MiningField name="installment.rate.in.percentage.of.disposable.income" importance="135.0" missingValueReplacement="3.0" missingValueTreatment="asMedian"/>
			<MiningField name="present.residence.since" importance="116.0" missingValueReplacement="3.0" missingValueTreatment="asMedian"/>
			<MiningField name="age.in.years" importance="387.0" missingValueReplacement="33.0" missingValueTreatment="asMedian"/>
			<MiningField name="number.of.existing.credits.at.this.bank" importance="58.0" missingValueReplacement="1.0" missingValueTreatment="asMedian"/>
			<MiningField name="number.of.people.being.liable.to.provide.maintenance.for" importance="18.0" missingValueReplacement="1.0" missingValueTreatment="asMedian"/>
			<MiningField name="status.of.existing.checking.account" importance="160.0" missingValueReplacement="missing" missingValueTreatment="asValue" invalidValueTreatment="asIs"/>
			<MiningField name="present.employment.since" importance="168.0" missingValueReplacement="missing" missingValueTreatment="asValue" invalidValueTreatment="asIs"/>
			<MiningField name="savings.account.and.bonds" importance="108.0" missingValueReplacement="missing" missingValueTreatment="asValue" invalidValueTreatment="asIs"/>
			<MiningField name="property" importance="137.0" missingValueReplacement="missing" missingValueTreatment="asValue" invalidValueTreatment="asIs"/>
			<MiningField name="job" importance="110.0" missingValueReplacement="missing" missingValueTreatment="asValue" invalidValueTreatment="asIs"/>
			<MiningField name="personal.status.and.sex" importance="116.0" missingValueReplacement="missing" missingValueTreatment="asValue" invalidValueTreatment="asIs"/>
			<MiningField name="purpose" importance="151.0" missingValueReplacement="missing" missingValueTreatment="asValue" invalidValueTreatment="asIs"/>
			<MiningField name="foreign.worker" importance="6.0" missingValueReplacement="missing" missingValueTreatment="asValue" invalidValueTreatment="asIs"/>
			<MiningField name="housing" importance="49.0" missingValueReplacement="missing" missingValueTreatment="asValue" invalidValueTreatment="asIs"/>
			<MiningField name="telephone" importance="55.0" missingValueReplacement="missing" missingValueTreatment="asValue" invalidValueTreatment="asIs"/>
			<MiningField name="other.installment.plans" importance="64.0" missingValueReplacement="missing" missingValueTreatment="asValue" invalidValueTreatment="asIs"/>
			<MiningField name="credit.history" importance="173.0" missingValueReplacement="missing" missingValueTreatment="asValue" invalidValueTreatment="asIs"/>
			<MiningField name="other.debtors.or.guarantors" importance="38.0" missingValueReplacement="missing" missingValueTreatment="asValue" invalidValueTreatment="asIs"/>
		</MiningSchema>
		<Segmentation multipleModelMethod="modelChain" missingPredictionTreatment="returnMissing">
			<Segment id="1">
				<True/>
				<MiningModel functionName="regression">
					<MiningSchema>
						<MiningField name="duration.in.month"/>
						<MiningField name="credit.amount"/>
						<MiningField name="installment.rate.in.percentage.of.disposable.income"/>
						<MiningField name="present.residence.since"/>
						<MiningField name="age.in.years"/>
						<MiningField name="number.of.existing.credits.at.this.bank"/>
						<MiningField name="number.of.people.being.liable.to.provide.maintenance.for"/>
						<MiningField name="status.of.existing.checking.account"/>
						<MiningField name="present.employment.since"/>
						<MiningField name="savings.account.and.bonds"/>
						<MiningField name="property"/>
						<MiningField name="job"/>
						<MiningField name="personal.status.and.sex"/>
						<MiningField name="purpose"/>
						<MiningField name="foreign.worker"/>
						<MiningField name="housing"/>
						<MiningField name="telephone"/>
						<MiningField name="other.installment.plans"/>
						<MiningField name="credit.history"/>
						<MiningField name="other.debtors.or.guarantors"/>
					</MiningSchema>
					<Output>
						<OutputField name="lgbmValue" optype="continuous" dataType="double" isFinalResult="false"/>
					</Output>
					<LocalTransformations>
						<DerivedField name="standardScaler(duration.in.month)" optype="continuous" dataType="double">
							<Apply function="/">
								<Apply function="-">
									<FieldRef field="duration.in.month"/>
									<Constant dataType="double">21.037593984962406</Constant>
								</Apply>
								<Constant dataType="double">11.961764072446677</Constant>
							</Apply>
						</DerivedField>
						<DerivedField name="standardScaler(credit.amount)" optype="continuous" dataType="double">
							<Apply function="/">
								<Apply function="-">
									<FieldRef field="credit.amount"/>
									<Constant dataType="double">3273.845864661654</Constant>
								</Apply>
								<Constant dataType="double">2854.533354900111</Constant>
							</Apply>
						</DerivedField>
						<DerivedField name="standardScaler(installment.rate.in.percentage.of.disposable.income)" optype="continuous" dataType="double">
							<Apply function="/">
								<Apply function="-">
									<FieldRef field="installment.rate.in.percentage.of.disposable.income"/>
									<Constant dataType="double">2.988721804511278</Constant>
								</Apply>
								<Constant dataType="double">1.1199369478764414</Constant>
							</Apply>
						</DerivedField>
						<DerivedField name="standardScaler(present.residence.since)" optype="continuous" dataType="double">
							<Apply function="/">
								<Apply function="-">
									<FieldRef field="present.residence.since"/>
									<Constant dataType="double">2.8521303258145365</Constant>
								</Apply>
								<Constant dataType="double">1.1016912144005517</Constant>
							</Apply>
						</DerivedField>
						<DerivedField name="standardScaler(age.in.years)" optype="continuous" dataType="double">
							<Apply function="/">
								<Apply function="-">
									<FieldRef field="age.in.years"/>
									<Constant dataType="double">35.48370927318296</Constant>
								</Apply>
								<Constant dataType="double">11.34585525000537</Constant>
							</Apply>
						</DerivedField>
						<DerivedField name="standardScaler(number.of.existing.credits.at.this.bank)" optype="continuous" dataType="double">
							<Apply function="/">
								<Apply function="-">
									<FieldRef field="number.of.existing.credits.at.this.bank"/>
									<Constant dataType="double">1.3972431077694236</Constant>
								</Apply>
								<Constant dataType="double">0.5741659908152764</Constant>
							</Apply>
						</DerivedField>
						<DerivedField name="standardScaler(number.of.people.being.liable.to.provide.maintenance.for)" optype="continuous" dataType="double">
							<Apply function="/">
								<Apply function="-">
									<FieldRef field="number.of.people.being.liable.to.provide.maintenance.for"/>
									<Constant dataType="double">1.1478696741854637</Constant>
								</Apply>
								<Constant dataType="double">0.35497075040311205</Constant>
							</Apply>
						</DerivedField>
						<DerivedField name="status.of.existing.checking.account=... &lt; 0 DM" optype="continuous" dataType="double">
							<NormDiscrete field="status.of.existing.checking.account" value="... &lt; 0 DM"/>
						</DerivedField>
						<DerivedField name="status.of.existing.checking.account=... &gt;= 200 DM / salary assignments for at least 1 year" optype="continuous" dataType="double">
							<NormDiscrete field="status.of.existing.checking.account" value="... &gt;= 200 DM / salary assignments for at least 1 year"/>
						</DerivedField>
						<DerivedField name="status.of.existing.checking.account=0 &lt;= ... &lt; 200 DM" optype="continuous" dataType="double">
							<NormDiscrete field="status.of.existing.checking.account" value="0 &lt;= ... &lt; 200 DM"/>
						</DerivedField>
						<DerivedField name="status.of.existing.checking.account=no checking account" optype="continuous" dataType="double">
							<NormDiscrete field="status.of.existing.checking.account" value="no checking account"/>
						</DerivedField>
						<DerivedField name="present.employment.since=... &lt; 1 year" optype="continuous" dataType="double">
							<NormDiscrete field="present.employment.since" value="... &lt; 1 year"/>
						</DerivedField>
						<DerivedField name="present.employment.since=... &gt;= 7 years" optype="continuous" dataType="double">
							<NormDiscrete field="present.employment.since" value="... &gt;= 7 years"/>
						</DerivedField>
						<DerivedField name="present.employment.since=1 &lt;= ... &lt; 4 years" optype="continuous" dataType="double">
							<NormDiscrete field="present.employment.since" value="1 &lt;= ... &lt; 4 years"/>
						</DerivedField>
						<DerivedField name="present.employment.since=4 &lt;= ... &lt; 7 years" optype="continuous" dataType="double">
							<NormDiscrete field="present.employment.since" value="4 &lt;= ... &lt; 7 years"/>
						</DerivedField>
						<DerivedField name="present.employment.since=unemployed" optype="continuous" dataType="double">
							<NormDiscrete field="present.employment.since" value="unemployed"/>
						</DerivedField>
						<DerivedField name="savings.account.and.bonds=... &lt; 100 DM" optype="continuous" dataType="double">
							<NormDiscrete field="savings.account.and.bonds" value="... &lt; 100 DM"/>
						</DerivedField>
						<DerivedField name="savings.account.and.bonds=... &gt;= 1000 DM" optype="continuous" dataType="double">
							<NormDiscrete field="savings.account.and.bonds" value="... &gt;= 1000 DM"/>
						</DerivedField>
						<DerivedField name="savings.account.and.bonds=100 &lt;= ... &lt; 500 DM" optype="continuous" dataType="double">
							<NormDiscrete field="savings.account.and.bonds" value="100 &lt;= ... &lt; 500 DM"/>
						</DerivedField>
						<DerivedField name="savings.account.and.bonds=500 &lt;= ... &lt; 1000 DM" optype="continuous" dataType="double">
							<NormDiscrete field="savings.account.and.bonds" value="500 &lt;= ... &lt; 1000 DM"/>
						</DerivedField>
						<DerivedField name="savings.account.and.bonds=unknown/ no savings account" optype="continuous" dataType="double">
							<NormDiscrete field="savings.account.and.bonds" value="unknown/ no savings account"/>
						</DerivedField>
						<DerivedField name="property=building society savings agreement/ life insurance" optype="continuous" dataType="double">
							<NormDiscrete field="property" value="building society savings agreement/ life insurance"/>
						</DerivedField>
						<DerivedField name="property=car or other, not in attribute Savings account/bonds" optype="continuous" dataType="double">
							<NormDiscrete field="property" value="car or other, not in attribute Savings account/bonds"/>
						</DerivedField>
						<DerivedField name="property=real estate" optype="continuous" dataType="double">
							<NormDiscrete field="property" value="real estate"/>
						</DerivedField>
						<DerivedField name="property=unknown / no property" optype="continuous" dataType="double">
							<NormDiscrete field="property" value="unknown / no property"/>
						</DerivedField>
						<DerivedField name="job=management/ self-employed/ highly qualified employee/ officer" optype="continuous" dataType="double">
							<NormDiscrete field="job" value="management/ self-employed/ highly qualified employee/ officer"/>
						</DerivedField>
						<DerivedField name="job=skilled employee / official" optype="continuous" dataType="double">
							<NormDiscrete field="job" value="skilled employee / official"/>
						</DerivedField>
						<DerivedField name="job=unskilled - resident" optype="continuous" dataType="double">
							<NormDiscrete field="job" value="unskilled - resident"/>
						</DerivedField>
						<DerivedField name="personal.status.and.sex=female : divorced/separated/married" optype="continuous" dataType="double">
							<NormDiscrete field="personal.status.and.sex" value="female : divorced/separated/married"/>
						</DerivedField>
						<DerivedField name="personal.status.and.sex=male : divorced/separated" optype="continuous" dataType="double">
							<NormDiscrete field="personal.status.and.sex" value="male : divorced/separated"/>
						</DerivedField>
						<DerivedField name="personal.status.and.sex=male : married/widowed" optype="continuous" dataType="double">
							<NormDiscrete field="personal.status.and.sex" value="male : married/widowed"/>
						</DerivedField>
						<DerivedField name="personal.status.and.sex=male : single" optype="continuous" dataType="double">
							<NormDiscrete field="personal.status.and.sex" value="male : single"/>
						</DerivedField>
						<DerivedField name="purpose=business" optype="continuous" dataType="double">
							<NormDiscrete field="purpose" value="business"/>
						</DerivedField>
						<DerivedField name="purpose=car (new)" optype="continuous" dataType="double">
							<NormDiscrete field="purpose" value="car (new)"/>
						</DerivedField>
						<DerivedField name="purpose=car (used)" optype="continuous" dataType="double">
							<NormDiscrete field="purpose" value="car (used)"/>
						</DerivedField>
						<DerivedField name="purpose=education" optype="continuous" dataType="double">
							<NormDiscrete field="purpose" value="education"/>
						</DerivedField>
						<DerivedField name="purpose=furniture/equipment" optype="continuous" dataType="double">
							<NormDiscrete field="purpose" value="furniture/equipment"/>
						</DerivedField>
						<DerivedField name="purpose=radio/television" optype="continuous" dataType="double">
							<NormDiscrete field="purpose" value="radio/television"/>
						</DerivedField>
						<DerivedField name="foreign.worker=yes" optype="continuous" dataType="double">
							<NormDiscrete field="foreign.worker" value="yes"/>
						</DerivedField>
						<DerivedField name="housing=for free" optype="continuous" dataType="double">
							<NormDiscrete field="housing" value="for free"/>
						</DerivedField>
						<DerivedField name="housing=own" optype="continuous" dataType="double">
							<NormDiscrete field="housing" value="own"/>
						</DerivedField>
						<DerivedField name="housing=rent" optype="continuous" dataType="double">
							<NormDiscrete field="housing" value="rent"/>
						</DerivedField>
						<DerivedField name="telephone=none" optype="continuous" dataType="double">
							<NormDiscrete field="telephone" value="none"/>
						</DerivedField>
						<DerivedField name="telephone=yes, registered under the customers name" optype="continuous" dataType="double">
							<NormDiscrete field="telephone" value="yes, registered under the customers name"/>
						</DerivedField>
						<DerivedField name="other.installment.plans=bank" optype="continuous" dataType="double">
							<NormDiscrete field="other.installment.plans" value="bank"/>
						</DerivedField>
						<DerivedField name="other.installment.plans=none" optype="continuous" dataType="double">
							<NormDiscrete field="other.installment.plans" value="none"/>
						</DerivedField>
						<DerivedField name="other.installment.plans=stores" optype="continuous" dataType="double">
							<NormDiscrete field="other.installment.plans" value="stores"/>
						</DerivedField>
						<DerivedField name="credit.history=all credits at this bank paid back duly" optype="continuous" dataType="double">
							<NormDiscrete field="credit.history" value="all credits at this bank paid back duly"/>
						</DerivedField>
						<DerivedField name="credit.history=critical account/ other credits existing (not at this bank)" optype="continuous" dataType="double">
							<NormDiscrete field="credit.history" value="critical account/ other credits existing (not at this bank)"/>
						</DerivedField>
						<DerivedField name="credit.history=delay in paying off in the past" optype="continuous" dataType="double">
							<NormDiscrete field="credit.history" value="delay in paying off in the past"/>
						</DerivedField>
						<DerivedField name="credit.history=existing credits paid back duly till now" optype="continuous" dataType="double">
							<NormDiscrete field="credit.history" value="existing credits paid back duly till now"/>
						</DerivedField>
						<DerivedField name="credit.history=no credits taken/ all credits paid back duly" optype="continuous" dataType="double">
							<NormDiscrete field="credit.history" value="no credits taken/ all credits paid back duly"/>
						</DerivedField>
						<DerivedField name="other.debtors.or.guarantors=co-applicant" optype="continuous" dataType="double">
							<NormDiscrete field="other.debtors.or.guarantors" value="co-applicant"/>
						</DerivedField>
						<DerivedField name="other.debtors.or.guarantors=guarantor" optype="continuous" dataType="double">
							<NormDiscrete field="other.debtors.or.guarantors" value="guarantor"/>
						</DerivedField>
						<DerivedField name="other.debtors.or.guarantors=none" optype="continuous" dataType="double">
							<NormDiscrete field="other.debtors.or.guarantors" value="none"/>
						</DerivedField>
					</LocalTransformations>
					<Segmentation multipleModelMethod="sum">
						<Segment id="1">
							<True/>
							<TreeModel functionName="regression" noTrueChildStrategy="returnLastPrediction">
								<MiningSchema>
									<MiningField name="standardScaler(duration.in.month)"/>
									<MiningField name="standardScaler(credit.amount)"/>
									<MiningField name="standardScaler(present.residence.since)"/>
									<MiningField name="standardScaler(age.in.years)"/>
									<MiningField name="status.of.existing.checking.account=... &lt; 0 DM"/>
									<MiningField name="status.of.existing.checking.account=... &gt;= 200 DM / salary assignments for at least 1 year"/>
									<MiningField name="status.of.existing.checking.account=no checking account"/>
									<MiningField name="savings.account.and.bonds=... &lt; 100 DM"/>
									<MiningField name="savings.account.and.bonds=100 &lt;= ... &lt; 500 DM"/>
									<MiningField name="property=car or other, not in attribute Savings account/bonds"/>
									<MiningField name="property=real estate"/>
									<MiningField name="purpose=car (new)"/>
									<MiningField name="purpose=car (used)"/>
									<MiningField name="purpose=radio/television"/>
									<MiningField name="housing=own"/>
									<MiningField name="telephone=yes, registered under the customers name"/>
									<MiningField name="other.installment.plans=none"/>
									<MiningField name="credit.history=critical account/ other credits existing (not at this bank)"/>
									<MiningField name="other.debtors.or.guarantors=none"/>
								</MiningSchema>
								<Node score="-0.8753319062796538">
									<True/>
									<Node score="-0.8298479553707809">
										<SimplePredicate field="status.of.existing.checking.account=no checking account" operator="greaterThan" value="1.0000000180025095E-35"/>
										<Node score="-0.8530502947008132">
											<SimplePredicate field="other.installment.plans=none" operator="greaterThan" value="1.0000000180025095E-35"/>
											<Node score="-0.9138183262794694">
												<SimplePredicate field="standardScaler(age.in.years)" operator="greaterThan" value="-0.35111582030636906"/>
												<Node score="-0.9138183262794694">
													<SimplePredicate field="credit.history=critical account/ other credits existing (not at this bank)" operator="greaterThan" value="1.0000000180025095E-35"/>
													<Node score="-0.9138183262794695">
														<SimplePredicate field="standardScaler(duration.in.month)" operator="greaterThan" value="-0.5465409571169711"/>
													</Node>
												</Node>
												<Node score="-0.821450918279912">
													<SimplePredicate field="standardScaler(credit.amount)" operator="greaterThan" value="0.18151973402198265"/>
												</Node>
												<Node score="-0.856088696279746">
													<SimplePredicate field="standardScaler(age.in.years)" operator="greaterThan" value="0.6184012198475493"/>
												</Node>
											</Node>
											<Node score="-0.7521753622802441">
												<SimplePredicate field="standardScaler(duration.in.month)" operator="greaterThan" value="0.331255991260085"/>
											</Node>
											<Node score="-0.7983590662800227">
												<SimplePredicate field="standardScaler(present.residence.since)" operator="greaterThan" value="0.5880682951057027"/>
											</Node>
											<Node score="-0.9138183262794695">
												<SimplePredicate field="purpose=radio/television" operator="greaterThan" value="1.0000000180025095E-35"/>
											</Node>
										</Node>
										<Node score="-0.7201447288610426">
											<SimplePredicate field="standardScaler(credit.amount)" operator="greaterThan" value="-0.3749635164795994"/>
										</Node>
									</Node>
									<Node score="-0.8478416062797856">
										<SimplePredicate field="standardScaler(duration.in.month)" operator="greaterThan" value="1.0000000180025095E-35"/>
										<Node score="-0.640914620826232">
											<SimplePredicate field="savings.account.and.bonds=... &lt; 100 DM" operator="greaterThan" value="1.0000000180025095E-35"/>
											<Node score="-0.7791158562801149">
												<SimplePredicate field="purpose=car (used)" operator="greaterThan" value="1.0000000180025095E-35"/>
											</Node>
											<Node score="-0.47297387900885474">
												<SimplePredicate field="standardScaler(duration.in.month)" operator="greaterThan" value="1.8778506145910885"/>
											</Node>
											<Node score="-0.5212568422813506">
												<SimplePredicate field="purpose=car (new)" operator="greaterThan" value="1.0000000180025095E-35"/>
											</Node>
											<Node score="-0.5793846076603824">
												<SimplePredicate field="telephone=yes, registered under the customers name" operator="greaterThan" value="1.0000000180025095E-35"/>
											</Node>
											<Node score="-0.7668701771892645">
												<SimplePredicate field="standardScaler(credit.amount)" operator="greaterThan" value="0.11793666196278392"/>
											</Node>
										</Node>
										<Node score="-0.6279192062808395">
											<SimplePredicate field="status.of.existing.checking.account=... &lt; 0 DM" operator="greaterThan" value="1.0000000180025095E-35"/>
										</Node>
										<Node score="-0.715888166280418">
											<SimplePredicate field="savings.account.and.bonds=100 &lt;= ... &lt; 500 DM" operator="greaterThan" value="1.0000000180025095E-35"/>
										</Node>
									</Node>
									<Node score="-0.7598726462802071">
										<SimplePredicate field="credit.history=critical account/ other credits existing (not at this bank)" operator="greaterThan" value="1.0000000180025095E-35"/>
										<Node score="-0.8088553626436088">
											<SimplePredicate field="housing=own" operator="greaterThan" value="1.0000000180025095E-35"/>
											<Node score="-0.8953448446795579">
												<SimplePredicate field="standardScaler(age.in.years)" operator="greaterThan" value="0.08957374339995737"/>
											</Node>
										</Node>
									</Node>
									<Node score="-0.7021430162804838">
										<SimplePredicate field="other.debtors.or.guarantors=none" operator="greaterThan" value="1.0000000180025095E-35"/>
										<Node score="-0.8111878729466279">
											<SimplePredicate field="status.of.existing.checking.account=... &gt;= 200 DM / salary assignments for at least 1 year" operator="greaterThan" value="1.0000000180025095E-35"/>
										</Node>
										<Node score="-0.6929397419327018">
											<SimplePredicate field="property=real estate" operator="greaterThan" value="1.0000000180025095E-35"/>
											<Node score="-0.8176022762799305">
												<SimplePredicate field="standardScaler(age.in.years)" operator="greaterThan" value="-0.4392537330476343"/>
											</Node>
										</Node>
										<Node score="-0.571165038539176">
											<SimplePredicate field="purpose=car (new)" operator="greaterThan" value="1.0000000180025095E-35"/>
										</Node>
										<Node score="-0.7372335756920804">
											<SimplePredicate field="property=car or other, not in attribute Savings account/bonds" operator="greaterThan" value="1.0000000180025095E-35"/>
										</Node>
										<Node score="-0.590532398281019">
											<SimplePredicate field="standardScaler(credit.amount)" operator="greaterThan" value="-0.6200123258757949"/>
										</Node>
									</Node>
								</Node>
							</TreeModel>
						</Segment>
						<Segment id="2">
							<True/>
							<TreeModel functionName="regression" noTrueChildStrategy="returnLastPrediction">
								<MiningSchema>
									<MiningField name="standardScaler(duration.in.month)"/>
									<MiningField name="standardScaler(credit.amount)"/>
									<MiningField name="standardScaler(installment.rate.in.percentage.of.disposable.income)"/>
									<MiningField name="standardScaler(present.residence.since)"/>
									<MiningField name="standardScaler(age.in.years)"/>
									<MiningField name="status.of.existing.checking.account=... &lt; 0 DM"/>
									<MiningField name="status.of.existing.checking.account=no checking account"/>
									<MiningField name="present.employment.since=... &lt; 1 year"/>
									<MiningField name="savings.account.and.bonds=unknown/ no savings account"/>
									<MiningField name="property=unknown / no property"/>
									<MiningField name="other.installment.plans=none"/>
									<MiningField name="credit.history=critical account/ other credits existing (not at this bank)"/>
									<MiningField name="other.debtors.or.guarantors=guarantor"/>
								</MiningSchema>
								<Node score="0.01319636757614254">
									<True/>
									<Node score="-0.057628184276648356">
										<SimplePredicate field="status.of.existing.checking.account=no checking account" operator="greaterThan" value="1.0000000180025095E-35"/>
										<Node score="-0.14131636856612498">
											<SimplePredicate field="other.installment.plans=none" operator="greaterThan" value="1.0000000180025095E-35"/>
											<Node score="-0.1286938394631698">
												<SimplePredicate field="standardScaler(age.in.years)" operator="greaterThan" value="-0.35111582030636906"/>
												<Node score="-0.14009901686986226">
													<SimplePredicate field="credit.history=critical account/ other credits existing (not at this bank)" operator="greaterThan" value="1.0000000180025095E-35"/>
													<Node score="-0.1400990168698622">
														<SimplePredicate field="standardScaler(credit.amount)" operator="greaterThan" value="-0.14392750533336499"/>
													</Node>
												</Node>
												<Node score="-0.06909073445310723">
													<SimplePredicate field="standardScaler(age.in.years)" operator="greaterThan" value="0.3539874816237533"/>
												</Node>
											</Node>
											<Node score="0.013619251323429933">
												<SimplePredicate field="standardScaler(duration.in.month)" operator="greaterThan" value="0.331255991260085"/>
											</Node>
											<Node score="-0.028207720300934665">
												<SimplePredicate field="standardScaler(present.residence.since)" operator="greaterThan" value="0.5880682951057027"/>
											</Node>
											<Node score="-0.07863955885996597">
												<SimplePredicate field="standardScaler(credit.amount)" operator="greaterThan" value="-0.6620507206256784"/>
											</Node>
										</Node>
										<Node score="0.041778147259901685">
											<SimplePredicate field="standardScaler(credit.amount)" operator="greaterThan" value="-0.3749635164795994"/>
										</Node>
									</Node>
									<Node score="-0.0073347196267502055">
										<SimplePredicate field="credit.history=critical account/ other credits existing (not at this bank)" operator="greaterThan" value="1.0000000180025095E-35"/>
										<Node score="-0.09999874436199642">
											<SimplePredicate field="standardScaler(age.in.years)" operator="greaterThan" value="-0.1748399948238385"/>
											<Node score="-0.03460506966163485">
												<SimplePredicate field="standardScaler(duration.in.month)" operator="greaterThan" value="-0.5465409571169711"/>
											</Node>
										</Node>
										<Node score="0.10414959209826558">
											<SimplePredicate field="standardScaler(credit.amount)" operator="greaterThan" value="-0.26653949002052496"/>
										</Node>
									</Node>
									<Node score="-0.10876988027388008">
										<SimplePredicate field="other.debtors.or.guarantors=guarantor" operator="greaterThan" value="1.0000000180025095E-35"/>
									</Node>
									<Node score="0.009885076355435979">
										<SimplePredicate field="status.of.existing.checking.account=... &lt; 0 DM" operator="greaterThan" value="1.0000000180025095E-35"/>
										<Node score="0.2395235879930281">
											<SimplePredicate field="standardScaler(duration.in.month)" operator="greaterThan" value="1.0000000180025095E-35"/>
											<Node score="0.11773679567717213">
												<SimplePredicate field="standardScaler(credit.amount)" operator="greaterThan" value="-0.28423064781110097"/>
												<Node score="0.19803428644747534">
													<SimplePredicate field="standardScaler(duration.in.month)" operator="greaterThan" value="0.8746541021601674"/>
												</Node>
											</Node>
										</Node>
										<Node score="0.16443741880458973">
											<SimplePredicate field="standardScaler(installment.rate.in.percentage.of.disposable.income)" operator="greaterThan" value="0.45652408955537876"/>
											<Node score="0.11248891259715701">
												<SimplePredicate field="standardScaler(credit.amount)" operator="greaterThan" value="-0.7392962709785892"/>
											</Node>
										</Node>
										<Node score="0.07192928668586056">
											<SimplePredicate field="standardScaler(duration.in.month)" operator="greaterThan" value="-0.713740375855458"/>
										</Node>
									</Node>
									<Node score="0.18023049029722826">
										<SimplePredicate field="standardScaler(credit.amount)" operator="greaterThan" value="2.1040756539166523"/>
									</Node>
									<Node score="-0.07676630428967063">
										<SimplePredicate field="savings.account.and.bonds=unknown/ no savings account" operator="greaterThan" value="1.0000000180025095E-35"/>
									</Node>
									<Node score="0.14358899630471922">
										<SimplePredicate field="property=unknown / no property" operator="greaterThan" value="1.0000000180025095E-35"/>
									</Node>
									<Node score="0.04543524252785813">
										<SimplePredicate field="standardScaler(age.in.years)" operator="greaterThan" value="-0.6155295585301649"/>
										<Node score="-0.06536654109301963">
											<SimplePredicate field="standardScaler(credit.amount)" operator="greaterThan" value="-0.40982035212637774"/>
										</Node>
									</Node>
									<Node score="0.13240716033401884">
										<SimplePredicate field="present.employment.since=... &lt; 1 year" operator="greaterThan" value="1.0000000180025095E-35"/>
									</Node>
								</Node>
							</TreeModel>
						</Segment>
						<Segment id="3">
							<True/>
							<TreeModel functionName="regression" noTrueChildStrategy="returnLastPrediction">
								<MiningSchema>
									<MiningField name="standardScaler(duration.in.month)"/>
									<MiningField name="standardScaler(credit.amount)"/>
									<MiningField name="standardScaler(present.residence.since)"/>
									<MiningField name="standardScaler(age.in.years)"/>
									<MiningField name="status.of.existing.checking.account=... &lt; 0 DM"/>
									<MiningField name="status.of.existing.checking.account=0 &lt;= ... &lt; 200 DM"/>
									<MiningField name="status.of.existing.checking.account=no checking account"/>
									<MiningField name="present.employment.since=1 &lt;= ... &lt; 4 years"/>
									<MiningField name="savings.account.and.bonds=... &lt; 100 DM"/>
									<MiningField name="property=real estate"/>
									<MiningField name="job=skilled employee / official"/>
									<MiningField name="personal.status.and.sex=male : single"/>
									<MiningField name="purpose=car (new)"/>
									<MiningField name="purpose=car (used)"/>
									<MiningField name="purpose=furniture/equipment"/>
									<MiningField name="telephone=none"/>
									<MiningField name="other.installment.plans=none"/>
									<MiningField name="credit.history=critical account/ other credits existing (not at this bank)"/>
									<MiningField name="credit.history=delay in paying off in the past"/>
									<MiningField name="credit.history=existing credits paid back duly till now"/>
								</MiningSchema>
								<Node score="-0.04455489159840919">
									<True/>
									<Node score="-0.05315688804575382">
										<SimplePredicate field="status.of.existing.checking.account=no checking account" operator="greaterThan" value="1.0000000180025095E-35"/>
										<Node score="-0.13905821991682638">
											<SimplePredicate field="other.installment.plans=none" operator="greaterThan" value="1.0000000180025095E-35"/>
											<Node score="-0.008672022610335164">
												<SimplePredicate field="credit.history=delay in paying off in the past" operator="greaterThan" value="1.0000000180025095E-35"/>
											</Node>
											<Node score="-0.04376057309838882">
												<SimplePredicate field="purpose=furniture/equipment" operator="greaterThan" value="1.0000000180025095E-35"/>
											</Node>
											<Node score="-0.13487132092294601">
												<SimplePredicate field="standardScaler(age.in.years)" operator="greaterThan" value="-0.35111582030636906"/>
												<Node score="-0.07646192487603075">
													<SimplePredicate field="standardScaler(credit.amount)" operator="greaterThan" value="0.460549579174334"/>
												</Node>
												<Node score="-0.13525678769024263">
													<SimplePredicate field="credit.history=existing credits paid back duly till now" operator="greaterThan" value="1.0000000180025095E-35"/>
													<Node score="-0.13928181837609058">
														<SimplePredicate field="standardScaler(age.in.years)" operator="greaterThan" value="0.3539874816237533"/>
													</Node>
												</Node>
											</Node>
											<Node score="-0.03279881371709">
												<SimplePredicate field="standardScaler(present.residence.since)" operator="greaterThan" value="0.5880682951057027"/>
											</Node>
											<Node score="-0.08520108171269564">
												<SimplePredicate field="present.employment.since=1 &lt;= ... &lt; 4 years" operator="greaterThan" value="1.0000000180025095E-35"/>
											</Node>
										</Node>
										<Node score="0.037046835137278425">
											<SimplePredicate field="standardScaler(credit.amount)" operator="greaterThan" value="-0.3749635164795994"/>
										</Node>
									</Node>
									<Node score="-0.09274706981375028">
										<SimplePredicate field="standardScaler(duration.in.month)" operator="greaterThan" value="-0.4629412477477277"/>
										<Node score="0.1112865568414782">
											<SimplePredicate field="savings.account.and.bonds=... &lt; 100 DM" operator="greaterThan" value="1.0000000180025095E-35"/>
											<Node score="0.21097819602135648">
												<SimplePredicate field="standardScaler(duration.in.month)" operator="greaterThan" value="1.8778506145910885"/>
											</Node>
											<Node score="-0.030621020200415766">
												<SimplePredicate field="purpose=car (used)" operator="greaterThan" value="1.0000000180025095E-35"/>
											</Node>
											<Node score="0.2187271148327982">
												<SimplePredicate field="status.of.existing.checking.account=... &lt; 0 DM" operator="greaterThan" value="1.0000000180025095E-35"/>
												<Node score="0.0485829471183441">
													<SimplePredicate field="standardScaler(age.in.years)" operator="greaterThan" value="-1.0000000180025095E-35"/>
												</Node>
												<Node score="0.10350922533704084">
													<SimplePredicate field="standardScaler(credit.amount)" operator="greaterThan" value="0.08115306655663591"/>
												</Node>
											</Node>
											<Node score="0.013964608204531824">
												<SimplePredicate field="job=skilled employee / official" operator="greaterThan" value="1.0000000180025095E-35"/>
											</Node>
										</Node>
										<Node score="-0.005713739533875609">
											<SimplePredicate field="telephone=none" operator="greaterThan" value="1.0000000180025095E-35"/>
											<Node score="0.10201006457859592">
												<SimplePredicate field="credit.history=existing credits paid back duly till now" operator="greaterThan" value="1.0000000180025095E-35"/>
											</Node>
										</Node>
										<Node score="-0.038778278434594526">
											<SimplePredicate field="standardScaler(credit.amount)" operator="greaterThan" value="0.3698167105058356"/>
										</Node>
									</Node>
									<Node score="-0.07099134326859195">
										<SimplePredicate field="property=real estate" operator="greaterThan" value="1.0000000180025095E-35"/>
										<Node score="0.04695967959170562">
											<SimplePredicate field="standardScaler(duration.in.month)" operator="greaterThan" value="-0.7973400852247013"/>
											<Node score="-0.06217026169562251">
												<SimplePredicate field="status.of.existing.checking.account=0 &lt;= ... &lt; 200 DM" operator="greaterThan" value="1.0000000180025095E-35"/>
											</Node>
										</Node>
										<Node score="-0.14357293491092382">
											<SimplePredicate field="personal.status.and.sex=male : single" operator="greaterThan" value="1.0000000180025095E-35"/>
										</Node>
									</Node>
									<Node score="-0.06795764383101059">
										<SimplePredicate field="credit.history=critical account/ other credits existing (not at this bank)" operator="greaterThan" value="1.0000000180025095E-35"/>
									</Node>
									<Node score="0.15467367983175126">
										<SimplePredicate field="purpose=car (new)" operator="greaterThan" value="1.0000000180025095E-35"/>
									</Node>
									<Node score="0.09034560883517435">
										<SimplePredicate field="job=skilled employee / official" operator="greaterThan" value="1.0000000180025095E-35"/>
										<Node score="0.0950671075488325">
											<SimplePredicate field="standardScaler(credit.amount)" operator="greaterThan" value="-0.701111395747445"/>
										</Node>
									</Node>
								</Node>
							</TreeModel>
						</Segment>
						<Segment id="4">
							<True/>
							<TreeModel functionName="regression" noTrueChildStrategy="returnLastPrediction">
								<MiningSchema>
									<MiningField name="standardScaler(duration.in.month)"/>
									<MiningField name="standardScaler(credit.amount)"/>
									<MiningField name="standardScaler(installment.rate.in.percentage.of.disposable.income)"/>
									<MiningField name="standardScaler(age.in.years)"/>
									<MiningField name="status.of.existing.checking.account=... &lt; 0 DM"/>
									<MiningField name="status.of.existing.checking.account=no checking account"/>
									<MiningField name="present.employment.since=... &lt; 1 year"/>
									<MiningField name="savings.account.and.bonds=... &lt; 100 DM"/>
									<MiningField name="property=building society savings agreement/ life insurance"/>
									<MiningField name="job=skilled employee / official"/>
									<MiningField name="purpose=car (new)"/>
									<MiningField name="other.installment.plans=none"/>
									<MiningField name="credit.history=critical account/ other credits existing (not at this bank)"/>
									<MiningField name="credit.history=existing credits paid back duly till now"/>
								</MiningSchema>
								<Node score="0.05224682990826668">
									<True/>
									<Node score="-0.0490020026485753">
										<SimplePredicate field="status.of.existing.checking.account=no checking account" operator="greaterThan" value="1.0000000180025095E-35"/>
										<Node score="-0.11710470540074475">
											<SimplePredicate field="other.installment.plans=none" operator="greaterThan" value="1.0000000180025095E-35"/>
											<Node score="-0.012592388118639806">
												<SimplePredicate field="present.employment.since=... &lt; 1 year" operator="greaterThan" value="1.0000000180025095E-35"/>
											</Node>
											<Node score="-0.10526874865722557">
												<SimplePredicate field="standardScaler(age.in.years)" operator="greaterThan" value="-0.35111582030636906"/>
												<Node score="-0.08250608567333806">
													<SimplePredicate field="standardScaler(age.in.years)" operator="greaterThan" value="1.4997803472602023"/>
												</Node>
												<Node score="-0.13455720412650754">
													<SimplePredicate field="job=skilled employee / official" operator="greaterThan" value="1.0000000180025095E-35"/>
													<Node score="-0.13059712571807544">
														<SimplePredicate field="credit.history=critical account/ other credits existing (not at this bank)" operator="greaterThan" value="1.0000000180025095E-35"/>
														<Node score="-0.13179421535331556">
															<SimplePredicate field="standardScaler(credit.amount)" operator="greaterThan" value="-0.18368882036762976"/>
														</Node>
													</Node>
												</Node>
											</Node>
											<Node score="-0.019561707042119795">
												<SimplePredicate field="standardScaler(installment.rate.in.percentage.of.disposable.income)" operator="greaterThan" value="0.45652408955537876"/>
											</Node>
											<Node score="-0.06802214276220508">
												<SimplePredicate field="standardScaler(duration.in.month)" operator="greaterThan" value="-0.4629412477477277"/>
											</Node>
										</Node>
										<Node score="0.032929238480282945">
											<SimplePredicate field="standardScaler(credit.amount)" operator="greaterThan" value="-0.3749635164795994"/>
										</Node>
									</Node>
									<Node score="0.04603824908034526">
										<SimplePredicate field="standardScaler(credit.amount)" operator="greaterThan" value="1.2210942041909754"/>
										<Node score="0.17699451242732248">
											<SimplePredicate field="credit.history=existing credits paid back duly till now" operator="greaterThan" value="1.0000000180025095E-35"/>
										</Node>
									</Node>
									<Node score="-0.09127878555021379">
										<SimplePredicate field="standardScaler(age.in.years)" operator="greaterThan" value="-0.08670208208257321"/>
										<Node score="-0.0221598597428161">
											<SimplePredicate field="credit.history=critical account/ other credits existing (not at this bank)" operator="greaterThan" value="1.0000000180025095E-35"/>
											<Node score="-0.11858651667627639">
												<SimplePredicate field="standardScaler(credit.amount)" operator="greaterThan" value="-0.6716845194225266"/>
												<Node score="-0.07410362744553611">
													<SimplePredicate field="standardScaler(age.in.years)" operator="greaterThan" value="0.7065391325888145"/>
												</Node>
											</Node>
										</Node>
										<Node score="-0.0022723494556158943">
											<SimplePredicate field="savings.account.and.bonds=... &lt; 100 DM" operator="greaterThan" value="1.0000000180025095E-35"/>
											<Node score="0.11780239052138196">
												<SimplePredicate field="standardScaler(installment.rate.in.percentage.of.disposable.income)" operator="greaterThan" value="0.45652408955537876"/>
											</Node>
										</Node>
										<Node score="-0.012393162359644817">
											<SimplePredicate field="standardScaler(age.in.years)" operator="greaterThan" value="0.7065391325888145"/>
										</Node>
									</Node>
									<Node score="0.02157844503594923">
										<SimplePredicate field="status.of.existing.checking.account=... &lt; 0 DM" operator="greaterThan" value="1.0000000180025095E-35"/>
										<Node score="0.1287279778707547">
											<SimplePredicate field="standardScaler(installment.rate.in.percentage.of.disposable.income)" operator="greaterThan" value="1.0000000180025095E-35"/>
											<Node score="0.061421613988026647">
												<SimplePredicate field="property=building society savings agreement/ life insurance" operator="greaterThan" value="1.0000000180025095E-35"/>
											</Node>
											<Node score="0.174672420594682">
												<SimplePredicate field="standardScaler(age.in.years)" operator="greaterThan" value="-0.7036674712714303"/>
											</Node>
										</Node>
									</Node>
									<Node score="0.08142515825786226">
										<SimplePredicate field="purpose=car (new)" operator="greaterThan" value="1.0000000180025095E-35"/>
									</Node>
									<Node score="0.045766386685037824">
										<SimplePredicate field="job=skilled employee / official" operator="greaterThan" value="1.0000000180025095E-35"/>
										<Node score="-0.0752910061665086">
											<SimplePredicate field="standardScaler(duration.in.month)" operator="greaterThan" value="-0.713740375855458"/>
											<Node score="-0.010012070035137311">
												<SimplePredicate field="standardScaler(credit.amount)" operator="greaterThan" value="-0.07649091375542698"/>
											</Node>
										</Node>
									</Node>
								</Node>
							</TreeModel>
						</Segment>
						<Segment id="5">
							<True/>
							<TreeModel functionName="regression" noTrueChildStrategy="returnLastPrediction">
								<MiningSchema>
									<MiningField name="standardScaler(duration.in.month)"/>
									<MiningField name="standardScaler(credit.amount)"/>
									<MiningField name="standardScaler(age.in.years)"/>
									<MiningField name="standardScaler(number.of.existing.credits.at.this.bank)"/>
									<MiningField name="status.of.existing.checking.account=... &lt; 0 DM"/>
									<MiningField name="status.of.existing.checking.account=... &gt;= 200 DM / salary assignments for at least 1 year"/>
									<MiningField name="status.of.existing.checking.account=no checking account"/>
									<MiningField name="present.employment.since=1 &lt;= ... &lt; 4 years"/>
									<MiningField name="savings.account.and.bonds=unknown/ no savings account"/>
									<MiningField name="property=real estate"/>
									<MiningField name="job=skilled employee / official"/>
									<MiningField name="purpose=furniture/equipment"/>
									<MiningField name="housing=own"/>
									<MiningField name="other.installment.plans=none"/>
									<MiningField name="credit.history=critical account/ other credits existing (not at this bank)"/>
									<MiningField name="credit.history=delay in paying off in the past"/>
									<MiningField name="other.debtors.or.guarantors=guarantor"/>
								</MiningSchema>
								<Node score="0.16558492406477335">
									<True/>
									<Node score="-0.045135508948660676">
										<SimplePredicate field="status.of.existing.checking.account=no checking account" operator="greaterThan" value="1.0000000180025095E-35"/>
										<Node score="-0.036288009662771695">
											<SimplePredicate field="other.installment.plans=none" operator="greaterThan" value="1.0000000180025095E-35"/>
											<Node score="0.016266512422537106">
												<SimplePredicate field="standardScaler(credit.amount)" operator="greaterThan" value="1.2210942041909754"/>
											</Node>
											<Node score="-0.13482613107677163">
												<SimplePredicate field="credit.history=critical account/ other credits existing (not at this bank)" operator="greaterThan" value="1.0000000180025095E-35"/>
												<Node score="-0.11059038330130387">
													<SimplePredicate field="property=real estate" operator="greaterThan" value="1.0000000180025095E-35"/>
												</Node>
												<Node score="-0.12733369290260163">
													<SimplePredicate field="standardScaler(age.in.years)" operator="greaterThan" value="-0.2629779075651038"/>
													<Node score="-0.12852640294396972">
														<SimplePredicate field="standardScaler(credit.amount)" operator="greaterThan" value="-0.18368882036762976"/>
													</Node>
												</Node>
											</Node>
											<Node score="-0.015819672858757027">
												<SimplePredicate field="purpose=furniture/equipment" operator="greaterThan" value="1.0000000180025095E-35"/>
											</Node>
											<Node score="-0.02793065342526754">
												<SimplePredicate field="standardScaler(number.of.existing.credits.at.this.bank)" operator="greaterThan" value="1.0000000180025095E-35"/>
											</Node>
											<Node score="-0.1307206372570476">
												<SimplePredicate field="standardScaler(age.in.years)" operator="greaterThan" value="-0.7036674712714303"/>
												<Node score="-0.08957135386252814">
													<SimplePredicate field="present.employment.since=1 &lt;= ... &lt; 4 years" operator="greaterThan" value="1.0000000180025095E-35"/>
												</Node>
											</Node>
										</Node>
										<Node score="0.029326006814561895">
											<SimplePredicate field="standardScaler(credit.amount)" operator="greaterThan" value="-0.3749635164795994"/>
										</Node>
									</Node>
									<Node score="-0.07385460994380873">
										<SimplePredicate field="other.debtors.or.guarantors=guarantor" operator="greaterThan" value="1.0000000180025095E-35"/>
									</Node>
									<Node score="0.036689710879542765">
										<SimplePredicate field="credit.history=critical account/ other credits existing (not at this bank)" operator="greaterThan" value="1.0000000180025095E-35"/>
										<Node score="-0.0178683100602305">
											<SimplePredicate field="standardScaler(age.in.years)" operator="greaterThan" value="-0.1748399948238385"/>
											<Node score="-0.11528510733019721">
												<SimplePredicate field="standardScaler(credit.amount)" operator="greaterThan" value="-0.6133562467070633"/>
												<Node score="-0.042858122150102956">
													<SimplePredicate field="standardScaler(credit.amount)" operator="greaterThan" value="0.02772927322865903"/>
												</Node>
											</Node>
										</Node>
									</Node>
									<Node score="0.10870186944045264">
										<SimplePredicate field="status.of.existing.checking.account=... &lt; 0 DM" operator="greaterThan" value="1.0000000180025095E-35"/>
										<Node score="0.08880745096875331">
											<SimplePredicate field="standardScaler(duration.in.month)" operator="greaterThan" value="1.0000000180025095E-35"/>
											<Node score="0.11004654285111598">
												<SimplePredicate field="job=skilled employee / official" operator="greaterThan" value="1.0000000180025095E-35"/>
												<Node score="0.18794147975569767">
													<SimplePredicate field="standardScaler(duration.in.month)" operator="greaterThan" value="0.331255991260085"/>
												</Node>
											</Node>
										</Node>
										<Node score="-0.01903231476466797">
											<SimplePredicate field="standardScaler(credit.amount)" operator="greaterThan" value="-0.5865567700540126"/>
											<Node score="0.06692717840334124">
												<SimplePredicate field="standardScaler(credit.amount)" operator="greaterThan" value="-0.22555205513938867"/>
											</Node>
										</Node>
										<Node score="0.0844935775337832">
											<SimplePredicate field="standardScaler(age.in.years)" operator="greaterThan" value="-0.7036674712714303"/>
										</Node>
									</Node>
									<Node score="-0.055868008633310144">
										<SimplePredicate field="savings.account.and.bonds=unknown/ no savings account" operator="greaterThan" value="1.0000000180025095E-35"/>
									</Node>
									<Node score="-0.02671287862757836">
										<SimplePredicate field="status.of.existing.checking.account=... &gt;= 200 DM / salary assignments for at least 1 year" operator="greaterThan" value="1.0000000180025095E-35"/>
									</Node>
									<Node score="-0.013474676539295533">
										<SimplePredicate field="property=real estate" operator="greaterThan" value="1.0000000180025095E-35"/>
									</Node>
									<Node score="-0.008171500538881153">
										<SimplePredicate field="credit.history=delay in paying off in the past" operator="greaterThan" value="1.0000000180025095E-35"/>
									</Node>
									<Node score="0.1184878379085933">
										<SimplePredicate field="housing=own" operator="greaterThan" value="1.0000000180025095E-35"/>
										<Node score="7.423560446543006E-4">
											<SimplePredicate field="standardScaler(age.in.years)" operator="greaterThan" value="-0.5273916457888995"/>
										</Node>
									</Node>
								</Node>
							</TreeModel>
						</Segment>
						<Segment id="6">
							<True/>
							<TreeModel functionName="regression" noTrueChildStrategy="returnLastPrediction">
								<MiningSchema>
									<MiningField name="standardScaler(duration.in.month)"/>
									<MiningField name="standardScaler(credit.amount)"/>
									<MiningField name="standardScaler(present.residence.since)"/>
									<MiningField name="standardScaler(age.in.years)"/>
									<MiningField name="standardScaler(number.of.existing.credits.at.this.bank)"/>
									<MiningField name="status.of.existing.checking.account=... &lt; 0 DM"/>
									<MiningField name="status.of.existing.checking.account=no checking account"/>
									<MiningField name="present.employment.since=4 &lt;= ... &lt; 7 years"/>
									<MiningField name="savings.account.and.bonds=... &lt; 100 DM"/>
									<MiningField name="savings.account.and.bonds=unknown/ no savings account"/>
									<MiningField name="property=unknown / no property"/>
									<MiningField name="purpose=car (new)"/>
									<MiningField name="purpose=car (used)"/>
									<MiningField name="purpose=radio/television"/>
									<MiningField name="telephone=none"/>
									<MiningField name="other.installment.plans=none"/>
									<MiningField name="credit.history=critical account/ other credits existing (not at this bank)"/>
									<MiningField name="credit.history=existing credits paid back duly till now"/>
								</MiningSchema>
								<Node score="-0.0010361523600096161">
									<True/>
									<Node score="0.030274788153325308">
										<SimplePredicate field="status.of.existing.checking.account=no checking account" operator="greaterThan" value="1.0000000180025095E-35"/>
										<Node score="-0.022527539427459196">
											<SimplePredicate field="other.installment.plans=none" operator="greaterThan" value="1.0000000180025095E-35"/>
											<Node score="-0.08083065322614144">
												<SimplePredicate field="standardScaler(age.in.years)" operator="greaterThan" value="-0.35111582030636906"/>
												<Node score="-0.1242158196093167">
													<SimplePredicate field="credit.history=critical account/ other credits existing (not at this bank)" operator="greaterThan" value="1.0000000180025095E-35"/>
													<Node score="-0.12666592336585789">
														<SimplePredicate field="standardScaler(credit.amount)" operator="greaterThan" value="0.16943369553139118"/>
													</Node>
												</Node>
												<Node score="-0.01977768867561383">
													<SimplePredicate field="standardScaler(number.of.existing.credits.at.this.bank)" operator="greaterThan" value="1.0000000180025095E-35"/>
												</Node>
												<Node score="-0.12876312570034928">
													<SimplePredicate field="standardScaler(duration.in.month)" operator="greaterThan" value="1.0000000180025095E-35"/>
												</Node>
											</Node>
											<Node score="-0.11211351539456738">
												<SimplePredicate field="present.employment.since=4 &lt;= ... &lt; 7 years" operator="greaterThan" value="1.0000000180025095E-35"/>
											</Node>
											<Node score="0.06059288588237097">
												<SimplePredicate field="standardScaler(credit.amount)" operator="greaterThan" value="1.0000000180025095E-35"/>
											</Node>
											<Node score="-0.1067654792164366">
												<SimplePredicate field="purpose=radio/television" operator="greaterThan" value="1.0000000180025095E-35"/>
											</Node>
										</Node>
										<Node score="-0.03980700183588495">
											<SimplePredicate field="standardScaler(present.residence.since)" operator="greaterThan" value="1.0000000180025095E-35"/>
										</Node>
									</Node>
									<Node score="-0.0928150091924459">
										<SimplePredicate field="standardScaler(duration.in.month)" operator="greaterThan" value="-0.4629412477477277"/>
										<Node score="0.011181640068194165">
											<SimplePredicate field="savings.account.and.bonds=... &lt; 100 DM" operator="greaterThan" value="1.0000000180025095E-35"/>
											<Node score="-0.022962573090232648">
												<SimplePredicate field="purpose=car (used)" operator="greaterThan" value="1.0000000180025095E-35"/>
											</Node>
											<Node score="0.17374966076721654">
												<SimplePredicate field="standardScaler(duration.in.month)" operator="greaterThan" value="1.8778506145910885"/>
											</Node>
											<Node score="0.1693544954505315">
												<SimplePredicate field="status.of.existing.checking.account=... &lt; 0 DM" operator="greaterThan" value="1.0000000180025095E-35"/>
												<Node score="0.03841488106392349">
													<SimplePredicate field="standardScaler(age.in.years)" operator="greaterThan" value="-1.0000000180025095E-35"/>
												</Node>
												<Node score="0.07230905034620937">
													<SimplePredicate field="standardScaler(credit.amount)" operator="greaterThan" value="0.08115306655663591"/>
												</Node>
											</Node>
											<Node score="0.08950028737108445">
												<SimplePredicate field="standardScaler(age.in.years)" operator="greaterThan" value="-0.1748399948238385"/>
											</Node>
										</Node>
										<Node score="-0.007279957715149752">
											<SimplePredicate field="telephone=none" operator="greaterThan" value="1.0000000180025095E-35"/>
											<Node score="0.07679344791624197">
												<SimplePredicate field="credit.history=existing credits paid back duly till now" operator="greaterThan" value="1.0000000180025095E-35"/>
											</Node>
										</Node>
										<Node score="-0.03518195160221505">
											<SimplePredicate field="savings.account.and.bonds=unknown/ no savings account" operator="greaterThan" value="1.0000000180025095E-35"/>
										</Node>
									</Node>
									<Node score="0.12625028347537406">
										<SimplePredicate field="property=unknown / no property" operator="greaterThan" value="1.0000000180025095E-35"/>
									</Node>
									<Node score="0.03260392294277208">
										<SimplePredicate field="standardScaler(age.in.years)" operator="greaterThan" value="-0.8799432967539608"/>
										<Node score="-0.14637398179539737">
											<SimplePredicate field="standardScaler(credit.amount)" operator="greaterThan" value="-0.7911436245034454"/>
											<Node score="-0.001951622848790126">
												<SimplePredicate field="standardScaler(number.of.existing.credits.at.this.bank)" operator="greaterThan" value="-1.0000000180025095E-35"/>
												<Node score="-0.04453407276865546">
													<SimplePredicate field="standardScaler(credit.amount)" operator="greaterThan" value="-0.5278781773823004"/>
												</Node>
											</Node>
											<Node score="-0.02353412650740023">
												<SimplePredicate field="purpose=car (new)" operator="greaterThan" value="1.0000000180025095E-35"/>
											</Node>
											<Node score="-0.1159399567418835">
												<SimplePredicate field="standardScaler(credit.amount)" operator="greaterThan" value="-0.4924958618011485"/>
											</Node>
										</Node>
									</Node>
									<Node score="0.08570715327396636">
										<SimplePredicate field="standardScaler(credit.amount)" operator="greaterThan" value="-0.7182770736036473"/>
									</Node>
								</Node>
							</TreeModel>
						</Segment>
						<Segment id="7">
							<True/>
							<TreeModel functionName="regression" noTrueChildStrategy="returnLastPrediction">
								<MiningSchema>
									<MiningField name="standardScaler(duration.in.month)"/>
									<MiningField name="standardScaler(credit.amount)"/>
									<MiningField name="standardScaler(installment.rate.in.percentage.of.disposable.income)"/>
									<MiningField name="standardScaler(age.in.years)"/>
									<MiningField name="status.of.existing.checking.account=... &lt; 0 DM"/>
									<MiningField name="status.of.existing.checking.account=... &gt;= 200 DM / salary assignments for at least 1 year"/>
									<MiningField name="status.of.existing.checking.account=no checking account"/>
									<MiningField name="present.employment.since=... &lt; 1 year"/>
									<MiningField name="savings.account.and.bonds=... &lt; 100 DM"/>
									<MiningField name="job=management/ self-employed/ highly qualified employee/ officer"/>
									<MiningField name="job=skilled employee / official"/>
									<MiningField name="job=unskilled - resident"/>
									<MiningField name="personal.status.and.sex=male : single"/>
									<MiningField name="telephone=none"/>
									<MiningField name="other.installment.plans=none"/>
									<MiningField name="credit.history=critical account/ other credits existing (not at this bank)"/>
									<MiningField name="other.debtors.or.guarantors=guarantor"/>
								</MiningSchema>
								<Node score="3.087459463026279E-4">
									<True/>
									<Node score="-0.031225777494333692">
										<SimplePredicate field="status.of.existing.checking.account=no checking account" operator="greaterThan" value="1.0000000180025095E-35"/>
										<Node score="0.02955857938299322">
											<SimplePredicate field="other.installment.plans=none" operator="greaterThan" value="1.0000000180025095E-35"/>
											<Node score="-7.776347139228857E-4">
												<SimplePredicate field="present.employment.since=... &lt; 1 year" operator="greaterThan" value="1.0000000180025095E-35"/>
											</Node>
											<Node score="-0.09207300071714535">
												<SimplePredicate field="standardScaler(age.in.years)" operator="greaterThan" value="-0.35111582030636906"/>
												<Node score="-0.06610754650396208">
													<SimplePredicate field="standardScaler(age.in.years)" operator="greaterThan" value="1.4997803472602023"/>
												</Node>
												<Node score="-0.12662522737768073">
													<SimplePredicate field="job=skilled employee / official" operator="greaterThan" value="1.0000000180025095E-35"/>
													<Node score="-0.12097628893031515">
														<SimplePredicate field="credit.history=critical account/ other credits existing (not at this bank)" operator="greaterThan" value="1.0000000180025095E-35"/>
														<Node score="-0.12210667837569539">
															<SimplePredicate field="standardScaler(credit.amount)" operator="greaterThan" value="-0.18368882036762976"/>
														</Node>
													</Node>
												</Node>
											</Node>
											<Node score="-0.11146815861621272">
												<SimplePredicate field="job=skilled employee / official" operator="greaterThan" value="1.0000000180025095E-35"/>
												<Node score="-0.03667473016337037">
													<SimplePredicate field="standardScaler(duration.in.month)" operator="greaterThan" value="-0.4629412477477277"/>
												</Node>
											</Node>
										</Node>
										<Node score="0.03378243558233097">
											<SimplePredicate field="standardScaler(age.in.years)" operator="greaterThan" value="-0.2629779075651038"/>
										</Node>
									</Node>
									<Node score="-0.0701462801166615">
										<SimplePredicate field="other.debtors.or.guarantors=guarantor" operator="greaterThan" value="1.0000000180025095E-35"/>
									</Node>
									<Node score="-0.013263174396853886">
										<SimplePredicate field="credit.history=critical account/ other credits existing (not at this bank)" operator="greaterThan" value="1.0000000180025095E-35"/>
										<Node score="-0.09551686310486125">
											<SimplePredicate field="standardScaler(age.in.years)" operator="greaterThan" value="-0.08670208208257321"/>
											<Node score="-0.023787649443169922">
												<SimplePredicate field="standardScaler(duration.in.month)" operator="greaterThan" value="-0.5465409571169711"/>
											</Node>
										</Node>
										<Node score="0.061409345703270946">
											<SimplePredicate field="standardScaler(credit.amount)" operator="greaterThan" value="-0.26653949002052496"/>
										</Node>
									</Node>
									<Node score="0.015483954668516">
										<SimplePredicate field="status.of.existing.checking.account=... &gt;= 200 DM / salary assignments for at least 1 year" operator="greaterThan" value="1.0000000180025095E-35"/>
										<Node score="-0.0838501733721514">
											<SimplePredicate field="job=skilled employee / official" operator="greaterThan" value="1.0000000180025095E-35"/>
										</Node>
									</Node>
									<Node score="0.041331623708095164">
										<SimplePredicate field="savings.account.and.bonds=... &lt; 100 DM" operator="greaterThan" value="1.0000000180025095E-35"/>
										<Node score="0.16254339716552213">
											<SimplePredicate field="standardScaler(credit.amount)" operator="greaterThan" value="1.6903477855865494"/>
										</Node>
										<Node score="-0.02304940449479373">
											<SimplePredicate field="job=management/ self-employed/ highly qualified employee/ officer" operator="greaterThan" value="1.0000000180025095E-35"/>
										</Node>
										<Node score="0.049197960593012915">
											<SimplePredicate field="standardScaler(duration.in.month)" operator="greaterThan" value="-0.4629412477477277"/>
											<Node score="0.08863325533075576">
												<SimplePredicate field="status.of.existing.checking.account=... &lt; 0 DM" operator="greaterThan" value="1.0000000180025095E-35"/>
												<Node score="0.1754864905259727">
													<SimplePredicate field="personal.status.and.sex=male : single" operator="greaterThan" value="1.0000000180025095E-35"/>
												</Node>
											</Node>
										</Node>
										<Node score="-0.02658989849313234">
											<SimplePredicate field="job=unskilled - resident" operator="greaterThan" value="1.0000000180025095E-35"/>
										</Node>
										<Node score="0.12681556238328376">
											<SimplePredicate field="standardScaler(age.in.years)" operator="greaterThan" value="-0.7036674712714303"/>
										</Node>
									</Node>
									<Node score="0.09480353716442189">
										<SimplePredicate field="present.employment.since=... &lt; 1 year" operator="greaterThan" value="1.0000000180025095E-35"/>
									</Node>
									<Node score="0.0937669516131986">
										<SimplePredicate field="telephone=none" operator="greaterThan" value="1.0000000180025095E-35"/>
										<Node score="-0.004591511948713464">
											<SimplePredicate field="standardScaler(credit.amount)" operator="greaterThan" value="-0.560107613357211"/>
										</Node>
									</Node>
									<Node score="-0.07493570262400441">
										<SimplePredicate field="standardScaler(installment.rate.in.percentage.of.disposable.income)" operator="greaterThan" value="1.0000000180025095E-35"/>
									</Node>
								</Node>
							</TreeModel>
						</Segment>
						<Segment id="8">
							<True/>
							<TreeModel functionName="regression" noTrueChildStrategy="returnLastPrediction">
								<MiningSchema>
									<MiningField name="standardScaler(duration.in.month)"/>
									<MiningField name="standardScaler(credit.amount)"/>
									<MiningField name="standardScaler(installment.rate.in.percentage.of.disposable.income)"/>
									<MiningField name="standardScaler(present.residence.since)"/>
									<MiningField name="standardScaler(age.in.years)"/>
									<MiningField name="standardScaler(number.of.existing.credits.at.this.bank)"/>
									<MiningField name="status.of.existing.checking.account=... &lt; 0 DM"/>
									<MiningField name="status.of.existing.checking.account=no checking account"/>
									<MiningField name="present.employment.since=... &gt;= 7 years"/>
									<MiningField name="present.employment.since=4 &lt;= ... &lt; 7 years"/>
									<MiningField name="savings.account.and.bonds=... &lt; 100 DM"/>
									<MiningField name="savings.account.and.bonds=100 &lt;= ... &lt; 500 DM"/>
									<MiningField name="property=real estate"/>
									<MiningField name="property=unknown / no property"/>
									<MiningField name="personal.status.and.sex=male : single"/>
									<MiningField name="purpose=car (used)"/>
									<MiningField name="purpose=radio/television"/>
									<MiningField name="telephone=yes, registered under the customers name"/>
									<MiningField name="other.installment.plans=none"/>
									<MiningField name="credit.history=critical account/ other credits existing (not at this bank)"/>
								</MiningSchema>
								<Node score="0.020011032820105946">
									<True/>
									<Node score="0.01922537999271974">
										<SimplePredicate field="status.of.existing.checking.account=no checking account" operator="greaterThan" value="1.0000000180025095E-35"/>
										<Node score="-0.0844229144562493">
											<SimplePredicate field="present.employment.since=4 &lt;= ... &lt; 7 years" operator="greaterThan" value="1.0000000180025095E-35"/>
											<Node score="-0.1329738623482702">
												<SimplePredicate field="standardScaler(duration.in.month)" operator="greaterThan" value="-0.04494270090151057"/>
											</Node>
										</Node>
										<Node score="0.07715714786250599">
											<SimplePredicate field="standardScaler(credit.amount)" operator="greaterThan" value="1.2210942041909754"/>
										</Node>
										<Node score="-0.08032868428500764">
											<SimplePredicate field="other.installment.plans=none" operator="greaterThan" value="1.0000000180025095E-35"/>
											<Node score="-0.12518175211842528">
												<SimplePredicate field="credit.history=critical account/ other credits existing (not at this bank)" operator="greaterThan" value="1.0000000180025095E-35"/>
												<Node score="-0.09526123633849704">
													<SimplePredicate field="property=real estate" operator="greaterThan" value="1.0000000180025095E-35"/>
												</Node>
												<Node score="-0.11992840849919345">
													<SimplePredicate field="standardScaler(age.in.years)" operator="greaterThan" value="-0.08670208208257321"/>
												</Node>
											</Node>
											<Node score="0.01044251564506204">
												<SimplePredicate field="standardScaler(number.of.existing.credits.at.this.bank)" operator="greaterThan" value="-1.0000000180025095E-35"/>
											</Node>
											<Node score="-0.12345011403215855">
												<SimplePredicate field="present.employment.since=... &gt;= 7 years" operator="greaterThan" value="1.0000000180025095E-35"/>
											</Node>
											<Node score="-0.096919235144001">
												<SimplePredicate field="purpose=radio/television" operator="greaterThan" value="1.0000000180025095E-35"/>
											</Node>
											<Node score="0.039888496683127966">
												<SimplePredicate field="standardScaler(installment.rate.in.percentage.of.disposable.income)" operator="greaterThan" value="-1.0000000180025095E-35"/>
											</Node>
										</Node>
									</Node>
									<Node score="-0.08189718914425347">
										<SimplePredicate field="standardScaler(duration.in.month)" operator="greaterThan" value="1.0000000180025095E-35"/>
										<Node score="-0.03322483186309473">
											<SimplePredicate field="purpose=car (used)" operator="greaterThan" value="1.0000000180025095E-35"/>
										</Node>
										<Node score="-0.023149421647870663">
											<SimplePredicate field="savings.account.and.bonds=... &lt; 100 DM" operator="greaterThan" value="1.0000000180025095E-35"/>
											<Node score="0.15199807108321903">
												<SimplePredicate field="standardScaler(duration.in.month)" operator="greaterThan" value="1.8778506145910885"/>
											</Node>
											<Node score="0.12146650442559218">
												<SimplePredicate field="telephone=yes, registered under the customers name" operator="greaterThan" value="1.0000000180025095E-35"/>
											</Node>
											<Node score="0.08445918592336504">
												<SimplePredicate field="standardScaler(installment.rate.in.percentage.of.disposable.income)" operator="greaterThan" value="1.0000000180025095E-35"/>
											</Node>
										</Node>
										<Node score="0.10123940820791666">
											<SimplePredicate field="status.of.existing.checking.account=... &lt; 0 DM" operator="greaterThan" value="1.0000000180025095E-35"/>
										</Node>
										<Node score="0.03654530217888794">
											<SimplePredicate field="savings.account.and.bonds=100 &lt;= ... &lt; 500 DM" operator="greaterThan" value="1.0000000180025095E-35"/>
										</Node>
									</Node>
									<Node score="0.09263454126244676">
										<SimplePredicate field="property=unknown / no property" operator="greaterThan" value="1.0000000180025095E-35"/>
									</Node>
									<Node score="-0.09974497443295553">
										<SimplePredicate field="standardScaler(age.in.years)" operator="greaterThan" value="-0.8799432967539608"/>
										<Node score="0.11028314950937373">
											<SimplePredicate field="standardScaler(duration.in.month)" operator="greaterThan" value="-1.0481392133324317"/>
											<Node score="-0.10405727905766671">
												<SimplePredicate field="standardScaler(credit.amount)" operator="greaterThan" value="-0.7911436245034454"/>
												<Node score="-0.07656527158055927">
													<SimplePredicate field="personal.status.and.sex=male : single" operator="greaterThan" value="1.0000000180025095E-35"/>
													<Node score="0.08710482271959155">
														<SimplePredicate field="standardScaler(age.in.years)" operator="greaterThan" value="-0.2629779075651038"/>
														<Node score="-0.02801204760467123">
															<SimplePredicate field="standardScaler(present.residence.since)" operator="greaterThan" value="0.5880682951057027"/>
														</Node>
													</Node>
												</Node>
												<Node score="-0.02879690399608169">
													<SimplePredicate field="standardScaler(number.of.existing.credits.at.this.bank)" operator="greaterThan" value="-1.0000000180025095E-35"/>
												</Node>
											</Node>
										</Node>
									</Node>
									<Node score="0.10423512300539749">
										<SimplePredicate field="standardScaler(age.in.years)" operator="greaterThan" value="-1.0562191222364914"/>
									</Node>
									<Node score="-0.023134712117091644">
										<SimplePredicate field="standardScaler(age.in.years)" operator="greaterThan" value="-1.1443570349777565"/>
									</Node>
								</Node>
							</TreeModel>
						</Segment>
						<Segment id="9">
							<True/>
							<TreeModel functionName="regression" noTrueChildStrategy="returnLastPrediction">
								<MiningSchema>
									<MiningField name="standardScaler(duration.in.month)"/>
									<MiningField name="standardScaler(credit.amount)"/>
									<MiningField name="standardScaler(installment.rate.in.percentage.of.disposable.income)"/>
									<MiningField name="standardScaler(present.residence.since)"/>
									<MiningField name="standardScaler(age.in.years)"/>
									<MiningField name="status.of.existing.checking.account=no checking account"/>
									<MiningField name="present.employment.since=1 &lt;= ... &lt; 4 years"/>
									<MiningField name="present.employment.since=4 &lt;= ... &lt; 7 years"/>
									<MiningField name="savings.account.and.bonds=... &lt; 100 DM"/>
									<MiningField name="property=car or other, not in attribute Savings account/bonds"/>
									<MiningField name="purpose=car (used)"/>
									<MiningField name="purpose=radio/television"/>
									<MiningField name="housing=own"/>
									<MiningField name="credit.history=critical account/ other credits existing (not at this bank)"/>
									<MiningField name="credit.history=existing credits paid back duly till now"/>
								</MiningSchema>
								<Node score="0.042219659748768124">
									<True/>
									<Node score="-0.09642744993656978">
										<SimplePredicate field="status.of.existing.checking.account=no checking account" operator="greaterThan" value="1.0000000180025095E-35"/>
										<Node score="-0.08006571753188933">
											<SimplePredicate field="present.employment.since=4 &lt;= ... &lt; 7 years" operator="greaterThan" value="1.0000000180025095E-35"/>
											<Node score="-0.12902545326342088">
												<SimplePredicate field="standardScaler(duration.in.month)" operator="greaterThan" value="-0.04494270090151057"/>
											</Node>
										</Node>
										<Node score="0.0826585364861515">
											<SimplePredicate field="standardScaler(credit.amount)" operator="greaterThan" value="0.21532560980001392"/>
											<Node score="-0.04865017964775687">
												<SimplePredicate field="credit.history=critical account/ other credits existing (not at this bank)" operator="greaterThan" value="1.0000000180025095E-35"/>
											</Node>
										</Node>
										<Node score="-0.1289217154129285">
											<SimplePredicate field="standardScaler(credit.amount)" operator="greaterThan" value="-0.23448521402373892"/>
											<Node score="-0.07291573313831759">
												<SimplePredicate field="property=car or other, not in attribute Savings account/bonds" operator="greaterThan" value="1.0000000180025095E-35"/>
											</Node>
										</Node>
										<Node score="-0.0711448687369208">
											<SimplePredicate field="purpose=radio/television" operator="greaterThan" value="1.0000000180025095E-35"/>
											<Node score="-0.12263076352497033">
												<SimplePredicate field="present.employment.since=1 &lt;= ... &lt; 4 years" operator="greaterThan" value="1.0000000180025095E-35"/>
											</Node>
										</Node>
										<Node score="-0.04533126420762693">
											<SimplePredicate field="standardScaler(credit.amount)" operator="greaterThan" value="-0.6133562467070633"/>
											<Node score="0.14255366808339">
												<SimplePredicate field="savings.account.and.bonds=... &lt; 100 DM" operator="greaterThan" value="1.0000000180025095E-35"/>
											</Node>
										</Node>
										<Node score="-0.030592447902399046">
											<SimplePredicate field="standardScaler(present.residence.since)" operator="greaterThan" value="0.5880682951057027"/>
										</Node>
									</Node>
									<Node score="0.023066158366851844">
										<SimplePredicate field="standardScaler(credit.amount)" operator="greaterThan" value="1.2210942041909754"/>
										<Node score="0.1287529748797763">
											<SimplePredicate field="credit.history=existing credits paid back duly till now" operator="greaterThan" value="1.0000000180025095E-35"/>
										</Node>
									</Node>
									<Node score="-0.08824521808847113">
										<SimplePredicate field="purpose=car (used)" operator="greaterThan" value="1.0000000180025095E-35"/>
									</Node>
									<Node score="-0.07403123750410863">
										<SimplePredicate field="standardScaler(age.in.years)" operator="greaterThan" value="-0.08670208208257321"/>
										<Node score="0.059972742792701685">
											<SimplePredicate field="standardScaler(duration.in.month)" operator="greaterThan" value="-0.7973400852247013"/>
											<Node score="-0.101289623690132">
												<SimplePredicate field="standardScaler(credit.amount)" operator="greaterThan" value="-0.6555698014350714"/>
												<Node score="0.06465365504907393">
													<SimplePredicate field="standardScaler(credit.amount)" operator="greaterThan" value="0.18151973402198265"/>
												</Node>
												<Node score="-0.01775322412107967">
													<SimplePredicate field="standardScaler(age.in.years)" operator="greaterThan" value="0.3539874816237533"/>
												</Node>
											</Node>
										</Node>
										<Node score="-0.10369986720156055">
											<SimplePredicate field="standardScaler(credit.amount)" operator="greaterThan" value="-0.6958565964037097"/>
										</Node>
									</Node>
									<Node score="0.04681082656259015">
										<SimplePredicate field="standardScaler(duration.in.month)" operator="greaterThan" value="0.331255991260085"/>
										<Node score="0.14735746978712672">
											<SimplePredicate field="standardScaler(present.residence.since)" operator="greaterThan" value="-1.0000000180025095E-35"/>
										</Node>
									</Node>
									<Node score="-0.06325550489497328">
										<SimplePredicate field="standardScaler(credit.amount)" operator="greaterThan" value="0.09814358443471381"/>
									</Node>
									<Node score="0.10571812655458737">
										<SimplePredicate field="housing=own" operator="greaterThan" value="1.0000000180025095E-35"/>
										<Node score="0.10393799918774067">
											<SimplePredicate field="standardScaler(credit.amount)" operator="greaterThan" value="-0.8014780632127917"/>
											<Node score="-0.08556019729308952">
												<SimplePredicate field="standardScaler(installment.rate.in.percentage.of.disposable.income)" operator="greaterThan" value="0.45652408955537876"/>
												<Node score="0.014487182501502122">
													<SimplePredicate field="standardScaler(age.in.years)" operator="greaterThan" value="-0.7036674712714303"/>
												</Node>
											</Node>
											<Node score="-0.009075309443988466">
												<SimplePredicate field="standardScaler(age.in.years)" operator="greaterThan" value="-0.7036674712714303"/>
											</Node>
										</Node>
									</Node>
									<Node score="0.12265056782275477">
										<SimplePredicate field="standardScaler(duration.in.month)" operator="greaterThan" value="-0.4629412477477277"/>
									</Node>
								</Node>
							</TreeModel>
						</Segment>
						<Segment id="10">
							<True/>
							<TreeModel functionName="regression" noTrueChildStrategy="returnLastPrediction">
								<MiningSchema>
									<MiningField name="standardScaler(duration.in.month)"/>
									<MiningField name="standardScaler(credit.amount)"/>
									<MiningField name="standardScaler(installment.rate.in.percentage.of.disposable.income)"/>
									<MiningField name="standardScaler(age.in.years)"/>
									<MiningField name="status.of.existing.checking.account=... &lt; 0 DM"/>
									<MiningField name="status.of.existing.checking.account=... &gt;= 200 DM / salary assignments for at least 1 year"/>
									<MiningField name="status.of.existing.checking.account=no checking account"/>
									<MiningField name="present.employment.since=4 &lt;= ... &lt; 7 years"/>
									<MiningField name="savings.account.and.bonds=unknown/ no savings account"/>
									<MiningField name="property=real estate"/>
									<MiningField name="property=unknown / no property"/>
									<MiningField name="job=skilled employee / official"/>
									<MiningField name="other.installment.plans=none"/>
									<MiningField name="credit.history=critical account/ other credits existing (not at this bank)"/>
									<MiningField name="other.debtors.or.guarantors=guarantor"/>
								</MiningSchema>
								<Node score="0.011584710400749073">
									<True/>
									<Node score="0.019796831106037402">
										<SimplePredicate field="status.of.existing.checking.account=no checking account" operator="greaterThan" value="1.0000000180025095E-35"/>
										<Node score="-0.07588698726849691">
											<SimplePredicate field="present.employment.since=4 &lt;= ... &lt; 7 years" operator="greaterThan" value="1.0000000180025095E-35"/>
											<Node score="-0.1256382415223678">
												<SimplePredicate field="standardScaler(duration.in.month)" operator="greaterThan" value="-0.04494270090151057"/>
											</Node>
										</Node>
										<Node score="0.06447738194768635">
											<SimplePredicate field="standardScaler(credit.amount)" operator="greaterThan" value="1.2210942041909754"/>
										</Node>
										<Node score="0.03599951727686356">
											<SimplePredicate field="other.installment.plans=none" operator="greaterThan" value="1.0000000180025095E-35"/>
											<Node score="-0.12138945660772638">
												<SimplePredicate field="credit.history=critical account/ other credits existing (not at this bank)" operator="greaterThan" value="1.0000000180025095E-35"/>
												<Node score="-0.08882004983114239">
													<SimplePredicate field="property=real estate" operator="greaterThan" value="1.0000000180025095E-35"/>
												</Node>
