<?xml version="1.0" encoding="UTF-8" standalone="yes"?>
<PMML xmlns="http://www.dmg.org/PMML-4_4" xmlns:data="http://jpmml.org/jpmml-model/InlineTable" version="4.4">
	<Header>
		<Application name="JPMML-SkLearn" version="1.6.32"/>
		<Timestamp>2022-06-17T07:54:15Z</Timestamp>
	</Header>
	<MiningBuildTask>
		<Extension name="repr">PMMLPipeline(steps=[('mapper', ColumnTransformer(transformers=[('num',
                                 Pipeline(steps=[('imputer',
                                                  SimpleImputer(fill_value=-99,
                                                                strategy='constant')),
                                                 ('scaler', StandardScaler())]),
                                 ['duration.in.month', 'credit.amount',
                                  'installment.rate.in.percentage.of.disposable.income',
                                  'present.residence.since', 'age.in.years',
                                  'number.of.existing.credits.at.this.bank',
                                  'number.of.people.being.liabl...
                                                  SimpleImputer(fill_value='missing',
                                                                strategy='constant')),
                                                 ('onehot',
                                                  OneHotEncoder(handle_unknown='ignore',
                                                                sparse=False))]),
                                 ['other.installment.plans', 'telephone',
                                  'property', 'other.debtors.or.guarantors',
                                  'savings.account.and.bonds', 'job',
                                  'foreign.worker', 'present.employment.since',
                                  'personal.status.and.sex',
                                  'status.of.existing.checking.account',
                                  'housing', 'purpose', 'credit.history'])])),
       ('classifier', LGBMClassifier())])</Extension>
	</MiningBuildTask>
	<DataDictionary>
		<DataField name="flag" optype="categorical" dataType="integer">
			<Value value="0"/>
			<Value value="1"/>
		</DataField>
		<DataField name="duration.in.month" optype="continuous" dataType="integer"/>
		<DataField name="credit.amount" optype="continuous" dataType="integer"/>
		<DataField name="installment.rate.in.percentage.of.disposable.income" optype="continuous" dataType="integer"/>
		<DataField name="present.residence.since" optype="continuous" dataType="integer"/>
		<DataField name="age.in.years" optype="continuous" dataType="integer"/>
		<DataField name="number.of.existing.credits.at.this.bank" optype="continuous" dataType="integer"/>
		<DataField name="number.of.people.being.liable.to.provide.maintenance.for" optype="continuous" dataType="integer"/>
		<DataField name="other.installment.plans" optype="categorical" dataType="string">
			<Value value="bank"/>
			<Value value="none"/>
			<Value value="stores"/>
		</DataField>
		<DataField name="telephone" optype="categorical" dataType="string">
			<Value value="none"/>
			<Value value="yes, registered under the customers name"/>
		</DataField>
		<DataField name="property" optype="categorical" dataType="string">
			<Value value="building society savings agreement/ life insurance"/>
			<Value value="car or other, not in attribute Savings account/bonds"/>
			<Value value="real estate"/>
			<Value value="unknown / no property"/>
		</DataField>
		<DataField name="other.debtors.or.guarantors" optype="categorical" dataType="string">
			<Value value="co-applicant"/>
			<Value value="guarantor"/>
			<Value value="none"/>
		</DataField>
		<DataField name="savings.account.and.bonds" optype="categorical" dataType="string">
			<Value value="... &lt; 100 DM"/>
			<Value value="... &gt;= 1000 DM"/>
			<Value value="100 &lt;= ... &lt; 500 DM"/>
			<Value value="500 &lt;= ... &lt; 1000 DM"/>
			<Value value="unknown/ no savings account"/>
		</DataField>
		<DataField name="job" optype="categorical" dataType="string">
			<Value value="management/ self-employed/ highly qualified employee/ officer"/>
			<Value value="skilled employee / official"/>
			<Value value="unemployed/ unskilled - non-resident"/>
			<Value value="unskilled - resident"/>
		</DataField>
		<DataField name="foreign.worker" optype="categorical" dataType="string">
			<Value value="no"/>
			<Value value="yes"/>
		</DataField>
		<DataField name="present.employment.since" optype="categorical" dataType="string">
			<Value value="... &lt; 1 year"/>
			<Value value="... &gt;= 7 years"/>
			<Value value="1 &lt;= ... &lt; 4 years"/>
			<Value value="4 &lt;= ... &lt; 7 years"/>
			<Value value="unemployed"/>
		</DataField>
		<DataField name="personal.status.and.sex" optype="categorical" dataType="string">
			<Value value="female : divorced/separated/married"/>
			<Value value="male : divorced/separated"/>
			<Value value="male : married/widowed"/>
			<Value value="male : single"/>
		</DataField>
		<DataField name="status.of.existing.checking.account" optype="categorical" dataType="string">
			<Value value="... &lt; 0 DM"/>
			<Value value="... &gt;= 200 DM / salary assignments for at least 1 year"/>
			<Value value="0 &lt;= ... &lt; 200 DM"/>
			<Value value="no checking account"/>
		</DataField>
		<DataField name="housing" optype="categorical" dataType="string">
			<Value value="for free"/>
			<Value value="own"/>
			<Value value="rent"/>
		</DataField>
		<DataField name="purpose" optype="categorical" dataType="string">
			<Value value="business"/>
			<Value value="car (new)"/>
			<Value value="car (used)"/>
			<Value value="domestic appliances"/>
			<Value value="education"/>
			<Value value="furniture/equipment"/>
			<Value value="others"/>
			<Value value="radio/television"/>
			<Value value="repairs"/>
			<Value value="retraining"/>
		</DataField>
		<DataField name="credit.history" optype="categorical" dataType="string">
			<Value value="all credits at this bank paid back duly"/>
			<Value value="critical account/ other credits existing (not at this bank)"/>
			<Value value="delay in paying off in the past"/>
			<Value value="existing credits paid back duly till now"/>
			<Value value="no credits taken/ all credits paid back duly"/>
		</DataField>
	</DataDictionary>
	<MiningModel functionName="classification" algorithmName="LightGBM">
		<MiningSchema>
			<Extension name="X-FeatureImportances">
				<InlineTable>
					<Extension name="numberOfImportances" value="56"/>
					<Extension name="numberOfNonZeroImportances" value="56"/>
					<Extension name="sumOfImportances" value="2954.0"/>
					<Extension name="minImportance" value="1.0"/>
					<Extension name="maxImportance" value="649.0"/>
					<row>
						<data:name>property=real estate</data:name>
						<data:importance>39.0</data:importance>
					</row>
					<row>
						<data:name>present.employment.since=unemployed</data:name>
						<data:importance>11.0</data:importance>
					</row>
					<row>
						<data:name>status.of.existing.checking.account=... &gt;= 200 DM / salary assignments for at least 1 year</data:name>
						<data:importance>10.0</data:importance>
					</row>
					<row>
						<data:name>other.installment.plans=none</data:name>
						<data:importance>34.0</data:importance>
					</row>
					<row>
						<data:name>other.debtors.or.guarantors=guarantor</data:name>
						<data:importance>10.0</data:importance>
					</row>
					<row>
						<data:name>credit.history=delay in paying off in the past</data:name>
						<data:importance>10.0</data:importance>
					</row>
					<row>
						<data:name>other.debtors.or.guarantors=none</data:name>
						<data:importance>12.0</data:importance>
					</row>
					<row>
						<data:name>present.employment.since=... &lt; 1 year</data:name>
						<data:importance>28.0</data:importance>
					</row>
					<row>
						<data:name>personal.status.and.sex=male : married/widowed</data:name>
						<data:importance>2.0</data:importance>
					</row>
					<row>
						<data:name>job=unskilled - resident</data:name>
						<data:importance>22.0</data:importance>
					</row>
					<row>
						<data:name>standardScaler(present.residence.since)</data:name>
						<data:importance>104.0</data:importance>
					</row>
					<row>
						<data:name>present.employment.since=... &gt;= 7 years</data:name>
						<data:importance>26.0</data:importance>
					</row>
					<row>
						<data:name>present.employment.since=4 &lt;= ... &lt; 7 years</data:name>
						<data:importance>32.0</data:importance>
					</row>
					<row>
						<data:name>telephone=yes, registered under the customers name</data:name>
						<data:importance>22.0</data:importance>
					</row>
					<row>
						<data:name>purpose=business</data:name>
						<data:importance>7.0</data:importance>
					</row>
					<row>
						<data:name>savings.account.and.bonds=unknown/ no savings account</data:name>
						<data:importance>24.0</data:importance>
					</row>
					<row>
						<data:name>credit.history=all credits at this bank paid back duly</data:name>
						<data:importance>3.0</data:importance>
					</row>
					<row>
						<data:name>standardScaler(age.in.years)</data:name>
						<data:importance>430.0</data:importance>
					</row>
					<row>
						<data:name>housing=for free</data:name>
						<data:importance>13.0</data:importance>
					</row>
					<row>
						<data:name>purpose=radio/television</data:name>
						<data:importance>33.0</data:importance>
					</row>
					<row>
						<data:name>savings.account.and.bonds=... &gt;= 1000 DM</data:name>
						<data:importance>10.0</data:importance>
					</row>
					<row>
						<data:name>status.of.existing.checking.account=no checking account</data:name>
						<data:importance>55.0</data:importance>
					</row>
					<row>
						<data:name>housing=rent</data:name>
						<data:importance>19.0</data:importance>
					</row>
					<row>
						<data:name>status.of.existing.checking.account=0 &lt;= ... &lt; 200 DM</data:name>
						<data:importance>31.0</data:importance>
					</row>
					<row>
						<data:name>property=car or other, not in attribute Savings account/bonds</data:name>
						<data:importance>41.0</data:importance>
					</row>
					<row>
						<data:name>property=unknown / no property</data:name>
						<data:importance>19.0</data:importance>
					</row>
					<row>
						<data:name>foreign.worker=yes</data:name>
						<data:importance>8.0</data:importance>
					</row>
					<row>
						<data:name>purpose=car (used)</data:name>
						<data:importance>50.0</data:importance>
					</row>
					<row>
						<data:name>standardScaler(duration.in.month)</data:name>
						<data:importance>289.0</data:importance>
					</row>
					<row>
						<data:name>telephone=none</data:name>
						<data:importance>37.0</data:importance>
					</row>
					<row>
						<data:name>savings.account.and.bonds=... &lt; 100 DM</data:name>
						<data:importance>58.0</data:importance>
					</row>
					<row>
						<data:name>standardScaler(number.of.people.being.liable.to.provide.maintenance.for)</data:name>
						<data:importance>29.0</data:importance>
					</row>
					<row>
						<data:name>housing=own</data:name>
						<data:importance>22.0</data:importance>
					</row>
					<row>
						<data:name>property=building society savings agreement/ life insurance</data:name>
						<data:importance>30.0</data:importance>
					</row>
					<row>
						<data:name>job=skilled employee / official</data:name>
						<data:importance>44.0</data:importance>
					</row>
					<row>
						<data:name>personal.status.and.sex=male : divorced/separated</data:name>
						<data:importance>11.0</data:importance>
					</row>
					<row>
						<data:name>purpose=furniture/equipment</data:name>
						<data:importance>14.0</data:importance>
					</row>
					<row>
						<data:name>credit.history=no credits taken/ all credits paid back duly</data:name>
						<data:importance>13.0</data:importance>
					</row>
					<row>
						<data:name>standardScaler(installment.rate.in.percentage.of.disposable.income)</data:name>
						<data:importance>139.0</data:importance>
					</row>
					<row>
						<data:name>standardScaler(number.of.existing.credits.at.this.bank)</data:name>
						<data:importance>47.0</data:importance>
					</row>
					<row>
						<data:name>credit.history=critical account/ other credits existing (not at this bank)</data:name>
						<data:importance>54.0</data:importance>
					</row>
					<row>
						<data:name>present.employment.since=1 &lt;= ... &lt; 4 years</data:name>
						<data:importance>35.0</data:importance>
					</row>
					<row>
						<data:name>personal.status.and.sex=female : divorced/separated/married</data:name>
						<data:importance>32.0</data:importance>
					</row>
					<row>
						<data:name>job=management/ self-employed/ highly qualified employee/ officer</data:name>
						<data:importance>38.0</data:importance>
					</row>
					<row>
						<data:name>purpose=education</data:name>
						<data:importance>19.0</data:importance>
					</row>
					<row>
						<data:name>other.installment.plans=stores</data:name>
						<data:importance>7.0</data:importance>
					</row>
					<row>
						<data:name>foreign.worker=no</data:name>
						<data:importance>1.0</data:importance>
					</row>
					<row>
						<data:name>standardScaler(credit.amount)</data:name>
						<data:importance>649.0</data:importance>
					</row>
					<row>
						<data:name>personal.status.and.sex=male : single</data:name>
						<data:importance>90.0</data:importance>
					</row>
					<row>
						<data:name>purpose=car (new)</data:name>
						<data:importance>48.0</data:importance>
					</row>
					<row>
						<data:name>credit.history=existing credits paid back duly till now</data:name>
						<data:importance>50.0</data:importance>
					</row>
					<row>
						<data:name>savings.account.and.bonds=100 &lt;= ... &lt; 500 DM</data:name>
						<data:importance>4.0</data:importance>
					</row>
					<row>
						<data:name>status.of.existing.checking.account=... &lt; 0 DM</data:name>
						<data:importance>57.0</data:importance>
					</row>
					<row>
						<data:name>other.installment.plans=bank</data:name>
						<data:importance>26.0</data:importance>
					</row>
					<row>
						<data:name>purpose=repairs</data:name>
						<data:importance>5.0</data:importance>
					</row>
					<row>
						<data:name>savings.account.and.bonds=500 &lt;= ... &lt; 1000 DM</data:name>
						<data:importance>1.0</data:importance>
					</row>
				</InlineTable>
			</Extension>
			<MiningField name="flag" usageType="target"/>
			<MiningField name="duration.in.month" importance="289.0" missingValueReplacement="-99" missingValueTreatment="asValue"/>
			<MiningField name="credit.amount" importance="649.0" missingValueReplacement="-99" missingValueTreatment="asValue"/>
			<MiningField name="installment.rate.in.percentage.of.disposable.income" importance="139.0" missingValueReplacement="-99" missingValueTreatment="asValue"/>
			<MiningField name="present.residence.since" importance="104.0" missingValueReplacement="-99" missingValueTreatment="asValue"/>
			<MiningField name="age.in.years" importance="430.0" missingValueReplacement="-99" missingValueTreatment="asValue"/>
			<MiningField name="number.of.existing.credits.at.this.bank" importance="47.0" missingValueReplacement="-99" missingValueTreatment="asValue"/>
			<MiningField name="number.of.people.being.liable.to.provide.maintenance.for" importance="29.0" missingValueReplacement="-99" missingValueTreatment="asValue"/>
			<MiningField name="other.installment.plans" importance="67.0" missingValueReplacement="missing" missingValueTreatment="asValue" invalidValueTreatment="asIs"/>
			<MiningField name="telephone" importance="59.0" missingValueReplacement="missing" missingValueTreatment="asValue" invalidValueTreatment="asIs"/>
			<MiningField name="property" importance="129.0" missingValueReplacement="missing" missingValueTreatment="asValue" invalidValueTreatment="asIs"/>
			<MiningField name="other.debtors.or.guarantors" importance="22.0" missingValueReplacement="missing" missingValueTreatment="asValue" invalidValueTreatment="asIs"/>
			<MiningField name="savings.account.and.bonds" importance="97.0" missingValueReplacement="missing" missingValueTreatment="asValue" invalidValueTreatment="asIs"/>
			<MiningField name="job" importance="104.0" missingValueReplacement="missing" missingValueTreatment="asValue" invalidValueTreatment="asIs"/>
			<MiningField name="foreign.worker" importance="9.0" missingValueReplacement="missing" missingValueTreatment="asValue" invalidValueTreatment="asIs"/>
			<MiningField name="present.employment.since" importance="132.0" missingValueReplacement="missing" missingValueTreatment="asValue" invalidValueTreatment="asIs"/>
			<MiningField name="personal.status.and.sex" importance="135.0" missingValueReplacement="missing" missingValueTreatment="asValue" invalidValueTreatment="asIs"/>
			<MiningField name="status.of.existing.checking.account" importance="153.0" missingValueReplacement="missing" missingValueTreatment="asValue" invalidValueTreatment="asIs"/>
			<MiningField name="housing" importance="54.0" missingValueReplacement="missing" missingValueTreatment="asValue" invalidValueTreatment="asIs"/>
			<MiningField name="purpose" importance="176.0" missingValueReplacement="missing" missingValueTreatment="asValue" invalidValueTreatment="asIs"/>
			<MiningField name="credit.history" importance="130.0" missingValueReplacement="missing" missingValueTreatment="asValue" invalidValueTreatment="asIs"/>
		</MiningSchema>
		<Segmentation multipleModelMethod="modelChain" missingPredictionTreatment="returnMissing">
			<Segment id="1">
				<True/>
				<MiningModel functionName="regression">
					<MiningSchema>
						<MiningField name="other.installment.plans"/>
						<MiningField name="telephone"/>
						<MiningField name="property"/>
						<MiningField name="other.debtors.or.guarantors"/>
						<MiningField name="savings.account.and.bonds"/>
						<MiningField name="foreign.worker"/>
						<MiningField name="duration.in.month"/>
						<MiningField name="credit.amount"/>
						<MiningField name="installment.rate.in.percentage.of.disposable.income"/>
						<MiningField name="present.residence.since"/>
						<MiningField name="age.in.years"/>
						<MiningField name="number.of.existing.credits.at.this.bank"/>
						<MiningField name="number.of.people.being.liable.to.provide.maintenance.for"/>
						<MiningField name="job"/>
						<MiningField name="present.employment.since"/>
						<MiningField name="personal.status.and.sex"/>
						<MiningField name="status.of.existing.checking.account"/>
						<MiningField name="housing"/>
						<MiningField name="purpose"/>
						<MiningField name="credit.history"/>
					</MiningSchema>
					<Output>
						<OutputField name="lgbmValue" optype="continuous" dataType="double" isFinalResult="false"/>
					</Output>
					<LocalTransformations>
						<DerivedField name="standardScaler(duration.in.month)" optype="continuous" dataType="double">
							<Apply function="/">
								<Apply function="-">
									<FieldRef field="duration.in.month"/>
									<Constant dataType="double">20.875784190715184</Constant>
								</Apply>
								<Constant dataType="double">12.035534101057477</Constant>
							</Apply>
						</DerivedField>
						<DerivedField name="standardScaler(credit.amount)" optype="continuous" dataType="double">
							<Apply function="/">
								<Apply function="-">
									<FieldRef field="credit.amount"/>
									<Constant dataType="double">3290.917189460477</Constant>
								</Apply>
								<Constant dataType="double">2846.292663340918</Constant>
							</Apply>
						</DerivedField>
						<DerivedField name="standardScaler(installment.rate.in.percentage.of.disposable.income)" optype="continuous" dataType="double">
							<Apply function="/">
								<Apply function="-">
									<FieldRef field="installment.rate.in.percentage.of.disposable.income"/>
									<Constant dataType="double">2.9686323713927227</Constant>
								</Apply>
								<Constant dataType="double">1.1090003689923267</Constant>
							</Apply>
						</DerivedField>
						<DerivedField name="standardScaler(present.residence.since)" optype="continuous" dataType="double">
							<Apply function="/">
								<Apply function="-">
									<FieldRef field="present.residence.since"/>
									<Constant dataType="double">2.8456712672521958</Constant>
								</Apply>
								<Constant dataType="double">1.099798981217295</Constant>
							</Apply>
						</DerivedField>
						<DerivedField name="standardScaler(age.in.years)" optype="continuous" dataType="double">
							<Apply function="/">
								<Apply function="-">
									<FieldRef field="age.in.years"/>
									<Constant dataType="double">35.61856963613551</Constant>
								</Apply>
								<Constant dataType="double">11.42319533583023</Constant>
							</Apply>
						</DerivedField>
						<DerivedField name="standardScaler(number.of.existing.credits.at.this.bank)" optype="continuous" dataType="double">
							<Apply function="/">
								<Apply function="-">
									<FieldRef field="number.of.existing.credits.at.this.bank"/>
									<Constant dataType="double">1.4178168130489335</Constant>
								</Apply>
								<Constant dataType="double">0.5840487351559552</Constant>
							</Apply>
						</DerivedField>
						<DerivedField name="standardScaler(number.of.people.being.liable.to.provide.maintenance.for)" optype="continuous" dataType="double">
							<Apply function="/">
								<Apply function="-">
									<FieldRef field="number.of.people.being.liable.to.provide.maintenance.for"/>
									<Constant dataType="double">1.1580928481806776</Constant>
								</Apply>
								<Constant dataType="double">0.36482804104783223</Constant>
							</Apply>
						</DerivedField>
						<DerivedField name="savings.account.and.bonds=... &gt;= 1000 DM" optype="continuous" dataType="double">
							<NormDiscrete field="savings.account.and.bonds" value="... &gt;= 1000 DM"/>
						</DerivedField>
						<DerivedField name="savings.account.and.bonds=100 &lt;= ... &lt; 500 DM" optype="continuous" dataType="double">
							<NormDiscrete field="savings.account.and.bonds" value="100 &lt;= ... &lt; 500 DM"/>
						</DerivedField>
						<DerivedField name="savings.account.and.bonds=unknown/ no savings account" optype="continuous" dataType="double">
							<NormDiscrete field="savings.account.and.bonds" value="unknown/ no savings account"/>
						</DerivedField>
						<DerivedField name="job=management/ self-employed/ highly qualified employee/ officer" optype="continuous" dataType="double">
							<NormDiscrete field="job" value="management/ self-employed/ highly qualified employee/ officer"/>
						</DerivedField>
						<DerivedField name="job=skilled employee / official" optype="continuous" dataType="double">
							<NormDiscrete field="job" value="skilled employee / official"/>
						</DerivedField>
						<DerivedField name="job=unskilled - resident" optype="continuous" dataType="double">
							<NormDiscrete field="job" value="unskilled - resident"/>
						</DerivedField>
						<DerivedField name="foreign.worker=yes" optype="continuous" dataType="double">
							<NormDiscrete field="foreign.worker" value="yes"/>
						</DerivedField>
						<DerivedField name="present.employment.since=... &lt; 1 year" optype="continuous" dataType="double">
							<NormDiscrete field="present.employment.since" value="... &lt; 1 year"/>
						</DerivedField>
						<DerivedField name="present.employment.since=... &gt;= 7 years" optype="continuous" dataType="double">
							<NormDiscrete field="present.employment.since" value="... &gt;= 7 years"/>
						</DerivedField>
						<DerivedField name="present.employment.since=1 &lt;= ... &lt; 4 years" optype="continuous" dataType="double">
							<NormDiscrete field="present.employment.since" value="1 &lt;= ... &lt; 4 years"/>
						</DerivedField>
						<DerivedField name="present.employment.since=4 &lt;= ... &lt; 7 years" optype="continuous" dataType="double">
							<NormDiscrete field="present.employment.since" value="4 &lt;= ... &lt; 7 years"/>
						</DerivedField>
						<DerivedField name="present.employment.since=unemployed" optype="continuous" dataType="double">
							<NormDiscrete field="present.employment.since" value="unemployed"/>
						</DerivedField>
						<DerivedField name="personal.status.and.sex=female : divorced/separated/married" optype="continuous" dataType="double">
							<NormDiscrete field="personal.status.and.sex" value="female : divorced/separated/married"/>
						</DerivedField>
						<DerivedField name="personal.status.and.sex=male : divorced/separated" optype="continuous" dataType="double">
							<NormDiscrete field="personal.status.and.sex" value="male : divorced/separated"/>
						</DerivedField>
						<DerivedField name="personal.status.and.sex=male : married/widowed" optype="continuous" dataType="double">
							<NormDiscrete field="personal.status.and.sex" value="male : married/widowed"/>
						</DerivedField>
						<DerivedField name="personal.status.and.sex=male : single" optype="continuous" dataType="double">
							<NormDiscrete field="personal.status.and.sex" value="male : single"/>
						</DerivedField>
						<DerivedField name="status.of.existing.checking.account=... &lt; 0 DM" optype="continuous" dataType="double">
							<NormDiscrete field="status.of.existing.checking.account" value="... &lt; 0 DM"/>
						</DerivedField>
						<DerivedField name="status.of.existing.checking.account=... &gt;= 200 DM / salary assignments for at least 1 year" optype="continuous" dataType="double">
							<NormDiscrete field="status.of.existing.checking.account" value="... &gt;= 200 DM / salary assignments for at least 1 year"/>
						</DerivedField>
						<DerivedField name="status.of.existing.checking.account=0 &lt;= ... &lt; 200 DM" optype="continuous" dataType="double">
							<NormDiscrete field="status.of.existing.checking.account" value="0 &lt;= ... &lt; 200 DM"/>
						</DerivedField>
						<DerivedField name="status.of.existing.checking.account=no checking account" optype="continuous" dataType="double">
							<NormDiscrete field="status.of.existing.checking.account" value="no checking account"/>
						</DerivedField>
						<DerivedField name="housing=for free" optype="continuous" dataType="double">
							<NormDiscrete field="housing" value="for free"/>
						</DerivedField>
						<DerivedField name="housing=own" optype="continuous" dataType="double">
							<NormDiscrete field="housing" value="own"/>
						</DerivedField>
						<DerivedField name="housing=rent" optype="continuous" dataType="double">
							<NormDiscrete field="housing" value="rent"/>
						</DerivedField>
						<DerivedField name="purpose=business" optype="continuous" dataType="double">
							<NormDiscrete field="purpose" value="business"/>
						</DerivedField>
						<DerivedField name="purpose=car (new)" optype="continuous" dataType="double">
							<NormDiscrete field="purpose" value="car (new)"/>
						</DerivedField>
						<DerivedField name="purpose=car (used)" optype="continuous" dataType="double">
							<NormDiscrete field="purpose" value="car (used)"/>
						</DerivedField>
						<DerivedField name="purpose=education" optype="continuous" dataType="double">
							<NormDiscrete field="purpose" value="education"/>
						</DerivedField>
						<DerivedField name="purpose=furniture/equipment" optype="continuous" dataType="double">
							<NormDiscrete field="purpose" value="furniture/equipment"/>
						</DerivedField>
						<DerivedField name="purpose=radio/television" optype="continuous" dataType="double">
							<NormDiscrete field="purpose" value="radio/television"/>
						</DerivedField>
						<DerivedField name="purpose=repairs" optype="continuous" dataType="double">
							<NormDiscrete field="purpose" value="repairs"/>
						</DerivedField>
						<DerivedField name="credit.history=all credits at this bank paid back duly" optype="continuous" dataType="double">
							<NormDiscrete field="credit.history" value="all credits at this bank paid back duly"/>
						</DerivedField>
						<DerivedField name="credit.history=critical account/ other credits existing (not at this bank)" optype="continuous" dataType="double">
							<NormDiscrete field="credit.history" value="critical account/ other credits existing (not at this bank)"/>
						</DerivedField>
						<DerivedField name="credit.history=delay in paying off in the past" optype="continuous" dataType="double">
							<NormDiscrete field="credit.history" value="delay in paying off in the past"/>
						</DerivedField>
						<DerivedField name="credit.history=existing credits paid back duly till now" optype="continuous" dataType="double">
							<NormDiscrete field="credit.history" value="existing credits paid back duly till now"/>
						</DerivedField>
						<DerivedField name="credit.history=no credits taken/ all credits paid back duly" optype="continuous" dataType="double">
							<NormDiscrete field="credit.history" value="no credits taken/ all credits paid back duly"/>
						</DerivedField>
					</LocalTransformations>
					<Segmentation multipleModelMethod="sum">
						<Segment id="1">
							<True/>
							<TreeModel functionName="regression" noTrueChildStrategy="returnLastPrediction">
								<MiningSchema>
									<MiningField name="other.installment.plans"/>
									<MiningField name="savings.account.and.bonds"/>
									<MiningField name="standardScaler(duration.in.month)"/>
									<MiningField name="standardScaler(credit.amount)"/>
									<MiningField name="standardScaler(installment.rate.in.percentage.of.disposable.income)"/>
									<MiningField name="standardScaler(present.residence.since)"/>
									<MiningField name="standardScaler(age.in.years)"/>
									<MiningField name="job=skilled employee / official"/>
									<MiningField name="status.of.existing.checking.account=... &lt; 0 DM"/>
									<MiningField name="status.of.existing.checking.account=no checking account"/>
									<MiningField name="purpose=car (new)"/>
									<MiningField name="purpose=car (used)"/>
									<MiningField name="purpose=furniture/equipment"/>
									<MiningField name="credit.history=critical account/ other credits existing (not at this bank)"/>
								</MiningSchema>
								<Node score="-0.8028940269376614">
									<True/>
									<Node score="-0.9964548318861717">
										<SimplePredicate field="status.of.existing.checking.account=no checking account" operator="greaterThan" value="1.0000000180025095E-35"/>
										<Node score="-0.8416061879273635">
											<SimplePredicate field="other.installment.plans" operator="equal" value="bank"/>
										</Node>
										<Node score="-0.8495471440278152">
											<SimplePredicate field="standardScaler(credit.amount)" operator="greaterThan" value="0.3049871932426605"/>
											<Node score="-0.9964548318861718">
												<SimplePredicate field="purpose=car (used)" operator="greaterThan" value="1.0000000180025095E-35"/>
											</Node>
										</Node>
										<Node score="-0.9096457436062337">
											<SimplePredicate field="standardScaler(installment.rate.in.percentage.of.disposable.income)" operator="greaterThan" value="0.4791410746689787"/>
											<Node score="-0.973719118289045">
												<SimplePredicate field="standardScaler(age.in.years)" operator="greaterThan" value="-0.4480856262766076"/>
												<Node score="-0.9964548318861718">
													<SimplePredicate field="credit.history=critical account/ other credits existing (not at this bank)" operator="greaterThan" value="1.0000000180025095E-35"/>
													<Node score="-0.9964548318861718">
														<SimplePredicate field="standardScaler(duration.in.month)" operator="greaterThan" value="-0.4466593792661724"/>
													</Node>
												</Node>
												<Node score="-0.9487098333322059">
													<SimplePredicate field="standardScaler(age.in.years)" operator="greaterThan" value="0.1647026342938526"/>
												</Node>
											</Node>
										</Node>
										<Node score="-0.9725823326091888">
											<SimplePredicate field="standardScaler(credit.amount)" operator="greaterThan" value="1.0000000180025095E-35"/>
										</Node>
										<Node score="-0.9964548318861718">
											<SimplePredicate field="standardScaler(duration.in.month)" operator="greaterThan" value="-1.0282704603552084"/>
										</Node>
									</Node>
									<Node score="-0.7338573398393594">
										<SimplePredicate field="standardScaler(duration.in.month)" operator="greaterThan" value="1.8797849450899722"/>
										<Node score="-0.598579843936456">
											<SimplePredicate field="standardScaler(present.residence.since)" operator="greaterThan" value="-1.0000000180025095E-35"/>
										</Node>
									</Node>
									<Node score="-0.6291856122402804">
										<SimplePredicate field="standardScaler(credit.amount)" operator="greaterThan" value="1.6052751248623995"/>
									</Node>
									<Node score="-0.9230009879569935">
										<SimplePredicate field="standardScaler(age.in.years)" operator="greaterThan" value="-0.09792090595063034"/>
										<Node score="-0.90096483477824">
											<SimplePredicate field="credit.history=critical account/ other credits existing (not at this bank)" operator="greaterThan" value="1.0000000180025095E-35"/>
											<Node score="-0.9964548318861718">
												<SimplePredicate field="standardScaler(credit.amount)" operator="greaterThan" value="-0.7038690066076719"/>
												<Node score="-0.924837334055223">
													<SimplePredicate field="status.of.existing.checking.account=... &lt; 0 DM" operator="greaterThan" value="1.0000000180025095E-35"/>
												</Node>
											</Node>
										</Node>
										<Node score="-0.8373048367062855">
											<SimplePredicate field="status.of.existing.checking.account=... &lt; 0 DM" operator="greaterThan" value="1.0000000180025095E-35"/>
											<Node score="-0.7165703576043028">
												<SimplePredicate field="job=skilled employee / official" operator="greaterThan" value="1.0000000180025095E-35"/>
											</Node>
										</Node>
										<Node score="-0.8419857189174587">
											<SimplePredicate field="savings.account.and.bonds" operator="equal" value="... &lt; 100 DM"/>
										</Node>
									</Node>
									<Node score="-0.6058139346264508">
										<SimplePredicate field="purpose=car (new)" operator="greaterThan" value="1.0000000180025095E-35"/>
										<Node score="-0.7393663781340478">
											<SimplePredicate field="standardScaler(credit.amount)" operator="greaterThan" value="-0.6928019788189602"/>
										</Node>
									</Node>
									<Node score="-0.8327576939868602">
										<SimplePredicate field="status.of.existing.checking.account=... &lt; 0 DM" operator="greaterThan" value="1.0000000180025095E-35"/>
										<Node score="-0.7776235885138281">
											<SimplePredicate field="standardScaler(present.residence.since)" operator="greaterThan" value="1.0000000180025095E-35"/>
											<Node score="-0.6781548415263992">
												<SimplePredicate field="standardScaler(duration.in.month)" operator="greaterThan" value="0.05186440452442997"/>
											</Node>
										</Node>
									</Node>
									<Node score="-0.7794321111863268">
										<SimplePredicate field="purpose=furniture/equipment" operator="greaterThan" value="1.0000000180025095E-35"/>
									</Node>
									<Node score="-0.9509834046919186">
										<SimplePredicate field="standardScaler(present.residence.since)" operator="greaterThan" value="0.5949530268009259"/>
									</Node>
									<Node score="-0.9168798342962285">
										<SimplePredicate field="standardScaler(credit.amount)" operator="greaterThan" value="-0.23659449997318058"/>
									</Node>
								</Node>
							</TreeModel>
						</Segment>
						<Segment id="2">
							<True/>
							<TreeModel functionName="regression" noTrueChildStrategy="returnLastPrediction">
								<MiningSchema>
									<MiningField name="other.installment.plans"/>
									<MiningField name="telephone"/>
									<MiningField name="property"/>
									<MiningField name="other.debtors.or.guarantors"/>
									<MiningField name="savings.account.and.bonds"/>
									<MiningField name="standardScaler(duration.in.month)"/>
									<MiningField name="standardScaler(credit.amount)"/>
									<MiningField name="standardScaler(installment.rate.in.percentage.of.disposable.income)"/>
									<MiningField name="standardScaler(present.residence.since)"/>
									<MiningField name="standardScaler(age.in.years)"/>
									<MiningField name="standardScaler(number.of.people.being.liable.to.provide.maintenance.for)"/>
									<MiningField name="personal.status.and.sex=male : single"/>
									<MiningField name="status.of.existing.checking.account=no checking account"/>
									<MiningField name="purpose=car (new)"/>
									<MiningField name="credit.history=critical account/ other credits existing (not at this bank)"/>
									<MiningField name="credit.history=existing credits paid back duly till now"/>
								</MiningSchema>
								<Node score="0.20178482245552512">
									<True/>
									<Node score="0.046741406141785014">
										<SimplePredicate field="status.of.existing.checking.account=no checking account" operator="greaterThan" value="1.0000000180025095E-35"/>
										<Node score="-0.13691859226748168">
											<SimplePredicate field="other.installment.plans" operator="equal" value="none"/>
											<Node score="-0.002045223837962066">
												<SimplePredicate field="standardScaler(credit.amount)" operator="greaterThan" value="0.4427102057244053"/>
												<Node score="-0.09120739061588129">
													<SimplePredicate field="credit.history=critical account/ other credits existing (not at this bank)" operator="greaterThan" value="1.0000000180025095E-35"/>
												</Node>
											</Node>
											<Node score="-0.13782711688813598">
												<SimplePredicate field="standardScaler(age.in.years)" operator="greaterThan" value="-0.3605444461951132"/>
												<Node score="-0.09856183043267928">
													<SimplePredicate field="standardScaler(number.of.people.being.liable.to.provide.maintenance.for)" operator="greaterThan" value="1.0000000180025095E-35"/>
												</Node>
												<Node score="-0.1370968299303194">
													<SimplePredicate field="credit.history=critical account/ other credits existing (not at this bank)" operator="greaterThan" value="1.0000000180025095E-35"/>
												</Node>
											</Node>
											<Node score="-0.05835011634422476">
												<SimplePredicate field="standardScaler(installment.rate.in.percentage.of.disposable.income)" operator="greaterThan" value="0.4791410746689787"/>
											</Node>
											<Node score="-0.11244687557012818">
												<SimplePredicate field="standardScaler(credit.amount)" operator="greaterThan" value="-0.4082212642520896"/>
											</Node>
										</Node>
										<Node score="-0.06528004257463184">
											<SimplePredicate field="standardScaler(present.residence.since)" operator="greaterThan" value="-1.0000000180025095E-35"/>
										</Node>
									</Node>
									<Node score="-0.08931252272202783">
										<SimplePredicate field="standardScaler(duration.in.month)" operator="greaterThan" value="-0.4466593792661724"/>
										<Node score="0.10154334580758195">
											<SimplePredicate field="savings.account.and.bonds" operator="equal" value="... &lt; 100 DM"/>
											<Node score="0.2567086170958965">
												<SimplePredicate field="standardScaler(duration.in.month)" operator="greaterThan" value="1.8797849450899722"/>
											</Node>
											<Node score="0.08795292861330453">
												<SimplePredicate field="standardScaler(credit.amount)" operator="greaterThan" value="-0.3412920961965478"/>
												<Node score="0.16237502111197957">
													<SimplePredicate field="standardScaler(credit.amount)" operator="greaterThan" value="1.254292243563259"/>
												</Node>
												<Node score="-0.04201419654529576">
													<SimplePredicate field="standardScaler(credit.amount)" operator="greaterThan" value="0.41214412897463026"/>
												</Node>
												<Node score="0.13671509683092511">
													<SimplePredicate field="standardScaler(credit.amount)" operator="greaterThan" value="0.14811646601536685"/>
												</Node>
												<Node score="0.0026663930463908113">
													<SimplePredicate field="standardScaler(age.in.years)" operator="greaterThan" value="-0.7107091665210904"/>
												</Node>
											</Node>
											<Node score="0.20671924872310382">
												<SimplePredicate field="personal.status.and.sex=male : single" operator="greaterThan" value="1.0000000180025095E-35"/>
											</Node>
										</Node>
										<Node score="-0.002663025603975777">
											<SimplePredicate field="telephone" operator="equal" value="none"/>
											<Node score="0.10486892861159192">
												<SimplePredicate field="credit.history=existing credits paid back duly till now" operator="greaterThan" value="1.0000000180025095E-35"/>
											</Node>
										</Node>
										<Node score="0.00937197854126402">
											<SimplePredicate field="standardScaler(credit.amount)" operator="greaterThan" value="0.5502184756718899"/>
										</Node>
									</Node>
									<Node score="-0.14292685419192291">
										<SimplePredicate field="other.debtors.or.guarantors" operator="equal" value="guarantor"/>
									</Node>
									<Node score="-0.09793392645801062">
										<SimplePredicate field="credit.history=critical account/ other credits existing (not at this bank)" operator="greaterThan" value="1.0000000180025095E-35"/>
										<Node score="-0.04544333848306917">
											<SimplePredicate field="standardScaler(installment.rate.in.percentage.of.disposable.income)" operator="greaterThan" value="1.0000000180025095E-35"/>
										</Node>
									</Node>
									<Node score="0.02393128991121303">
										<SimplePredicate field="property" operator="equal" value="real estate"/>
										<Node score="-0.059782842790075945">
											<SimplePredicate field="standardScaler(credit.amount)" operator="greaterThan" value="-0.6928019788189602"/>
										</Node>
									</Node>
									<Node score="0.03806984033349947">
										<SimplePredicate field="standardScaler(credit.amount)" operator="greaterThan" value="-0.7881892183311892"/>
										<Node score="0.1357083774315062">
											<SimplePredicate field="purpose=car (new)" operator="greaterThan" value="1.0000000180025095E-35"/>
										</Node>
										<Node score="-0.030402137211475555">
											<SimplePredicate field="property" operator="equal" value="car or other, not in attribute Savings account/bonds"/>
										</Node>
									</Node>
								</Node>
							</TreeModel>
						</Segment>
						<Segment id="3">
							<True/>
							<TreeModel functionName="regression" noTrueChildStrategy="returnLastPrediction">
								<MiningSchema>
									<MiningField name="other.installment.plans"/>
									<MiningField name="other.debtors.or.guarantors"/>
									<MiningField name="standardScaler(duration.in.month)"/>
									<MiningField name="standardScaler(credit.amount)"/>
									<MiningField name="standardScaler(installment.rate.in.percentage.of.disposable.income)"/>
									<MiningField name="standardScaler(present.residence.since)"/>
									<MiningField name="standardScaler(age.in.years)"/>
									<MiningField name="savings.account.and.bonds=unknown/ no savings account"/>
									<MiningField name="present.employment.since=... &gt;= 7 years"/>
									<MiningField name="status.of.existing.checking.account=... &lt; 0 DM"/>
									<MiningField name="status.of.existing.checking.account=no checking account"/>
									<MiningField name="purpose=car (new)"/>
									<MiningField name="purpose=car (used)"/>
									<MiningField name="credit.history=critical account/ other credits existing (not at this bank)"/>
								</MiningSchema>
								<Node score="-0.10069181608219331">
									<True/>
									<Node score="-0.13276307740303267">
										<SimplePredicate field="status.of.existing.checking.account=no checking account" operator="greaterThan" value="1.0000000180025095E-35"/>
										<Node score="0.012058264435175473">
											<SimplePredicate field="other.installment.plans" operator="equal" value="bank"/>
										</Node>
										<Node score="0.009241791859694084">
											<SimplePredicate field="standardScaler(credit.amount)" operator="greaterThan" value="0.3049871932426605"/>
											<Node score="-0.07014657008431295">
												<SimplePredicate field="standardScaler(age.in.years)" operator="greaterThan" value="-0.27300326611361897"/>
											</Node>
										</Node>
										<Node score="-0.04684787280277293">
											<SimplePredicate field="standardScaler(installment.rate.in.percentage.of.disposable.income)" operator="greaterThan" value="0.4791410746689787"/>
											<Node score="-0.10857296678986446">
												<SimplePredicate field="standardScaler(age.in.years)" operator="greaterThan" value="-0.4480856262766076"/>
												<Node score="-0.13225321182908542">
													<SimplePredicate field="credit.history=critical account/ other credits existing (not at this bank)" operator="greaterThan" value="1.0000000180025095E-35"/>
													<Node score="-0.13259568273403466">
														<SimplePredicate field="standardScaler(credit.amount)" operator="greaterThan" value="-0.6820862852457633"/>
													</Node>
												</Node>
												<Node score="-0.08153114897163355">
													<SimplePredicate field="standardScaler(age.in.years)" operator="greaterThan" value="0.1647026342938526"/>
												</Node>
											</Node>
										</Node>
										<Node score="-0.10733492094014092">
											<SimplePredicate field="present.employment.since=... &gt;= 7 years" operator="greaterThan" value="1.0000000180025095E-35"/>
										</Node>
										<Node score="-0.13397874813695773">
											<SimplePredicate field="standardScaler(credit.amount)" operator="greaterThan" value="-0.10501983626294221"/>
										</Node>
										<Node score="-0.13225050198228017">
											<SimplePredicate field="standardScaler(installment.rate.in.percentage.of.disposable.income)" operator="greaterThan" value="1.0000000180025095E-35"/>
										</Node>
									</Node>
									<Node score="-0.05908316794178109">
										<SimplePredicate field="standardScaler(duration.in.month)" operator="greaterThan" value="-1.0282704603552084"/>
										<Node score="0.07782124101874366">
											<SimplePredicate field="savings.account.and.bonds=unknown/ no savings account" operator="greaterThan" value="1.0000000180025095E-35"/>
											<Node score="-0.029000495940965723">
												<SimplePredicate field="standardScaler(credit.amount)" operator="greaterThan" value="-0.44476002266561376"/>
												<Node score="-0.12151392097642462">
													<SimplePredicate field="standardScaler(installment.rate.in.percentage.of.disposable.income)" operator="greaterThan" value="-1.0000000180025095E-35"/>
												</Node>
											</Node>
										</Node>
										<Node score="0.20001071340270743">
											<SimplePredicate field="standardScaler(duration.in.month)" operator="greaterThan" value="1.8797849450899722"/>
										</Node>
										<Node score="0.16944796544281382">
											<SimplePredicate field="standardScaler(credit.amount)" operator="greaterThan" value="1.6052751248623995"/>
										</Node>
										<Node score="-0.09903052138373221">
											<SimplePredicate field="purpose=car (used)" operator="greaterThan" value="1.0000000180025095E-35"/>
										</Node>
										<Node score="0.1781459222103221">
											<SimplePredicate field="purpose=car (new)" operator="greaterThan" value="1.0000000180025095E-35"/>
											<Node score="0.030185452778163552">
												<SimplePredicate field="standardScaler(age.in.years)" operator="greaterThan" value="1.0000000180025095E-35"/>
											</Node>
											<Node score="0.1030686870489071">
												<SimplePredicate field="standardScaler(present.residence.since)" operator="greaterThan" value="-1.0000000180025095E-35"/>
											</Node>
										</Node>
										<Node score="0.06585032573589218">
											<SimplePredicate field="other.debtors.or.guarantors" operator="equal" value="none"/>
											<Node score="0.019744209866583273">
												<SimplePredicate field="status.of.existing.checking.account=... &lt; 0 DM" operator="greaterThan" value="1.0000000180025095E-35"/>
												<Node score="0.1674109897179173">
													<SimplePredicate field="standardScaler(duration.in.month)" operator="greaterThan" value="-0.4466593792661724"/>
													<Node score="0.09399934538486256">
														<SimplePredicate field="standardScaler(credit.amount)" operator="greaterThan" value="-0.3202120432656685"/>
													</Node>
												</Node>
											</Node>
											<Node score="-0.059323294091054204">
												<SimplePredicate field="standardScaler(present.residence.since)" operator="greaterThan" value="0.5949530268009259"/>
											</Node>
											<Node score="0.12734251881790157">
												<SimplePredicate field="standardScaler(installment.rate.in.percentage.of.disposable.income)" operator="greaterThan" value="0.4791410746689787"/>
											</Node>
											<Node score="-0.06795149187623743">
												<SimplePredicate field="standardScaler(credit.amount)" operator="greaterThan" value="-0.23659449997318058"/>
											</Node>
										</Node>
									</Node>
									<Node score="-0.03724462662242591">
										<SimplePredicate field="standardScaler(credit.amount)" operator="greaterThan" value="-0.7318000767410869"/>
									</Node>
								</Node>
							</TreeModel>
						</Segment>
						<Segment id="4">
							<True/>
							<TreeModel functionName="regression" noTrueChildStrategy="returnLastPrediction">
								<MiningSchema>
									<MiningField name="other.installment.plans"/>
									<MiningField name="property"/>
									<MiningField name="savings.account.and.bonds"/>
									<MiningField name="standardScaler(duration.in.month)"/>
									<MiningField name="standardScaler(credit.amount)"/>
									<MiningField name="standardScaler(installment.rate.in.percentage.of.disposable.income)"/>
									<MiningField name="standardScaler(age.in.years)"/>
									<MiningField name="standardScaler(number.of.existing.credits.at.this.bank)"/>
									<MiningField name="standardScaler(number.of.people.being.liable.to.provide.maintenance.for)"/>
									<MiningField name="savings.account.and.bonds=unknown/ no savings account"/>
									<MiningField name="job=unskilled - resident"/>
									<MiningField name="present.employment.since=... &lt; 1 year"/>
									<MiningField name="present.employment.since=4 &lt;= ... &lt; 7 years"/>
									<MiningField name="status.of.existing.checking.account=no checking account"/>
									<MiningField name="purpose=car (new)"/>
									<MiningField name="purpose=car (used)"/>
									<MiningField name="credit.history=critical account/ other credits existing (not at this bank)"/>
								</MiningSchema>
								<Node score="-0.09453796742467438">
									<True/>
									<Node score="-0.03702152175215921">
										<SimplePredicate field="status.of.existing.checking.account=no checking account" operator="greaterThan" value="1.0000000180025095E-35"/>
										<Node score="0.07587289379020773">
											<SimplePredicate field="standardScaler(credit.amount)" operator="greaterThan" value="0.21715363936399662"/>
											<Node score="-0.11362528417744078">
												<SimplePredicate field="purpose=car (used)" operator="greaterThan" value="1.0000000180025095E-35"/>
											</Node>
											<Node score="-0.040482376942881565">
												<SimplePredicate field="credit.history=critical account/ other credits existing (not at this bank)" operator="greaterThan" value="1.0000000180025095E-35"/>
											</Node>
										</Node>
										<Node score="-0.12829929372853988">
											<SimplePredicate field="other.installment.plans" operator="equal" value="none"/>
											<Node score="-0.1284800872746977">
												<SimplePredicate field="standardScaler(age.in.years)" operator="greaterThan" value="-0.3605444461951132"/>
												<Node score="-0.08681462252221021">
													<SimplePredicate field="standardScaler(number.of.people.being.liable.to.provide.maintenance.for)" operator="greaterThan" value="1.0000000180025095E-35"/>
												</Node>
												<Node score="-0.12819918810358014">
													<SimplePredicate field="credit.history=critical account/ other credits existing (not at this bank)" operator="greaterThan" value="1.0000000180025095E-35"/>
													<Node score="-0.1283154580971195">
														<SimplePredicate field="standardScaler(credit.amount)" operator="greaterThan" value="-0.5823073680396013"/>
													</Node>
												</Node>
												<Node score="-0.1303753432211058">
													<SimplePredicate field="standardScaler(installment.rate.in.percentage.of.disposable.income)" operator="greaterThan" value="0.4791410746689787"/>
												</Node>
											</Node>
											<Node score="-0.04994404621917648">
												<SimplePredicate field="standardScaler(installment.rate.in.percentage.of.disposable.income)" operator="greaterThan" value="0.4791410746689787"/>
											</Node>
											<Node score="-0.10202079115259431">
												<SimplePredicate field="standardScaler(credit.amount)" operator="greaterThan" value="-0.43017965272175557"/>
											</Node>
										</Node>
									</Node>
									<Node score="0.08100774431307729">
										<SimplePredicate field="standardScaler(duration.in.month)" operator="greaterThan" value="0.05186440452442997"/>
										<Node score="-0.033851350599559286">
											<SimplePredicate field="savings.account.and.bonds=unknown/ no savings account" operator="greaterThan" value="1.0000000180025095E-35"/>
										</Node>
										<Node score="0.17346479679194243">
											<SimplePredicate field="standardScaler(duration.in.month)" operator="greaterThan" value="1.8797849450899722"/>
										</Node>
										<Node score="0.18432636792466636">
											<SimplePredicate field="purpose=car (new)" operator="greaterThan" value="1.0000000180025095E-35"/>
										</Node>
										<Node score="0.1502626059387135">
											<SimplePredicate field="present.employment.since=... &lt; 1 year" operator="greaterThan" value="1.0000000180025095E-35"/>
										</Node>
										<Node score="-0.052735742360375815">
											<SimplePredicate field="standardScaler(age.in.years)" operator="greaterThan" value="0.6024085347013243"/>
										</Node>
										<Node score="0.08898467847011364">
											<SimplePredicate field="standardScaler(number.of.existing.credits.at.this.bank)" operator="greaterThan" value="1.0000000180025095E-35"/>
										</Node>
										<Node score="-0.03945270064767571">
											<SimplePredicate field="standardScaler(credit.amount)" operator="greaterThan" value="0.055012898903983226"/>
										</Node>
									</Node>
									<Node score="-0.03401348752503048">
										<SimplePredicate field="standardScaler(duration.in.month)" operator="greaterThan" value="-1.0282704603552084"/>
										<Node score="-0.030878438050978202">
											<SimplePredicate field="standardScaler(credit.amount)" operator="greaterThan" value="-0.7038690066076719"/>
											<Node score="-0.10689228752375035">
												<SimplePredicate field="present.employment.since=4 &lt;= ... &lt; 7 years" operator="greaterThan" value="1.0000000180025095E-35"/>
											</Node>
											<Node score="-0.054794855894046146">
												<SimplePredicate field="job=unskilled - resident" operator="greaterThan" value="1.0000000180025095E-35"/>
											</Node>
											<Node score="0.026464862287243686">
												<SimplePredicate field="savings.account.and.bonds" operator="equal" value="... &lt; 100 DM"/>
												<Node score="0.09673719812985317">
													<SimplePredicate field="standardScaler(duration.in.month)" operator="greaterThan" value="-0.4466593792661724"/>
												</Node>
											</Node>
										</Node>
										<Node score="0.19396425888148633">
											<SimplePredicate field="property" operator="equal" value="car or other, not in attribute Savings account/bonds"/>
										</Node>
										<Node score="0.09099136725265786">
											<SimplePredicate field="standardScaler(age.in.years)" operator="greaterThan" value="-0.7107091665210904"/>
										</Node>
									</Node>
									<Node score="-0.03407076903259098">
										<SimplePredicate field="standardScaler(credit.amount)" operator="greaterThan" value="-0.7318000767410869"/>
									</Node>
								</Node>
							</TreeModel>
						</Segment>
						<Segment id="5">
							<True/>
							<TreeModel functionName="regression" noTrueChildStrategy="returnLastPrediction">
								<MiningSchema>
									<MiningField name="other.installment.plans"/>
									<MiningField name="property"/>
									<MiningField name="other.debtors.or.guarantors"/>
									<MiningField name="standardScaler(duration.in.month)"/>
									<MiningField name="standardScaler(credit.amount)"/>
									<MiningField name="standardScaler(installment.rate.in.percentage.of.disposable.income)"/>
									<MiningField name="standardScaler(age.in.years)"/>
									<MiningField name="savings.account.and.bonds=unknown/ no savings account"/>
									<MiningField name="present.employment.since=... &gt;= 7 years"/>
									<MiningField name="status.of.existing.checking.account=no checking account"/>
									<MiningField name="purpose=car (new)"/>
									<MiningField name="purpose=car (used)"/>
									<MiningField name="credit.history=critical account/ other credits existing (not at this bank)"/>
									<MiningField name="credit.history=existing credits paid back duly till now"/>
								</MiningSchema>
								<Node score="-0.012039710626199567">
									<True/>
									<Node score="-0.12578231479703622">
										<SimplePredicate field="status.of.existing.checking.account=no checking account" operator="greaterThan" value="1.0000000180025095E-35"/>
										<Node score="0.013731966331096915">
											<SimplePredicate field="other.installment.plans" operator="equal" value="bank"/>
										</Node>
										<Node score="0.011957692593993395">
											<SimplePredicate field="standardScaler(credit.amount)" operator="greaterThan" value="0.3049871932426605"/>
											<Node score="-0.06641096785327827">
												<SimplePredicate field="standardScaler(duration.in.month)" operator="greaterThan" value="0.38421359371816494"/>
											</Node>
										</Node>
										<Node score="-0.03911602582240352">
											<SimplePredicate field="standardScaler(installment.rate.in.percentage.of.disposable.income)" operator="greaterThan" value="0.4791410746689787"/>
											<Node score="-0.09903653147040326">
												<SimplePredicate field="standardScaler(age.in.years)" operator="greaterThan" value="-0.4480856262766076"/>
												<Node score="-0.12547936776677196">
													<SimplePredicate field="credit.history=critical account/ other credits existing (not at this bank)" operator="greaterThan" value="1.0000000180025095E-35"/>
													<Node score="-0.1249108926696072">
														<SimplePredicate field="standardScaler(age.in.years)" operator="greaterThan" value="0.6899497147828185"/>
													</Node>
												</Node>
												<Node score="-0.06978801690288856">
													<SimplePredicate field="standardScaler(age.in.years)" operator="greaterThan" value="0.1647026342938526"/>
												</Node>
											</Node>
										</Node>
										<Node score="-0.09766824027629423">
											<SimplePredicate field="present.employment.since=... &gt;= 7 years" operator="greaterThan" value="1.0000000180025095E-35"/>
										</Node>
										<Node score="-0.1270057807477351">
											<SimplePredicate field="standardScaler(credit.amount)" operator="greaterThan" value="-0.16211164628407368"/>
										</Node>
										<Node score="-0.12503548861623057">
											<SimplePredicate field="credit.history=existing credits paid back duly till now" operator="greaterThan" value="1.0000000180025095E-35"/>
										</Node>
									</Node>
									<Node score="0.10925502725864761">
										<SimplePredicate field="standardScaler(duration.in.month)" operator="greaterThan" value="0.05186440452442997"/>
										<Node score="-0.030895434969263825">
											<SimplePredicate field="savings.account.and.bonds=unknown/ no savings account" operator="greaterThan" value="1.0000000180025095E-35"/>
										</Node>
										<Node score="0.15371678240703152">
											<SimplePredicate field="standardScaler(duration.in.month)" operator="greaterThan" value="1.8797849450899722"/>
										</Node>
										<Node score="-0.04187770648382386">
											<SimplePredicate field="purpose=car (used)" operator="greaterThan" value="1.0000000180025095E-35"/>
										</Node>
										<Node score="0.15960726822947538">
											<SimplePredicate field="purpose=car (new)" operator="greaterThan" value="1.0000000180025095E-35"/>
										</Node>
										<Node score="-0.010317510165243475">
											<SimplePredicate field="standardScaler(age.in.years)" operator="greaterThan" value="0.6024085347013243"/>
										</Node>
										<Node score="0.15341267767672725">
											<SimplePredicate field="standardScaler(age.in.years)" operator="greaterThan" value="-0.27300326611361897"/>
										</Node>
										<Node score="0.011242638648438538">
											<SimplePredicate field="credit.history=existing credits paid back duly till now" operator="greaterThan" value="1.0000000180025095E-35"/>
										</Node>
									</Node>
									<Node score="-0.08323963970669773">
										<SimplePredicate field="other.debtors.or.guarantors" operator="equal" value="guarantor"/>
									</Node>
									<Node score="0.018535301416716315">
										<SimplePredicate field="credit.history=critical account/ other credits existing (not at this bank)" operator="greaterThan" value="1.0000000180025095E-35"/>
										<Node score="-0.041125739016622496">
											<SimplePredicate field="standardScaler(age.in.years)" operator="greaterThan" value="-0.09792090595063034"/>
											<Node score="-0.11566003195608565">
												<SimplePredicate field="purpose=car (new)" operator="greaterThan" value="1.0000000180025095E-35"/>
											</Node>
										</Node>
									</Node>
									<Node score="0.038959121047850404">
										<SimplePredicate field="standardScaler(credit.amount)" operator="greaterThan" value="-0.6820862852457633"/>
										<Node score="-0.05708819715539723">
											<SimplePredicate field="property" operator="equal" value="car or other, not in attribute Savings account/bonds"/>
										</Node>
										<Node score="-0.015838713607272195">
											<SimplePredicate field="property" operator="equal" value="real estate"/>
										</Node>
										<Node score="0.13190238287244757">
											<SimplePredicate field="standardScaler(credit.amount)" operator="greaterThan" value="-0.06479206858651419"/>
										</Node>
									</Node>
									<Node score="0.16595257412505243">
										<SimplePredicate field="property" operator="equal" value="car or other, not in attribute Savings account/bonds"/>
									</Node>
									<Node score="0.08755997209038932">
										<SimplePredicate field="standardScaler(installment.rate.in.percentage.of.disposable.income)" operator="greaterThan" value="0.4791410746689787"/>
									</Node>
								</Node>
							</TreeModel>
						</Segment>
						<Segment id="6">
							<True/>
							<TreeModel functionName="regression" noTrueChildStrategy="returnLastPrediction">
								<MiningSchema>
									<MiningField name="other.installment.plans"/>
									<MiningField name="telephone"/>
									<MiningField name="property"/>
									<MiningField name="other.debtors.or.guarantors"/>
									<MiningField name="savings.account.and.bonds"/>
									<MiningField name="standardScaler(duration.in.month)"/>
									<MiningField name="standardScaler(credit.amount)"/>
									<MiningField name="standardScaler(installment.rate.in.percentage.of.disposable.income)"/>
									<MiningField name="standardScaler(present.residence.since)"/>
									<MiningField name="standardScaler(age.in.years)"/>
									<MiningField name="standardScaler(number.of.people.being.liable.to.provide.maintenance.for)"/>
									<MiningField name="savings.account.and.bonds=unknown/ no savings account"/>
									<MiningField name="personal.status.and.sex=male : single"/>
									<MiningField name="status.of.existing.checking.account=... &lt; 0 DM"/>
									<MiningField name="status.of.existing.checking.account=... &gt;= 200 DM / salary assignments for at least 1 year"/>
									<MiningField name="status.of.existing.checking.account=no checking account"/>
									<MiningField name="purpose=car (used)"/>
									<MiningField name="credit.history=critical account/ other credits existing (not at this bank)"/>
								</MiningSchema>
								<Node score="-0.0690799911103945">
									<True/>
									<Node score="-0.03298817290623115">
										<SimplePredicate field="status.of.existing.checking.account=no checking account" operator="greaterThan" value="1.0000000180025095E-35"/>
										<Node score="0.0776527185905771">
											<SimplePredicate field="standardScaler(credit.amount)" operator="greaterThan" value="0.21715363936399662"/>
											<Node score="-0.10739103003825201">
												<SimplePredicate field="purpose=car (used)" operator="greaterThan" value="1.0000000180025095E-35"/>
											</Node>
											<Node score="-0.012061516865097415">
												<SimplePredicate field="standardScaler(installment.rate.in.percentage.of.disposable.income)" operator="greaterThan" value="1.0000000180025095E-35"/>
											</Node>
										</Node>
										<Node score="-0.1220496623864123">
											<SimplePredicate field="other.installment.plans" operator="equal" value="none"/>
											<Node score="-0.12229410417243997">
												<SimplePredicate field="standardScaler(age.in.years)" operator="greaterThan" value="-0.3605444461951132"/>
												<Node score="-0.07627681874001394">
													<SimplePredicate field="standardScaler(number.of.people.being.liable.to.provide.maintenance.for)" operator="greaterThan" value="1.0000000180025095E-35"/>
												</Node>
												<Node score="-0.12195101120895524">
													<SimplePredicate field="credit.history=critical account/ other credits existing (not at this bank)" operator="greaterThan" value="1.0000000180025095E-35"/>
												</Node>
												<Node score="-0.1245571932876062">
													<SimplePredicate field="standardScaler(installment.rate.in.percentage.of.disposable.income)" operator="greaterThan" value="0.4791410746689787"/>
												</Node>
											</Node>
											<Node score="-0.042622864193199675">
												<SimplePredicate field="standardScaler(installment.rate.in.percentage.of.disposable.income)" operator="greaterThan" value="0.4791410746689787"/>
											</Node>
											<Node score="-0.09246959771238383">
												<SimplePredicate field="standardScaler(credit.amount)" operator="greaterThan" value="-0.43017965272175557"/>
											</Node>
										</Node>
									</Node>
									<Node score="-0.08604073683705485">
										<SimplePredicate field="status.of.existing.checking.account=... &gt;= 200 DM / salary assignments for at least 1 year" operator="greaterThan" value="1.0000000180025095E-35"/>
										<Node score="-0.012358715587082025">
											<SimplePredicate field="standardScaler(installment.rate.in.percentage.of.disposable.income)" operator="greaterThan" value="1.0000000180025095E-35"/>
										</Node>
									</Node>
									<Node score="0.0024947682753879534">
										<SimplePredicate field="standardScaler(duration.in.month)" operator="greaterThan" value="0.05186440452442997"/>
										<Node score="-0.017691810513196588">
											<SimplePredicate field="savings.account.and.bonds=unknown/ no savings account" operator="greaterThan" value="1.0000000180025095E-35"/>
										</Node>
										<Node score="-0.002561820713146441">
											<SimplePredicate field="purpose=car (used)" operator="greaterThan" value="1.0000000180025095E-35"/>
										</Node>
										<Node score="0.035525074405853445">
											<SimplePredicate field="standardScaler(present.residence.since)" operator="greaterThan" value="-1.2235611145618273"/>
											<Node score="0.17915302151372633">
												<SimplePredicate field="standardScaler(duration.in.month)" operator="greaterThan" value="1.8797849450899722"/>
											</Node>
											<Node score="0.09298049251765955">
												<SimplePredicate field="savings.account.and.bonds" operator="equal" value="... &lt; 100 DM"/>
												<Node score="0.05602144004176364">
													<SimplePredicate field="standardScaler(age.in.years)" operator="greaterThan" value="0.25224381437534693"/>
												</Node>
												<Node score="0.18551353637170342">
													<SimplePredicate field="personal.status.and.sex=male : single" operator="greaterThan" value="1.0000000180025095E-35"/>
												</Node>
											</Node>
										</Node>
									</Node>
									<Node score="0.1123051287288543">
										<SimplePredicate field="other.debtors.or.guarantors" operator="equal" value="none"/>
										<Node score="-0.0777605442335539">
											<SimplePredicate field="credit.history=critical account/ other credits existing (not at this bank)" operator="greaterThan" value="1.0000000180025095E-35"/>
											<Node score="-0.002495166336653122">
												<SimplePredicate field="standardScaler(duration.in.month)" operator="greaterThan" value="-0.4466593792661724"/>
											</Node>
										</Node>
										<Node score="0.0011485757859797747">
											<SimplePredicate field="standardScaler(credit.amount)" operator="greaterThan" value="-0.47620443495417536"/>
											<Node score="-0.07958984416295334">
												<SimplePredicate field="property" operator="equal" value="car or other, not in attribute Savings account/bonds"/>
											</Node>
											<Node score="0.09722193898995457">
												<SimplePredicate field="status.of.existing.checking.account=... &lt; 0 DM" operator="greaterThan" value="1.0000000180025095E-35"/>
											</Node>
										</Node>
										<Node score="0.008167421261633823">
											<SimplePredicate field="telephone" operator="equal" value="yes, registered under the customers name"/>
										</Node>
										<Node score="0.04208565523561162">
											<SimplePredicate field="property" operator="equal" value="real estate"/>
										</Node>
										<Node score="0.19840415590643748">
											<SimplePredicate field="standardScaler(age.in.years)" operator="greaterThan" value="-0.6231679864395961"/>
										</Node>
									</Node>
								</Node>
							</TreeModel>
						</Segment>
						<Segment id="7">
							<True/>
							<TreeModel functionName="regression" noTrueChildStrategy="returnLastPrediction">
								<MiningSchema>
									<MiningField name="other.installment.plans"/>
									<MiningField name="property"/>
									<MiningField name="standardScaler(duration.in.month)"/>
									<MiningField name="standardScaler(credit.amount)"/>
									<MiningField name="standardScaler(installment.rate.in.percentage.of.disposable.income)"/>
									<MiningField name="standardScaler(present.residence.since)"/>
									<MiningField name="standardScaler(age.in.years)"/>
									<MiningField name="savings.account.and.bonds=unknown/ no savings account"/>
									<MiningField name="job=management/ self-employed/ highly qualified employee/ officer"/>
									<MiningField name="present.employment.since=... &lt; 1 year"/>
									<MiningField name="personal.status.and.sex=female : divorced/separated/married"/>
									<MiningField name="status.of.existing.checking.account=... &lt; 0 DM"/>
									<MiningField name="status.of.existing.checking.account=no checking account"/>
									<MiningField name="purpose=car (new)"/>
									<MiningField name="purpose=radio/television"/>
								</MiningSchema>
								<Node score="-0.08855153096360147">
									<True/>
									<Node score="0.04949678598149365">
										<SimplePredicate field="status.of.existing.checking.account=no checking account" operator="greaterThan" value="1.0000000180025095E-35"/>
										<Node score="-0.11970185072987286">
											<SimplePredicate field="other.installment.plans" operator="equal" value="none"/>
											<Node score="-0.00447179497281967">
												<SimplePredicate field="present.employment.since=... &lt; 1 year" operator="greaterThan" value="1.0000000180025095E-35"/>
											</Node>
											<Node score="-0.03265423079663846">
												<SimplePredicate field="job=management/ self-employed/ highly qualified employee/ officer" operator="greaterThan" value="1.0000000180025095E-35"/>
											</Node>
											<Node score="-0.12341895968384915">
												<SimplePredicate field="standardScaler(duration.in.month)" operator="greaterThan" value="1.0000000180025095E-35"/>
												<Node score="-0.10153383426328369">
													<SimplePredicate field="purpose=radio/television" operator="greaterThan" value="1.0000000180025095E-35"/>
												</Node>
												<Node score="-0.13590725690254882">
													<SimplePredicate field="standardScaler(credit.amount)" operator="greaterThan" value="0.34064761611739797"/>
												</Node>
											</Node>
											<Node score="-0.12175351590871585">
												<SimplePredicate field="standardScaler(installment.rate.in.percentage.of.disposable.income)" operator="greaterThan" value="0.4791410746689787"/>
												<Node score="-0.0029465607391668917">
													<SimplePredicate field="standardScaler(credit.amount)" operator="greaterThan" value="-0.6993016618059814"/>
												</Node>
											</Node>
											<Node score="-0.09134729285697672">
												<SimplePredicate field="standardScaler(age.in.years)" operator="greaterThan" value="0.07716145421235827"/>
											</Node>
											<Node score="-0.12228204431426547">
												<SimplePredicate field="standardScaler(credit.amount)" operator="greaterThan" value="-0.4902578035747616"/>
											</Node>
										</Node>
										<Node score="-0.055522040020352485">
											<SimplePredicate field="standardScaler(present.residence.since)" operator="greaterThan" value="1.0000000180025095E-35"/>
										</Node>
									</Node>
									<Node score="-0.05683840904259801">
										<SimplePredicate field="standardScaler(duration.in.month)" operator="greaterThan" value="-1.0282704603552084"/>
										<Node score="0.08480386596603934">
											<SimplePredicate field="status.of.existing.checking.account=... &lt; 0 DM" operator="greaterThan" value="1.0000000180025095E-35"/>
											<Node score="-0.043125539901996676">
												<SimplePredicate field="job=management/ self-employed/ highly qualified employee/ officer" operator="greaterThan" value="1.0000000180025095E-35"/>
											</Node>
											<Node score="0.13310460836988675">
												<SimplePredicate field="standardScaler(duration.in.month)" operator="greaterThan" value="-0.4466593792661724"/>
												<Node score="0.052542255302919706">
													<SimplePredicate field="personal.status.and.sex=female : divorced/separated/married" operator="greaterThan" value="1.0000000180025095E-35"/>
												</Node>
												<Node score="0.18478395209312615">
													<SimplePredicate field="standardScaler(credit.amount)" operator="greaterThan" value="0.2220723183812018"/>
												</Node>
												<Node score="0.05274042831337231">
													<SimplePredicate field="standardScaler(credit.amount)" operator="greaterThan" value="-0.16913833059436678"/>
												</Node>
											</Node>
											<Node score="-0.06595528946024835">
												<SimplePredicate field="standardScaler(credit.amount)" operator="greaterThan" value="-0.6634655718234866"/>
											</Node>
										</Node>
										<Node score="-0.01066920321594041">
											<SimplePredicate field="savings.account.and.bonds=unknown/ no savings account" operator="greaterThan" value="1.0000000180025095E-35"/>
											<Node score="-0.11663437045299259">
												<SimplePredicate field="standardScaler(duration.in.month)" operator="greaterThan" value="-0.15585383872165434"/>
											</Node>
										</Node>
										<Node score="0.13016063127854902">
											<SimplePredicate field="standardScaler(credit.amount)" operator="greaterThan" value="1.6809876483058077"/>
										</Node>
										<Node score="-0.0430661420069179">
											<SimplePredicate field="standardScaler(age.in.years)" operator="greaterThan" value="0.33978499445684124"/>
											<Node score="-0.05284985784633674">
												<SimplePredicate field="standardScaler(credit.amount)" operator="greaterThan" value="-0.4902578035747616"/>
											</Node>
										</Node>
										<Node score="0.10020746224105477">
											<SimplePredicate field="purpose=car (new)" operator="greaterThan" value="1.0000000180025095E-35"/>
										</Node>
										<Node score="0.08150867824091776">
											<SimplePredicate field="standardScaler(duration.in.month)" operator="greaterThan" value="1.0000000180025095E-35"/>
											<Node score="-0.0020664299790945887">
												<SimplePredicate field="property" operator="equal" value="car or other, not in attribute Savings account/bonds"/>
											</Node>
										</Node>
										<Node score="0.024607298732746304">
											<SimplePredicate field="standardScaler(age.in.years)" operator="greaterThan" value="-0.7107091665210904"/>
										</Node>
									</Node>
									<Node score="-0.026831787903770433">
										<SimplePredicate field="standardScaler(credit.amount)" operator="greaterThan" value="-0.7318000767410869"/>
									</Node>
								</Node>
							</TreeModel>
						</Segment>
						<Segment id="8">
							<True/>
							<TreeModel functionName="regression" noTrueChildStrategy="returnLastPrediction">
								<MiningSchema>
									<MiningField name="other.installment.plans"/>
									<MiningField name="property"/>
									<MiningField name="other.debtors.or.guarantors"/>
									<MiningField name="savings.account.and.bonds"/>
									<MiningField name="standardScaler(duration.in.month)"/>
									<MiningField name="standardScaler(credit.amount)"/>
									<MiningField name="standardScaler(installment.rate.in.percentage.of.disposable.income)"/>
									<MiningField name="standardScaler(present.residence.since)"/>
									<MiningField name="standardScaler(age.in.years)"/>
									<MiningField name="present.employment.since=1 &lt;= ... &lt; 4 years"/>
									<MiningField name="status.of.existing.checking.account=... &gt;= 200 DM / salary assignments for at least 1 year"/>
									<MiningField name="status.of.existing.checking.account=no checking account"/>
									<MiningField name="purpose=car (new)"/>
									<MiningField name="purpose=car (used)"/>
									<MiningField name="purpose=radio/television"/>
									<MiningField name="credit.history=critical account/ other credits existing (not at this bank)"/>
									<MiningField name="credit.history=existing credits paid back duly till now"/>
								</MiningSchema>
								<Node score="0.02821727445583044">
									<True/>
									<Node score="-0.02935427212731779">
										<SimplePredicate field="status.of.existing.checking.account=no checking account" operator="greaterThan" value="1.0000000180025095E-35"/>
										<Node score="0.07224793697532901">
											<SimplePredicate field="standardScaler(credit.amount)" operator="greaterThan" value="0.11228037603287204"/>
											<Node score="-0.10227587642909315">
												<SimplePredicate field="purpose=car (used)" operator="greaterThan" value="1.0000000180025095E-35"/>
											</Node>
											<Node score="-0.04004114517469854">
												<SimplePredicate field="credit.history=critical account/ other credits existing (not at this bank)" operator="greaterThan" value="1.0000000180025095E-35"/>
											</Node>
										</Node>
										<Node score="-0.11863866289882813">
											<SimplePredicate field="other.installment.plans" operator="equal" value="none"/>
											<Node score="-0.028032762870603023">
												<SimplePredicate field="standardScaler(installment.rate.in.percentage.of.disposable.income)" operator="greaterThan" value="0.4791410746689787"/>
												<Node score="-0.12090319211416872">
													<SimplePredicate field="standardScaler(age.in.years)" operator="greaterThan" value="-0.4480856262766076"/>
													<Node score="-0.0755919582865325">
														<SimplePredicate field="standardScaler(age.in.years)" operator="greaterThan" value="0.6024085347013243"/>
													</Node>
													<Node score="-0.11861368151206038">
														<SimplePredicate field="credit.history=critical account/ other credits existing (not at this bank)" operator="greaterThan" value="1.0000000180025095E-35"/>
													</Node>
												</Node>
											</Node>
											<Node score="-0.11983329491388324">
												<SimplePredicate field="standardScaler(credit.amount)" operator="greaterThan" value="-0.15367962511172192"/>
											</Node>
											<Node score="-0.11784338945940563">
												<SimplePredicate field="present.employment.since=1 &lt;= ... &lt; 4 years" operator="greaterThan" value="1.0000000180025095E-35"/>
											</Node>
										</Node>
									</Node>
									<Node score="-0.07094608922727799">
										<SimplePredicate field="status.of.existing.checking.account=... &gt;= 200 DM / salary assignments for at least 1 year" operator="greaterThan" value="1.0000000180025095E-35"/>
										<Node score="0.0020844938975340555">
											<SimplePredicate field="purpose=radio/television" operator="greaterThan" value="1.0000000180025095E-35"/>
										</Node>
									</Node>
									<Node score="-0.07682718724238005">
										<SimplePredicate field="standardScaler(duration.in.month)" operator="greaterThan" value="-0.7790085684599073"/>
										<Node score="0.1445055087496587">
											<SimplePredicate field="purpose=car (new)" operator="greaterThan" value="1.0000000180025095E-35"/>
											<Node score="0.004978061814824563">
												<SimplePredicate field="standardScaler(credit.amount)" operator="greaterThan" value="-0.6634655718234866"/>
												<Node score="0.09697639599480434">
													<SimplePredicate field="standardScaler(installment.rate.in.percentage.of.disposable.income)" operator="greaterThan" value="-1.0000000180025095E-35"/>
												</Node>
											</Node>
										</Node>
										<Node score="0.15752675029727004">
											<SimplePredicate field="standardScaler(duration.in.month)" operator="greaterThan" value="0.38421359371816494"/>
											<Node score="0.0034278257697094826">
												<SimplePredicate field="standardScaler(age.in.years)" operator="greaterThan" value="-0.7982503466025848"/>
												<Node score="0.0794798918549936">
													<SimplePredicate field="credit.history=existing credits paid back duly till now" operator="greaterThan" value="1.0000000180025095E-35"/>
												</Node>
											</Node>
										</Node>
										<Node score="0.04162620283572659">
											<SimplePredicate field="other.debtors.or.guarantors" operator="equal" value="none"/>
											<Node score="-0.045050528742282187">
												<SimplePredicate field="credit.history=critical account/ other credits existing (not at this bank)" operator="greaterThan" value="1.0000000180025095E-35"/>
											</Node>
											<Node score="0.09800446683162949">
												<SimplePredicate field="savings.account.and.bonds" operator="equal" value="... &lt; 100 DM"/>
												<Node score="0.11878213959637747">
													<SimplePredicate field="standardScaler(age.in.years)" operator="greaterThan" value="-0.09792090595063034"/>
												</Node>
												<Node score="-0.01914770308405388">
													<SimplePredicate field="standardScaler(credit.amount)" operator="greaterThan" value="-0.37941185857988785"/>
												</Node>
											</Node>
											<Node score="-0.0559983164191335">
												<SimplePredicate field="standardScaler(present.residence.since)" operator="greaterThan" value="0.5949530268009259"/>
											</Node>
										</Node>
									</Node>
									<Node score="-0.09791640064960758">
										<SimplePredicate field="property" operator="equal" value="real estate"/>
									</Node>
								</Node>
							</TreeModel>
						</Segment>
						<Segment id="9">
							<True/>
							<TreeModel functionName="regression" noTrueChildStrategy="returnLastPrediction">
								<MiningSchema>
									<MiningField name="other.installment.plans"/>
									<MiningField name="savings.account.and.bonds"/>
									<MiningField name="standardScaler(duration.in.month)"/>
									<MiningField name="standardScaler(credit.amount)"/>
									<MiningField name="standardScaler(installment.rate.in.percentage.of.disposable.income)"/>
									<MiningField name="standardScaler(present.residence.since)"/>
									<MiningField name="standardScaler(age.in.years)"/>
									<MiningField name="job=skilled employee / official"/>
									<MiningField name="present.employment.since=1 &lt;= ... &lt; 4 years"/>
									<MiningField name="status.of.existing.checking.account=... &lt; 0 DM"/>
									<MiningField name="status.of.existing.checking.account=no checking account"/>
									<MiningField name="purpose=car (new)"/>
									<MiningField name="purpose=car (used)"/>
									<MiningField name="credit.history=critical account/ other credits existing (not at this bank)"/>
									<MiningField name="credit.history=no credits taken/ all credits paid back duly"/>
								</MiningSchema>
								<Node score="-0.07559652593683695">
									<True/>
									<Node score="-0.026798601515673814">
										<SimplePredicate field="status.of.existing.checking.account=no checking account" operator="greaterThan" value="1.0000000180025095E-35"/>
										<Node score="0.06301309565074963">
											<SimplePredicate field="standardScaler(credit.amount)" operator="greaterThan" value="0.11228037603287204"/>
											<Node score="-0.09830814521140178">
												<SimplePredicate field="purpose=car (used)" operator="greaterThan" value="1.0000000180025095E-35"/>
											</Node>
											<Node score="-0.036775087723952146">
												<SimplePredicate field="credit.history=critical account/ other credits existing (not at this bank)" operator="greaterThan" value="1.0000000180025095E-35"/>
											</Node>
										</Node>
										<Node score="-0.11655564364692961">
											<SimplePredicate field="other.installment.plans" operator="equal" value="none"/>
											<Node score="-0.0256364603420951">
												<SimplePredicate field="standardScaler(installment.rate.in.percentage.of.disposable.income)" operator="greaterThan" value="0.4791410746689787"/>
												<Node score="-0.11852718651008276">
													<SimplePredicate field="standardScaler(age.in.years)" operator="greaterThan" value="-0.4480856262766076"/>
													<Node score="-0.07185894139352889">
														<SimplePredicate field="standardScaler(age.in.years)" operator="greaterThan" value="0.6024085347013243"/>
													</Node>
													<Node score="-0.11654007544990108">
														<SimplePredicate field="credit.history=critical account/ other credits existing (not at this bank)" operator="greaterThan" value="1.0000000180025095E-35"/>
													</Node>
												</Node>
											</Node>
											<Node score="-0.11759636797020274">
												<SimplePredicate field="standardScaler(credit.amount)" operator="greaterThan" value="-0.15367962511172192"/>
											</Node>
											<Node score="-0.11586083640055965">
												<SimplePredicate field="present.employment.since=1 &lt;= ... &lt; 4 years" operator="greaterThan" value="1.0000000180025095E-35"/>
											</Node>
										</Node>
									</Node>
									<Node score="0.11628165582065686">
										<SimplePredicate field="credit.history=no credits taken/ all credits paid back duly" operator="greaterThan" value="1.0000000180025095E-35"/>
									</Node>
									<Node score="0.09259486669700319">
										<SimplePredicate field="standardScaler(credit.amount)" operator="greaterThan" value="1.4719437900745878"/>
									</Node>
									<Node score="-0.04326296443578094">
										<SimplePredicate field="standardScaler(duration.in.month)" operator="greaterThan" value="-1.1113577576536422"/>
										<Node score="-0.07739470114638078">
											<SimplePredicate field="purpose=car (used)" operator="greaterThan" value="1.0000000180025095E-35"/>
										</Node>
										<Node score="0.0448028467655981">
											<SimplePredicate field="status.of.existing.checking.account=... &lt; 0 DM" operator="greaterThan" value="1.0000000180025095E-35"/>
											<Node score="0.014155442571363808">
												<SimplePredicate field="standardScaler(duration.in.month)" operator="greaterThan" value="-0.4466593792661724"/>
												<Node score="0.1562723906972977">
													<SimplePredicate field="job=skilled employee / official" operator="greaterThan" value="1.0000000180025095E-35"/>
													<Node score="0.08299743192348438">
														<SimplePredicate field="standardScaler(installment.rate.in.percentage.of.disposable.income)" operator="greaterThan" value="0.4791410746689787"/>
													</Node>
												</Node>
											</Node>
											<Node score="-0.07332684662339742">
												<SimplePredicate field="standardScaler(credit.amount)" operator="greaterThan" value="-0.656263220405436"/>
											</Node>
										</Node>
										<Node score="-0.012003378486019439">
											<SimplePredicate field="standardScaler(age.in.years)" operator="greaterThan" value="0.33978499445684124"/>
											<Node score="-0.09968589472285826">
												<SimplePredicate field="standardScaler(present.residence.since)" operator="greaterThan" value="0.5949530268009259"/>
											</Node>
										</Node>
										<Node score="-0.006953117252575119">
											<SimplePredicate field="standardScaler(present.residence.since)" operator="greaterThan" value="-1.2235611145618273"/>
											<Node score="0.08734643375454984">
												<SimplePredicate field="purpose=car (new)" operator="greaterThan" value="1.0000000180025095E-35"/>
											</Node>
											<Node score="-0.03149071739580805">
												<SimplePredicate field="standardScaler(present.residence.since)" operator="greaterThan" value="0.5949530268009259"/>
											</Node>
											<Node score="0.08286568360011982">
												<SimplePredicate field="savings.account.and.bonds" operator="equal" value="... &lt; 100 DM"/>
											</Node>
										</Node>
									</Node>
								</Node>
							</TreeModel>
						</Segment>
						<Segment id="10">
							<True/>
							<TreeModel functionName="regression" noTrueChildStrategy="returnLastPrediction">
								<MiningSchema>
									<MiningField name="other.installment.plans"/>
									<MiningField name="telephone"/>
									<MiningField name="savings.account.and.bonds"/>
									<MiningField name="standardScaler(duration.in.month)"/>
									<MiningField name="standardScaler(credit.amount)"/>
									<MiningField name="standardScaler(installment.rate.in.percentage.of.disposable.income)"/>
									<MiningField name="standardScaler(age.in.years)"/>
									<MiningField name="job=management/ self-employed/ highly qualified employee/ officer"/>
									<MiningField name="job=skilled employee / official"/>
									<MiningField name="present.employment.since=... &lt; 1 year"/>
									<MiningField name="present.employment.since=1 &lt;= ... &lt; 4 years"/>
									<MiningField name="personal.status.and.sex=male : single"/>
									<MiningField name="status.of.existing.checking.account=0 &lt;= ... &lt; 200 DM"/>
									<MiningField name="status.of.existing.checking.account=no checking account"/>
									<MiningField name="purpose=car (new)"/>
									<MiningField name="purpose=car (used)"/>
									<MiningField name="credit.history=critical account/ other credits existing (not at this bank)"/>
									<MiningField name="credit.history=no credits taken/ all credits paid back duly"/>
								</MiningSchema>
								<Node score="-0.0708371280550313">
									<True/>
									<Node score="-0.11799182983162987">
										<SimplePredicate field="status.of.existing.checking.account=no checking account" operator="greaterThan" value="1.0000000180025095E-35"/>
										<Node score="0.019493670621803322">
											<SimplePredicate field="other.installment.plans" operator="equal" value="bank"/>
										</Node>
										<Node score="-0.0025043758705492183">
											<SimplePredicate field="present.employment.since=... &lt; 1 year" operator="greaterThan" value="1.0000000180025095E-35"/>
										</Node>
										<Node score="-0.02381929385659258">
											<SimplePredicate field="job=management/ self-employed/ highly qualified employee/ officer" operator="greaterThan" value="1.0000000180025095E-35"/>
										</Node>
										<Node score="-0.07886235421538126">
											<SimplePredicate field="present.employment.since=1 &lt;= ... &lt; 4 years" operator="greaterThan" value="1.0000000180025095E-35"/>
											<Node score="-0.020883314537402217">
												<SimplePredicate field="standardScaler(duration.in.month)" operator="greaterThan" value="-0.4466593792661724"/>
												<Node score="-0.044375383728549433">
													<SimplePredicate field="standardScaler(credit.amount)" operator="greaterThan" value="-0.07480509372868187"/>
												</Node>
											</Node>
											<Node score="-0.11972340143833536">
												<SimplePredicate field="standardScaler(duration.in.month)" operator="greaterThan" value="-0.862095865758341"/>
											</Node>
										</Node>
										<Node score="-0.05264866451033166">
											<SimplePredicate field="telephone" operator="equal" value="none"/>
											<Node score="-0.11795146798060047">
												<SimplePredicate field="credit.history=critical account/ other credits existing (not at this bank)" operator="greaterThan" value="1.0000000180025095E-35"/>
											</Node>
										</Node>
										<Node score="-0.13289006071973478">
											<SimplePredicate field="standardScaler(credit.amount)" operator="greaterThan" value="0.09699733765798453"/>
										</Node>
									</Node>
									<Node score="0.10381575341148477">
										<SimplePredicate field="credit.history=no credits taken/ all credits paid back duly" operator="greaterThan" value="1.0000000180025095E-35"/>
									</Node>
									<Node score="0.08298799232626068">
										<SimplePredicate field="standardScaler(credit.amount)" operator="greaterThan" value="1.4719437900745878"/>
									</Node>
									<Node score="0.07138779423694946">
										<SimplePredicate field="standardScaler(duration.in.month)" operator="greaterThan" value="-1.1113577576536422"/>
										<Node score="-0.07194826863665107">
											<SimplePredicate field="purpose=car (used)" operator="greaterThan" value="1.0000000180025095E-35"/>
										</Node>
										<Node score="-0.04739325920755777">
											<SimplePredicate field="standardScaler(age.in.years)" operator="greaterThan" value="-0.09792090595063034"/>
											<Node score="-0.11317227904920789">
												<SimplePredicate field="credit.history=critical account/ other credits existing (not at this bank)" operator="greaterThan" value="1.0000000180025095E-35"/>
												<Node score="-0.02015962293089233">
													<SimplePredicate field="personal.status.and.sex=male : single" operator="greaterThan" value="1.0000000180025095E-35"/>
												</Node>
											</Node>
											<Node score="-0.024052838866968906">
												<SimplePredicate field="savings.account.and.bonds" operator="equal" value="... &lt; 100 DM"/>
												<Node score="0.0941747864157998">
													<SimplePredicate field="job=skilled employee / official" operator="greaterThan" value="1.0000000180025095E-35"/>
												</Node>
											</Node>
										</Node>
										<Node score="0.04669362223054479">
											<SimplePredicate field="standardScaler(duration.in.month)" operator="greaterThan" value="0.5503881883150324"/>
											<Node score="0.13238573582237415">
												<SimplePredicate field="standardScaler(credit.amount)" operator="greaterThan" value="0.3049871932426605"/>
											</Node>
										</Node>
										<Node score="-0.08902264058127914">
											<SimplePredicate field="standardScaler(credit.amount)" operator="greaterThan" value="0.09699733765798453"/>
										</Node>
										<Node score="0.12638143337795749">
											<SimplePredicate field="purpose=car (new)" operator="greaterThan" value="1.0000000180025095E-35"/>
											<Node score="0.04742055661791975">
												<SimplePredicate field="standardScaler(credit.amount)" operator="greaterThan" value="-0.6928019788189602"/>
											</Node>
										</Node>
										<Node score="0.09571705786221829">
											<SimplePredicate field="standardScaler(age.in.years)" operator="greaterThan" value="-0.5356268063581019"/>
										</Node>
										<Node score="-0.06041092462575514">
											<SimplePredicate field="standardScaler(installment.rate.in.percentage.of.disposable.income)" operator="greaterThan" value="0.4791410746689787"/>
											<Node score="0.011248178730370978">
												<SimplePredicate field="standardScaler(duration.in.month)" operator="greaterThan" value="-0.4466593792661724"/>
											</Node>
										</Node>
										<Node score="0.013492972039476012">
											<SimplePredicate field="status.of.existing.checking.account=0 &lt;= ... &lt; 200 DM" operator="greaterThan" value="1.0000000180025095E-35"/>
										</Node>
									</Node>
								</Node>
							</TreeModel>
						</Segment>
						<Segment id="11">
							<True/>
							<TreeModel functionName="regression" noTrueChildStrategy="returnLastPrediction">
								<MiningSchema>
									<MiningField name="other.installment.plans"/>
									<MiningField name="property"/>
									<MiningField name="savings.account.and.bonds"/>
									<MiningField name="standardScaler(duration.in.month)"/>
									<MiningField name="standardScaler(credit.amount)"/>
									<MiningField name="standardScaler(installment.rate.in.percentage.of.disposable.income)"/>
